svm_type c_svc
kernel_type polynomial
degree 3
gamma 0.25
coef0 0.0
nr_class 3
total_sv 122
rho 0.9924255438994765 0.6977511041657873 -0.8033695909889349
label 1 2 3
nr_sv 23 50 49
SV
1.0 1.0 1:-0.388889 2:0.583333 3:-0.762712 4:-0.75 
1.0 1.0 1:-0.388889 2:0.416667 3:-0.830508 4:-0.916667 
1.0 0.7700600494575142 1:-0.222222 2:1.0 3:-0.830508 4:-0.75 
1.0 1.0 1:-0.388889 2:0.583333 3:-0.898305 4:-0.75 
1.0 1.0 1:-0.555556 2:0.25 3:-0.864407 4:-0.833333 
1.0 1.0 1:-0.222222 2:0.5 3:-0.762712 4:-0.833333 
1.0 1.0 1:-0.388889 2:0.166667 3:-0.762712 4:-0.916667 
1.0 1.0 1:-0.555556 2:0.416667 3:-0.830508 4:-0.75 
1.0 1.0 1:-0.555556 2:0.0833333 3:-0.762712 4:-0.666667 
1.0 1.0 1:-0.722222 2:0.166667 3:-0.694915 4:-0.916667 
1.0 1.0 1:-0.611111 2:-0.166667 3:-0.79661 4:-0.916667 
1.0 1.0 1:-0.611111 2:0.166667 3:-0.79661 4:-0.75 
1.0 1.0 1:-0.5 2:0.25 3:-0.830508 4:-0.916667 
1.0 0.0 1:-0.5 2:0.166667 3:-0.864407 4:-0.916667 
1.0 0.33106068138189737 1:-0.722222 2:-0.0833334 3:-0.79661 4:-0.916667 
1.0 1.0 1:-0.388889 2:0.166667 3:-0.830508 4:-0.75 
1.0 1.0 1:-0.333333 2:0.25 3:-0.898305 4:-0.916667 
1.0 0.0 1:-0.555556 2:0.166667 3:-0.830508 4:-0.916667 
1.0 0.7836586496115872 1:-0.888889 2:-0.75 3:-0.898305 4:-0.833333 
1.0 1.0 1:-0.611111 2:0.25 3:-0.79661 4:-0.583333 
1.0 1.0 1:-0.555556 2:0.5 3:-0.694915 4:-0.75 
1.0 1.0 1:-0.722222 2:-0.166667 3:-0.864407 4:-0.833333 
1.0 0.0 1:-0.444444 2:0.416667 3:-0.830508 4:-0.916667 
-0.0 1.0 1:0.5 3:0.254237 4:0.0833333 
-0.0 1.0 1:0.166667 3:0.186441 4:0.166667 
-0.0 1.0 1:0.444444 2:-0.0833334 3:0.322034 4:0.166667 
-0.0 1.0 1:-0.333333 2:-0.75 3:0.0169491 4:-4.03573E-8 
-0.0 1.0 1:0.222222 2:-0.333333 3:0.220339 4:0.166667 
-1.0 1.0 1:-0.222222 2:-0.333333 3:0.186441 4:-4.03573E-8 
-0.0 1.0 1:0.111111 2:0.0833333 3:0.254237 4:0.25 
-1.0 0.06902892691385017 1:-0.666667 2:-0.666667 3:-0.220339 4:-0.25 
-0.0 1.0 1:0.277778 2:-0.25 3:0.220339 4:-4.03573E-8 
-0.0 1.0 1:-0.5 2:-0.416667 3:-0.0169491 4:0.0833333 
-0.21367467224750863 0.0 1:-0.611111 2:-1.0 3:-0.152542 4:-0.25 
-1.0 1.0 1:-0.111111 2:-0.166667 3:0.0847457 4:0.166667 
-0.0 1.0 1:-0.0555556 2:-0.833333 3:0.0169491 4:-0.25 
-0.0 1.0 1:-1.32455E-7 2:-0.25 3:0.254237 4:0.0833333 
-1.0 1.0 1:-0.277778 2:-0.25 3:-0.118644 4:-4.03573E-8 
-0.0 1.0 1:0.333333 2:-0.0833334 3:0.152542 4:0.0833333 
-1.0 1.0 1:-0.277778 2:-0.166667 3:0.186441 4:0.166667 
-1.0 1.0 1:-0.166667 2:-0.416667 3:0.0508474 4:-0.25 
-0.0 1.0 1:0.0555554 2:-0.833333 3:0.186441 4:0.166667 
-1.0 1.0 1:-0.277778 2:-0.583333 3:-0.0169491 4:-0.166667 
-0.0 1.0 1:-0.111111 3:0.288136 4:0.416667 
-1.0 1.0 1:-1.32455E-7 2:-0.333333 3:0.0169491 4:-4.03573E-8 
-0.0 1.0 1:0.111111 2:-0.583333 3:0.322034 4:0.166667 
-0.7863253277524913 1.0 1:-1.32455E-7 2:-0.333333 3:0.254237 4:-0.0833333 
-1.0 1.0 1:0.166667 2:-0.25 3:0.118644 4:-4.03573E-8 
-0.0 1.0 1:0.277778 2:-0.166667 3:0.152542 4:0.0833333 
-0.0 1.0 1:0.388889 2:-0.333333 3:0.288136 4:0.0833333 
-0.0 1.0 1:0.333333 2:-0.166667 3:0.355932 4:0.333333 
-0.0 1.0 1:-0.0555556 2:-0.25 3:0.186441 4:0.166667 
-1.0 1.0 1:-0.222222 2:-0.5 3:-0.152542 4:-0.25 
-0.0 1.0 1:-0.333333 2:-0.666667 3:-0.0508475 4:-0.166667 
-1.0 1.0 1:-0.333333 2:-0.666667 3:-0.0847458 4:-0.25 
-1.0 1.0 1:-0.166667 2:-0.416667 3:-0.0169491 4:-0.0833333 
-0.0 1.0 1:-0.0555556 2:-0.416667 3:0.38983 4:0.25 
-1.0 1.0 1:-0.388889 2:-0.166667 3:0.186441 4:0.166667 
-0.0 1.0 1:-0.0555556 2:0.166667 3:0.186441 4:0.25 
-0.0 1.0 1:0.333333 2:-0.0833334 3:0.254237 4:0.166667 
-0.0 1.0 1:0.111111 2:-0.75 3:0.152542 4:-4.03573E-8 
-1.0 1.0 1:-0.277778 2:-0.166667 3:0.0508474 4:-4.03573E-8 
-0.0 1.0 1:-0.333333 2:-0.583333 3:0.0169491 4:-4.03573E-8 
-0.0 1.0 1:-0.333333 2:-0.5 3:0.152542 4:-0.0833333 
-0.0 1.0 1:-1.32455E-7 2:-0.166667 3:0.220339 4:0.0833333 
-1.0 1.0 1:-0.166667 2:-0.5 3:0.0169491 4:-0.0833333 
-1.0 1.0 1:-0.611111 2:-0.75 3:-0.220339 4:-0.25 
-1.0 1.0 1:-0.277778 2:-0.416667 3:0.0847457 4:-4.03573E-8 
-1.0 1.0 1:-0.222222 2:-0.166667 3:0.0847457 4:-0.0833333 
-1.0 1.0 1:-0.222222 2:-0.25 3:0.0847457 4:-4.03573E-8 
-1.0 1.0 1:0.0555554 2:-0.25 3:0.118644 4:-4.03573E-8 
-1.0 1.0 1:-0.555556 2:-0.583333 3:-0.322034 4:-0.166667 
-1.0 1.0 1:-0.222222 2:-0.333333 3:0.0508474 4:-4.03573E-8 
-0.0 -1.0 1:0.111111 2:0.0833333 3:0.694915 4:1.0 
-1.0 -1.0 1:-0.166667 2:-0.416667 3:0.38983 4:0.5 
-0.0 -1.0 1:0.555555 2:-0.166667 3:0.661017 4:0.666667 
-1.0 -1.0 1:0.111111 2:-0.25 3:0.559322 4:0.416667 
-0.0 -1.0 1:0.222222 2:-0.166667 3:0.627119 4:0.75 
-0.0 -1.0 1:0.833333 2:-0.166667 3:0.898305 4:0.666667 
-1.0 -1.0 1:-0.666667 2:-0.583333 3:0.186441 4:0.333333 
-0.0 -1.0 1:0.666667 2:-0.25 3:0.79661 4:0.416667 
-0.0 -1.0 1:0.333333 2:-0.583333 3:0.627119 4:0.416667 
-0.0 -1.0 1:0.611111 2:0.333333 3:0.728813 4:1.0 
-1.0 -1.0 1:0.222222 3:0.38983 4:0.583333 
-0.0 -1.0 1:0.166667 2:-0.416667 3:0.457627 4:0.5 
-0.0 -1.0 1:0.388889 2:-0.166667 3:0.525424 4:0.666667 
-1.0 -1.0 1:-0.222222 2:-0.583333 3:0.355932 4:0.583333 
-0.0 -1.0 1:-0.166667 2:-0.333333 3:0.38983 4:0.916667 
-0.0 -1.0 1:0.166667 3:0.457627 4:0.833333 
-1.0 -1.0 1:0.222222 2:-0.166667 3:0.525424 4:0.416667 
-0.0 -0.06902892691385017 1:0.888889 2:0.5 3:0.932203 4:0.75 
-1.0 -1.0 1:-0.0555556 2:-0.833333 3:0.355932 4:0.166667 
-0.0 -1.0 1:0.444444 3:0.59322 4:0.833333 
-1.0 -1.0 1:-0.277778 2:-0.333333 3:0.322034 4:0.583333 
-0.0 -1.0 1:0.888889 2:-0.333333 3:0.932203 4:0.583333 
-1.0 -1.0 1:0.111111 2:-0.416667 3:0.322034 4:0.416667 
-0.0 -1.0 1:0.333333 2:0.0833333 3:0.59322 4:0.666667 
-0.0 -1.0 1:0.611111 3:0.694915 4:0.416667 
-1.0 -1.0 1:0.0555554 2:-0.333333 3:0.288136 4:0.416667 
-1.0 -1.0 1:-1.32455E-7 2:-0.166667 3:0.322034 4:0.416667 
-0.0 -1.0 1:0.166667 2:-0.333333 3:0.559322 4:0.666667 
-0.0 -1.0 1:0.611111 2:-0.166667 3:0.627119 4:0.25 
-0.0 -1.0 1:0.722222 2:-0.333333 3:0.728813 4:0.5 
-0.0 -1.0 1:1.0 2:0.5 3:0.830508 4:0.583333 
-0.0 -1.0 1:0.166667 2:-0.333333 3:0.559322 4:0.75 
-1.0 -1.0 1:0.111111 2:-0.333333 3:0.38983 4:0.166667 
-1.0 -1.0 1:-1.32455E-7 2:-0.5 3:0.559322 4:0.0833333 
-0.0 -1.0 1:0.888889 2:-0.166667 3:0.728813 4:0.833333 
-0.0 -1.0 1:0.111111 2:0.166667 3:0.559322 4:0.916667 
-1.0 -1.0 1:0.166667 2:-0.0833334 3:0.525424 4:0.416667 
-1.0 -1.0 1:-0.0555556 2:-0.166667 3:0.288136 4:0.416667 
-0.0 -1.0 1:0.444444 2:-0.0833334 3:0.491525 4:0.666667 
-0.0 -1.0 1:0.333333 2:-0.0833334 3:0.559322 4:0.916667 
-0.0 -1.0 1:0.444444 2:-0.0833334 3:0.38983 4:0.833333 
-1.0 -1.0 1:-0.166667 2:-0.416667 3:0.38983 4:0.5 
-0.0 -1.0 1:0.388889 3:0.661017 4:0.833333 
-0.0 -1.0 1:0.333333 2:0.0833333 3:0.59322 4:1.0 
-0.0 -1.0 1:0.333333 2:-0.166667 3:0.423729 4:0.833333 
-1.0 -1.0 1:0.111111 2:-0.583333 3:0.355932 4:0.5 
-0.8847793804509988 -1.0 1:0.222222 2:-0.166667 3:0.423729 4:0.583333 
-0.0 -1.0 1:0.0555554 2:0.166667 3:0.491525 4:0.833333 
-1.0 -1.0 1:-0.111111 2:-0.166667 3:0.38983 4:0.416667 
