svm_type c_svc
kernel_type sigmoid
gamma 0.005555555555555556
coef0 0.0
nr_class 3
total_sv 1181
rho -1.5137512518023144 -0.7788297394328989 0.6707034956229873
label 3 1 2
nr_sv 463 367 351
SV
1.0 0.0 2:1.0 7:1.0 12:1.0 15:1.0 17:1.0 23:1.0 26:1.0 28:1.0 33:1.0 34:1.0 40:1.0 45:1.0 47:1.0 50:1.0 52:1.0 58:1.0 63:1.0 64:1.0 67:1.0 72:1.0 73:1.0 76:1.0 80:1.0 83:1.0 85:1.0 88:1.0 91:1.0 95:1.0 97:1.0 101:1.0 113:1.0 120:1.0 122:1.0 126:1.0 132:1.0 138:1.0 144:1.0 145:1.0 150:1.0 151:1.0 154:1.0 160:1.0 163:1.0 170:1.0 172:1.0 177:1.0 178:1.0 
0.0 1.0 3:1.0 6:1.0 12:1.0 21:1.0 23:1.0 29:1.0 37:1.0 42:1.0 45:1.0 46:1.0 54:1.0 58:1.0 65:1.0 68:1.0 71:1.0 74:1.0 80:1.0 82:1.0 85:1.0 88:1.0 92:1.0 95:1.0 100:1.0 104:1.0 107:1.0 114:1.0 117:1.0 123:1.0 126:1.0 134:1.0 141:1.0 147:1.0 149:1.0 152:1.0 161:1.0 164:1.0 167:1.0 170:1.0 175:1.0 179:1.0 
1.0 1.0 3:1.0 6:1.0 8:1.0 15:1.0 18:1.0 19:1.0 23:1.0 26:1.0 30:1.0 31:1.0 35:1.0 38:1.0 40:1.0 44:1.0 46:1.0 51:1.0 53:1.0 57:1.0 59:1.0 63:1.0 69:1.0 71:1.0 73:1.0 78:1.0 82:1.0 85:1.0 90:1.0 95:1.0 99:1.0 102:1.0 104:1.0 107:1.0 110:1.0 113:1.0 116:1.0 123:1.0 125:1.0 128:1.0 131:1.0 134:1.0 138:1.0 143:1.0 146:1.0 153:1.0 155:1.0 158:1.0 161:1.0 168:1.0 170:1.0 173:1.0 177:1.0 180:1.0 
1.0 0.0 1:1.0 4:1.0 9:1.0 11:1.0 20:1.0 27:1.0 28:1.0 33:1.0 34:1.0 44:1.0 47:1.0 50:1.0 53:1.0 56:1.0 58:1.0 66:1.0 72:1.0 74:1.0 81:1.0 82:1.0 86:1.0 93:1.0 96:1.0 99:1.0 100:1.0 104:1.0 106:1.0 109:1.0 112:1.0 116:1.0 122:1.0 127:1.0 131:1.0 134:1.0 137:1.0 140:1.0 143:1.0 146:1.0 148:1.0 151:1.0 154:1.0 157:1.0 162:1.0 163:1.0 166:1.0 169:1.0 172:1.0 177:1.0 178:1.0 
0.009935224307882566 0.0 3:1.0 4:1.0 7:1.0 12:1.0 13:1.0 21:1.0 27:1.0 35:1.0 37:1.0 42:1.0 44:1.0 49:1.0 57:1.0 58:1.0 63:1.0 66:1.0 72:1.0 75:1.0 81:1.0 82:1.0 90:1.0 97:1.0 102:1.0 108:1.0 111:1.0 114:1.0 115:1.0 120:1.0 122:1.0 124:1.0 129:1.0 132:1.0 135:1.0 136:1.0 147:1.0 150:1.0 153:1.0 156:1.0 161:1.0 163:1.0 167:1.0 169:1.0 173:1.0 176:1.0 179:1.0 
0.12407959572859383 0.0 3:1.0 8:1.0 11:1.0 14:1.0 26:1.0 28:1.0 31:1.0 34:1.0 45:1.0 51:1.0 52:1.0 55:1.0 60:1.0 61:1.0 64:1.0 71:1.0 74:1.0 76:1.0 79:1.0 84:1.0 87:1.0 92:1.0 99:1.0 105:1.0 108:1.0 111:1.0 112:1.0 115:1.0 118:1.0 121:1.0 126:1.0 128:1.0 130:1.0 133:1.0 138:1.0 140:1.0 144:1.0 145:1.0 150:1.0 152:1.0 154:1.0 159:1.0 161:1.0 168:1.0 171:1.0 173:1.0 180:1.0 
0.0 0.43678021879044693 1:1.0 5:1.0 7:1.0 11:1.0 14:1.0 23:1.0 25:1.0 28:1.0 32:1.0 34:1.0 39:1.0 41:1.0 46:1.0 50:1.0 55:1.0 61:1.0 69:1.0 71:1.0 73:1.0 77:1.0 84:1.0 87:1.0 90:1.0 96:1.0 98:1.0 102:1.0 103:1.0 107:1.0 109:1.0 114:1.0 117:1.0 119:1.0 122:1.0 125:1.0 128:1.0 135:1.0 138:1.0 139:1.0 143:1.0 145:1.0 148:1.0 153:1.0 156:1.0 159:1.0 161:1.0 171:1.0 172:1.0 177:1.0 
0.0 1.0 5:1.0 8:1.0 10:1.0 15:1.0 17:1.0 32:1.0 38:1.0 40:1.0 45:1.0 50:1.0 52:1.0 56:1.0 62:1.0 64:1.0 69:1.0 71:1.0 73:1.0 80:1.0 83:1.0 85:1.0 89:1.0 91:1.0 95:1.0 97:1.0 102:1.0 105:1.0 107:1.0 110:1.0 112:1.0 117:1.0 120:1.0 121:1.0 125:1.0 128:1.0 130:1.0 135:1.0 136:1.0 139:1.0 142:1.0 149:1.0 152:1.0 155:1.0 170:1.0 172:1.0 176:1.0 179:1.0 
1.0 0.0 2:1.0 6:1.0 7:1.0 11:1.0 15:1.0 18:1.0 20:1.0 22:1.0 25:1.0 30:1.0 33:1.0 34:1.0 43:1.0 47:1.0 49:1.0 56:1.0 60:1.0 62:1.0 65:1.0 68:1.0 75:1.0 76:1.0 79:1.0 82:1.0 87:1.0 88:1.0 93:1.0 96:1.0 97:1.0 101:1.0 104:1.0 111:1.0 113:1.0 117:1.0 119:1.0 125:1.0 135:1.0 138:1.0 139:1.0 143:1.0 146:1.0 150:1.0 152:1.0 156:1.0 159:1.0 161:1.0 165:1.0 168:1.0 169:1.0 173:1.0 175:1.0 
1.0 0.0 4:1.0 8:1.0 14:1.0 17:1.0 20:1.0 22:1.0 26:1.0 32:1.0 35:1.0 38:1.0 41:1.0 43:1.0 53:1.0 62:1.0 64:1.0 67:1.0 70:1.0 74:1.0 77:1.0 80:1.0 82:1.0 87:1.0 89:1.0 95:1.0 97:1.0 100:1.0 105:1.0 113:1.0 116:1.0 118:1.0 123:1.0 131:1.0 134:1.0 140:1.0 143:1.0 145:1.0 149:1.0 152:1.0 157:1.0 162:1.0 165:1.0 166:1.0 170:1.0 179:1.0 
1.0 1.0 3:1.0 4:1.0 14:1.0 20:1.0 23:1.0 30:1.0 36:1.0 38:1.0 43:1.0 48:1.0 49:1.0 57:1.0 63:1.0 65:1.0 67:1.0 70:1.0 73:1.0 81:1.0 83:1.0 85:1.0 88:1.0 93:1.0 95:1.0 100:1.0 105:1.0 111:1.0 114:1.0 116:1.0 125:1.0 127:1.0 130:1.0 133:1.0 136:1.0 142:1.0 147:1.0 148:1.0 153:1.0 154:1.0 157:1.0 164:1.0 167:1.0 170:1.0 172:1.0 176:1.0 
1.0 1.0 3:1.0 16:1.0 20:1.0 23:1.0 26:1.0 28:1.0 31:1.0 37:1.0 40:1.0 45:1.0 48:1.0 50:1.0 52:1.0 56:1.0 59:1.0 61:1.0 65:1.0 68:1.0 71:1.0 73:1.0 77:1.0 80:1.0 85:1.0 93:1.0 94:1.0 100:1.0 104:1.0 111:1.0 117:1.0 119:1.0 124:1.0 128:1.0 130:1.0 135:1.0 136:1.0 144:1.0 147:1.0 148:1.0 153:1.0 157:1.0 164:1.0 174:1.0 175:1.0 179:1.0 
0.0 1.0 3:1.0 4:1.0 7:1.0 12:1.0 15:1.0 17:1.0 27:1.0 28:1.0 33:1.0 36:1.0 38:1.0 41:1.0 48:1.0 51:1.0 52:1.0 57:1.0 69:1.0 70:1.0 75:1.0 76:1.0 80:1.0 83:1.0 85:1.0 90:1.0 92:1.0 95:1.0 102:1.0 105:1.0 107:1.0 110:1.0 112:1.0 115:1.0 119:1.0 121:1.0 127:1.0 130:1.0 134:1.0 136:1.0 139:1.0 144:1.0 145:1.0 149:1.0 152:1.0 158:1.0 160:1.0 167:1.0 173:1.0 
1.0 0.0 2:1.0 4:1.0 8:1.0 10:1.0 14:1.0 16:1.0 21:1.0 23:1.0 26:1.0 31:1.0 35:1.0 47:1.0 50:1.0 52:1.0 55:1.0 60:1.0 62:1.0 66:1.0 69:1.0 70:1.0 75:1.0 77:1.0 80:1.0 82:1.0 90:1.0 95:1.0 102:1.0 105:1.0 109:1.0 112:1.0 116:1.0 120:1.0 123:1.0 125:1.0 127:1.0 130:1.0 138:1.0 140:1.0 144:1.0 147:1.0 149:1.0 156:1.0 158:1.0 160:1.0 163:1.0 167:1.0 171:1.0 174:1.0 176:1.0 180:1.0 
1.0 1.0 1:1.0 6:1.0 9:1.0 12:1.0 15:1.0 17:1.0 24:1.0 26:1.0 29:1.0 33:1.0 35:1.0 37:1.0 42:1.0 44:1.0 47:1.0 51:1.0 53:1.0 56:1.0 60:1.0 62:1.0 66:1.0 67:1.0 72:1.0 74:1.0 77:1.0 83:1.0 86:1.0 90:1.0 93:1.0 94:1.0 98:1.0 100:1.0 105:1.0 106:1.0 110:1.0 114:1.0 116:1.0 119:1.0 121:1.0 126:1.0 127:1.0 132:1.0 134:1.0 138:1.0 139:1.0 144:1.0 147:1.0 148:1.0 153:1.0 156:1.0 158:1.0 162:1.0 164:1.0 169:1.0 173:1.0 177:1.0 179:1.0 
1.0 0.0 3:1.0 6:1.0 7:1.0 11:1.0 13:1.0 18:1.0 20:1.0 23:1.0 26:1.0 29:1.0 32:1.0 34:1.0 39:1.0 42:1.0 44:1.0 47:1.0 51:1.0 57:1.0 59:1.0 63:1.0 66:1.0 68:1.0 72:1.0 74:1.0 80:1.0 83:1.0 86:1.0 93:1.0 96:1.0 97:1.0 102:1.0 105:1.0 108:1.0 114:1.0 119:1.0 122:1.0 124:1.0 129:1.0 132:1.0 133:1.0 141:1.0 142:1.0 147:1.0 149:1.0 156:1.0 159:1.0 160:1.0 164:1.0 166:1.0 170:1.0 173:1.0 176:1.0 
1.0 1.0 2:1.0 6:1.0 9:1.0 11:1.0 14:1.0 20:1.0 24:1.0 26:1.0 28:1.0 31:1.0 36:1.0 38:1.0 41:1.0 44:1.0 46:1.0 50:1.0 54:1.0 57:1.0 59:1.0 62:1.0 65:1.0 69:1.0 71:1.0 78:1.0 81:1.0 84:1.0 87:1.0 90:1.0 96:1.0 98:1.0 101:1.0 105:1.0 110:1.0 113:1.0 116:1.0 120:1.0 122:1.0 126:1.0 128:1.0 131:1.0 135:1.0 138:1.0 141:1.0 144:1.0 146:1.0 150:1.0 153:1.0 154:1.0 159:1.0 161:1.0 163:1.0 168:1.0 171:1.0 173:1.0 176:1.0 179:1.0 
1.0 1.0 2:1.0 6:1.0 8:1.0 14:1.0 17:1.0 19:1.0 22:1.0 26:1.0 32:1.0 37:1.0 41:1.0 44:1.0 48:1.0 50:1.0 57:1.0 59:1.0 64:1.0 68:1.0 71:1.0 73:1.0 76:1.0 84:1.0 85:1.0 90:1.0 93:1.0 101:1.0 104:1.0 111:1.0 112:1.0 117:1.0 120:1.0 125:1.0 127:1.0 131:1.0 133:1.0 138:1.0 144:1.0 158:1.0 161:1.0 163:1.0 166:1.0 171:1.0 176:1.0 
1.0 1.0 3:1.0 4:1.0 9:1.0 16:1.0 21:1.0 22:1.0 27:1.0 30:1.0 32:1.0 39:1.0 45:1.0 48:1.0 53:1.0 56:1.0 59:1.0 65:1.0 68:1.0 74:1.0 83:1.0 93:1.0 95:1.0 98:1.0 101:1.0 107:1.0 113:1.0 119:1.0 126:1.0 128:1.0 131:1.0 137:1.0 144:1.0 150:1.0 152:1.0 158:1.0 160:1.0 165:1.0 171:1.0 177:1.0 178:1.0 
1.0 0.0 6:1.0 8:1.0 10:1.0 15:1.0 24:1.0 25:1.0 28:1.0 33:1.0 35:1.0 38:1.0 41:1.0 43:1.0 51:1.0 52:1.0 57:1.0 60:1.0 62:1.0 65:1.0 68:1.0 70:1.0 73:1.0 78:1.0 79:1.0 82:1.0 90:1.0 98:1.0 100:1.0 108:1.0 116:1.0 119:1.0 122:1.0 124:1.0 129:1.0 132:1.0 133:1.0 136:1.0 141:1.0 144:1.0 149:1.0 151:1.0 155:1.0 157:1.0 160:1.0 164:1.0 167:1.0 172:1.0 177:1.0 
1.0 1.0 5:1.0 8:1.0 14:1.0 21:1.0 24:1.0 30:1.0 32:1.0 35:1.0 37:1.0 40:1.0 44:1.0 51:1.0 53:1.0 55:1.0 60:1.0 62:1.0 64:1.0 68:1.0 72:1.0 74:1.0 79:1.0 84:1.0 87:1.0 90:1.0 93:1.0 99:1.0 102:1.0 107:1.0 109:1.0 113:1.0 116:1.0 122:1.0 124:1.0 129:1.0 131:1.0 134:1.0 138:1.0 139:1.0 144:1.0 147:1.0 148:1.0 152:1.0 154:1.0 158:1.0 161:1.0 167:1.0 171:1.0 174:1.0 177:1.0 180:1.0 
0.0 1.0 1:1.0 6:1.0 9:1.0 12:1.0 20:1.0 23:1.0 41:1.0 44:1.0 47:1.0 49:1.0 54:1.0 57:1.0 58:1.0 61:1.0 65:1.0 68:1.0 71:1.0 80:1.0 83:1.0 85:1.0 88:1.0 94:1.0 97:1.0 103:1.0 107:1.0 109:1.0 112:1.0 116:1.0 120:1.0 123:1.0 125:1.0 131:1.0 134:1.0 143:1.0 146:1.0 158:1.0 170:1.0 173:1.0 176:1.0 
0.0 0.37430753790414095 1:1.0 5:1.0 7:1.0 10:1.0 15:1.0 20:1.0 22:1.0 29:1.0 35:1.0 41:1.0 48:1.0 49:1.0 52:1.0 75:1.0 79:1.0 83:1.0 96:1.0 97:1.0 102:1.0 103:1.0 108:1.0 112:1.0 126:1.0 133:1.0 139:1.0 153:1.0 155:1.0 157:1.0 160:1.0 165:1.0 166:1.0 174:1.0 175:1.0 178:1.0 
1.0 0.0 6:1.0 12:1.0 18:1.0 20:1.0 23:1.0 25:1.0 28:1.0 32:1.0 35:1.0 38:1.0 40:1.0 45:1.0 46:1.0 51:1.0 52:1.0 55:1.0 60:1.0 61:1.0 64:1.0 67:1.0 75:1.0 78:1.0 81:1.0 89:1.0 93:1.0 96:1.0 99:1.0 100:1.0 105:1.0 109:1.0 113:1.0 115:1.0 122:1.0 124:1.0 127:1.0 131:1.0 137:1.0 150:1.0 153:1.0 154:1.0 159:1.0 160:1.0 168:1.0 169:1.0 174:1.0 176:1.0 
0.0 1.0 1:1.0 5:1.0 8:1.0 21:1.0 30:1.0 33:1.0 42:1.0 46:1.0 49:1.0 52:1.0 59:1.0 66:1.0 71:1.0 79:1.0 83:1.0 86:1.0 88:1.0 91:1.0 99:1.0 102:1.0 108:1.0 111:1.0 123:1.0 131:1.0 134:1.0 137:1.0 143:1.0 146:1.0 153:1.0 154:1.0 157:1.0 161:1.0 163:1.0 168:1.0 
1.0 1.0 2:1.0 17:1.0 20:1.0 22:1.0 27:1.0 28:1.0 33:1.0 35:1.0 38:1.0 46:1.0 52:1.0 59:1.0 69:1.0 72:1.0 76:1.0 82:1.0 90:1.0 92:1.0 95:1.0 97:1.0 100:1.0 108:1.0 109:1.0 117:1.0 119:1.0 122:1.0 126:1.0 128:1.0 131:1.0 133:1.0 146:1.0 153:1.0 154:1.0 159:1.0 161:1.0 164:1.0 166:1.0 171:1.0 172:1.0 175:1.0 178:1.0 
1.0 1.0 5:1.0 14:1.0 17:1.0 19:1.0 27:1.0 28:1.0 33:1.0 34:1.0 38:1.0 40:1.0 44:1.0 50:1.0 55:1.0 59:1.0 62:1.0 64:1.0 69:1.0 70:1.0 73:1.0 78:1.0 81:1.0 83:1.0 87:1.0 90:1.0 91:1.0 99:1.0 100:1.0 108:1.0 111:1.0 114:1.0 116:1.0 120:1.0 125:1.0 128:1.0 131:1.0 140:1.0 143:1.0 146:1.0 149:1.0 152:1.0 154:1.0 157:1.0 162:1.0 169:1.0 176:1.0 178:1.0 
1.0 0.0 2:1.0 6:1.0 9:1.0 10:1.0 14:1.0 17:1.0 20:1.0 22:1.0 26:1.0 28:1.0 32:1.0 36:1.0 39:1.0 42:1.0 44:1.0 48:1.0 49:1.0 54:1.0 55:1.0 58:1.0 63:1.0 65:1.0 68:1.0 71:1.0 80:1.0 84:1.0 86:1.0 90:1.0 96:1.0 102:1.0 105:1.0 107:1.0 111:1.0 113:1.0 116:1.0 123:1.0 125:1.0 129:1.0 132:1.0 134:1.0 136:1.0 139:1.0 144:1.0 147:1.0 149:1.0 152:1.0 161:1.0 165:1.0 168:1.0 170:1.0 173:1.0 175:1.0 180:1.0 
0.7150831010228038 0.0 1:1.0 5:1.0 8:1.0 14:1.0 17:1.0 21:1.0 22:1.0 27:1.0 30:1.0 33:1.0 36:1.0 40:1.0 43:1.0 46:1.0 50:1.0 52:1.0 57:1.0 66:1.0 69:1.0 72:1.0 76:1.0 79:1.0 82:1.0 86:1.0 88:1.0 93:1.0 98:1.0 104:1.0 111:1.0 112:1.0 115:1.0 120:1.0 125:1.0 127:1.0 132:1.0 134:1.0 140:1.0 147:1.0 149:1.0 152:1.0 154:1.0 170:1.0 175:1.0 180:1.0 
1.0 0.0 1:1.0 5:1.0 7:1.0 10:1.0 15:1.0 16:1.0 19:1.0 24:1.0 27:1.0 28:1.0 36:1.0 39:1.0 40:1.0 45:1.0 47:1.0 54:1.0 55:1.0 59:1.0 68:1.0 70:1.0 74:1.0 77:1.0 79:1.0 82:1.0 87:1.0 93:1.0 96:1.0 98:1.0 100:1.0 111:1.0 117:1.0 125:1.0 132:1.0 133:1.0 136:1.0 141:1.0 142:1.0 153:1.0 156:1.0 159:1.0 162:1.0 163:1.0 166:1.0 170:1.0 172:1.0 176:1.0 178:1.0 
0.0 1.0 3:1.0 5:1.0 8:1.0 12:1.0 14:1.0 23:1.0 26:1.0 32:1.0 34:1.0 41:1.0 44:1.0 51:1.0 54:1.0 56:1.0 58:1.0 62:1.0 64:1.0 68:1.0 74:1.0 80:1.0 89:1.0 91:1.0 95:1.0 97:1.0 102:1.0 104:1.0 107:1.0 111:1.0 112:1.0 115:1.0 120:1.0 121:1.0 124:1.0 129:1.0 132:1.0 134:1.0 137:1.0 139:1.0 144:1.0 153:1.0 157:1.0 165:1.0 168:1.0 169:1.0 173:1.0 176:1.0 180:1.0 
0.0 1.0 1:1.0 9:1.0 10:1.0 18:1.0 30:1.0 32:1.0 35:1.0 41:1.0 44:1.0 48:1.0 50:1.0 53:1.0 56:1.0 63:1.0 65:1.0 68:1.0 75:1.0 77:1.0 83:1.0 90:1.0 92:1.0 99:1.0 102:1.0 107:1.0 116:1.0 118:1.0 125:1.0 128:1.0 134:1.0 136:1.0 142:1.0 152:1.0 155:1.0 162:1.0 165:1.0 166:1.0 171:1.0 176:1.0 
0.0 1.0 1:1.0 5:1.0 7:1.0 12:1.0 15:1.0 16:1.0 19:1.0 23:1.0 26:1.0 28:1.0 36:1.0 37:1.0 45:1.0 47:1.0 54:1.0 57:1.0 59:1.0 61:1.0 68:1.0 75:1.0 77:1.0 83:1.0 85:1.0 90:1.0 92:1.0 101:1.0 108:1.0 109:1.0 114:1.0 117:1.0 118:1.0 121:1.0 126:1.0 128:1.0 131:1.0 137:1.0 139:1.0 142:1.0 147:1.0 148:1.0 151:1.0 154:1.0 158:1.0 170:1.0 172:1.0 175:1.0 
0.32779015036315273 1.0 3:1.0 4:1.0 9:1.0 10:1.0 14:1.0 18:1.0 20:1.0 27:1.0 29:1.0 31:1.0 36:1.0 38:1.0 42:1.0 44:1.0 46:1.0 50:1.0 54:1.0 57:1.0 58:1.0 62:1.0 65:1.0 68:1.0 71:1.0 74:1.0 77:1.0 80:1.0 82:1.0 85:1.0 90:1.0 91:1.0 95:1.0 97:1.0 101:1.0 103:1.0 109:1.0 117:1.0 118:1.0 122:1.0 125:1.0 128:1.0 130:1.0 134:1.0 137:1.0 139:1.0 143:1.0 146:1.0 149:1.0 152:1.0 154:1.0 161:1.0 167:1.0 174:1.0 175:1.0 179:1.0 
1.0 0.0 3:1.0 5:1.0 7:1.0 10:1.0 18:1.0 21:1.0 23:1.0 25:1.0 31:1.0 36:1.0 37:1.0 40:1.0 43:1.0 48:1.0 54:1.0 60:1.0 61:1.0 64:1.0 68:1.0 70:1.0 73:1.0 76:1.0 81:1.0 82:1.0 85:1.0 88:1.0 91:1.0 99:1.0 100:1.0 106:1.0 115:1.0 118:1.0 123:1.0 126:1.0 127:1.0 132:1.0 135:1.0 138:1.0 141:1.0 144:1.0 147:1.0 149:1.0 156:1.0 160:1.0 165:1.0 166:1.0 169:1.0 174:1.0 177:1.0 180:1.0 
0.0 1.0 1:1.0 6:1.0 9:1.0 12:1.0 14:1.0 17:1.0 19:1.0 22:1.0 26:1.0 30:1.0 36:1.0 38:1.0 45:1.0 47:1.0 51:1.0 54:1.0 57:1.0 59:1.0 65:1.0 72:1.0 74:1.0 81:1.0 90:1.0 91:1.0 94:1.0 97:1.0 101:1.0 103:1.0 107:1.0 109:1.0 114:1.0 116:1.0 119:1.0 121:1.0 125:1.0 128:1.0 131:1.0 133:1.0 136:1.0 141:1.0 147:1.0 148:1.0 156:1.0 157:1.0 162:1.0 163:1.0 166:1.0 171:1.0 174:1.0 175:1.0 179:1.0 
1.0 0.33286220871120664 5:1.0 8:1.0 11:1.0 14:1.0 20:1.0 23:1.0 26:1.0 28:1.0 32:1.0 35:1.0 38:1.0 44:1.0 46:1.0 51:1.0 54:1.0 57:1.0 58:1.0 63:1.0 65:1.0 68:1.0 70:1.0 75:1.0 78:1.0 80:1.0 86:1.0 90:1.0 93:1.0 95:1.0 97:1.0 110:1.0 117:1.0 120:1.0 122:1.0 124:1.0 129:1.0 131:1.0 133:1.0 136:1.0 141:1.0 142:1.0 150:1.0 151:1.0 154:1.0 158:1.0 161:1.0 164:1.0 167:1.0 170:1.0 173:1.0 176:1.0 178:1.0 
0.0 1.0 3:1.0 5:1.0 7:1.0 12:1.0 15:1.0 19:1.0 24:1.0 27:1.0 32:1.0 35:1.0 37:1.0 40:1.0 45:1.0 47:1.0 54:1.0 56:1.0 59:1.0 62:1.0 65:1.0 69:1.0 74:1.0 77:1.0 79:1.0 82:1.0 85:1.0 89:1.0 91:1.0 98:1.0 101:1.0 107:1.0 116:1.0 119:1.0 129:1.0 134:1.0 141:1.0 144:1.0 145:1.0 150:1.0 152:1.0 155:1.0 162:1.0 165:1.0 166:1.0 171:1.0 174:1.0 175:1.0 180:1.0 
0.6250423804210268 0.0 6:1.0 9:1.0 10:1.0 14:1.0 17:1.0 19:1.0 26:1.0 30:1.0 32:1.0 36:1.0 39:1.0 40:1.0 46:1.0 51:1.0 52:1.0 56:1.0 58:1.0 61:1.0 66:1.0 67:1.0 70:1.0 74:1.0 77:1.0 81:1.0 82:1.0 87:1.0 90:1.0 93:1.0 96:1.0 98:1.0 101:1.0 107:1.0 114:1.0 116:1.0 120:1.0 122:1.0 125:1.0 128:1.0 135:1.0 138:1.0 141:1.0 143:1.0 146:1.0 149:1.0 151:1.0 156:1.0 158:1.0 164:1.0 171:1.0 176:1.0 179:1.0 
1.0 0.0 3:1.0 7:1.0 14:1.0 17:1.0 20:1.0 23:1.0 25:1.0 29:1.0 36:1.0 38:1.0 41:1.0 51:1.0 55:1.0 63:1.0 69:1.0 72:1.0 78:1.0 79:1.0 82:1.0 85:1.0 89:1.0 92:1.0 94:1.0 97:1.0 100:1.0 105:1.0 108:1.0 111:1.0 118:1.0 122:1.0 136:1.0 140:1.0 142:1.0 146:1.0 154:1.0 157:1.0 164:1.0 169:1.0 175:1.0 180:1.0 
0.8521064644419325 0.0 3:1.0 6:1.0 8:1.0 12:1.0 13:1.0 17:1.0 20:1.0 23:1.0 29:1.0 32:1.0 38:1.0 45:1.0 48:1.0 52:1.0 59:1.0 62:1.0 69:1.0 72:1.0 75:1.0 77:1.0 80:1.0 86:1.0 88:1.0 92:1.0 99:1.0 100:1.0 105:1.0 106:1.0 114:1.0 116:1.0 131:1.0 134:1.0 139:1.0 146:1.0 153:1.0 155:1.0 157:1.0 161:1.0 163:1.0 168:1.0 169:1.0 176:1.0 178:1.0 
0.0 1.0 6:1.0 7:1.0 11:1.0 15:1.0 17:1.0 20:1.0 23:1.0 29:1.0 31:1.0 34:1.0 39:1.0 42:1.0 45:1.0 47:1.0 49:1.0 53:1.0 60:1.0 66:1.0 67:1.0 72:1.0 77:1.0 80:1.0 83:1.0 90:1.0 92:1.0 95:1.0 98:1.0 100:1.0 104:1.0 107:1.0 114:1.0 117:1.0 120:1.0 122:1.0 125:1.0 127:1.0 132:1.0 135:1.0 137:1.0 140:1.0 143:1.0 150:1.0 152:1.0 155:1.0 158:1.0 161:1.0 170:1.0 176:1.0 
1.0 0.0 9:1.0 12:1.0 17:1.0 19:1.0 24:1.0 27:1.0 29:1.0 36:1.0 39:1.0 44:1.0 54:1.0 55:1.0 58:1.0 62:1.0 68:1.0 71:1.0 78:1.0 79:1.0 83:1.0 86:1.0 92:1.0 94:1.0 99:1.0 105:1.0 106:1.0 113:1.0 120:1.0 122:1.0 125:1.0 132:1.0 134:1.0 137:1.0 143:1.0 147:1.0 150:1.0 152:1.0 155:1.0 161:1.0 164:1.0 167:1.0 169:1.0 172:1.0 175:1.0 180:1.0 
0.0 1.0 1:1.0 11:1.0 14:1.0 20:1.0 25:1.0 30:1.0 32:1.0 36:1.0 37:1.0 42:1.0 43:1.0 46:1.0 53:1.0 55:1.0 59:1.0 62:1.0 65:1.0 72:1.0 74:1.0 77:1.0 79:1.0 84:1.0 85:1.0 89:1.0 98:1.0 101:1.0 105:1.0 115:1.0 119:1.0 122:1.0 124:1.0 129:1.0 130:1.0 133:1.0 136:1.0 143:1.0 147:1.0 149:1.0 151:1.0 154:1.0 164:1.0 167:1.0 169:1.0 174:1.0 175:1.0 178:1.0 
1.0 1.0 2:1.0 5:1.0 20:1.0 35:1.0 40:1.0 44:1.0 47:1.0 49:1.0 53:1.0 55:1.0 63:1.0 66:1.0 68:1.0 71:1.0 73:1.0 78:1.0 81:1.0 83:1.0 85:1.0 93:1.0 94:1.0 97:1.0 113:1.0 116:1.0 118:1.0 121:1.0 124:1.0 145:1.0 153:1.0 155:1.0 161:1.0 168:1.0 170:1.0 179:1.0 
1.0 0.0 2:1.0 4:1.0 10:1.0 16:1.0 22:1.0 27:1.0 28:1.0 32:1.0 37:1.0 41:1.0 43:1.0 51:1.0 53:1.0 58:1.0 63:1.0 70:1.0 73:1.0 78:1.0 82:1.0 86:1.0 88:1.0 94:1.0 99:1.0 100:1.0 105:1.0 108:1.0 109:1.0 117:1.0 123:1.0 129:1.0 135:1.0 139:1.0 145:1.0 150:1.0 151:1.0 157:1.0 163:1.0 171:1.0 178:1.0 
1.0 1.0 1:1.0 4:1.0 8:1.0 14:1.0 17:1.0 19:1.0 23:1.0 25:1.0 30:1.0 35:1.0 38:1.0 41:1.0 44:1.0 47:1.0 51:1.0 53:1.0 60:1.0 62:1.0 66:1.0 69:1.0 72:1.0 73:1.0 76:1.0 80:1.0 83:1.0 85:1.0 93:1.0 96:1.0 97:1.0 101:1.0 103:1.0 106:1.0 109:1.0 112:1.0 116:1.0 123:1.0 125:1.0 134:1.0 136:1.0 140:1.0 146:1.0 151:1.0 155:1.0 160:1.0 163:1.0 166:1.0 169:1.0 172:1.0 177:1.0 
1.0 0.0 2:1.0 4:1.0 7:1.0 12:1.0 13:1.0 18:1.0 21:1.0 32:1.0 39:1.0 40:1.0 45:1.0 51:1.0 57:1.0 58:1.0 63:1.0 66:1.0 67:1.0 78:1.0 80:1.0 86:1.0 93:1.0 96:1.0 97:1.0 102:1.0 108:1.0 111:1.0 112:1.0 115:1.0 123:1.0 126:1.0 128:1.0 131:1.0 134:1.0 140:1.0 142:1.0 146:1.0 148:1.0 153:1.0 156:1.0 160:1.0 165:1.0 168:1.0 169:1.0 174:1.0 180:1.0 
0.0 1.0 2:1.0 8:1.0 14:1.0 28:1.0 36:1.0 38:1.0 47:1.0 53:1.0 68:1.0 70:1.0 74:1.0 80:1.0 87:1.0 90:1.0 91:1.0 96:1.0 97:1.0 101:1.0 103:1.0 108:1.0 109:1.0 114:1.0 116:1.0 123:1.0 127:1.0 132:1.0 135:1.0 136:1.0 141:1.0 142:1.0 145:1.0 150:1.0 153:1.0 154:1.0 157:1.0 162:1.0 164:1.0 170:1.0 173:1.0 176:1.0 
0.0 0.8325267395720036 3:1.0 9:1.0 10:1.0 13:1.0 17:1.0 19:1.0 23:1.0 32:1.0 39:1.0 42:1.0 45:1.0 57:1.0 59:1.0 62:1.0 65:1.0 68:1.0 71:1.0 75:1.0 77:1.0 79:1.0 83:1.0 87:1.0 89:1.0 92:1.0 95:1.0 98:1.0 101:1.0 104:1.0 110:1.0 113:1.0 115:1.0 119:1.0 121:1.0 126:1.0 128:1.0 131:1.0 134:1.0 136:1.0 141:1.0 144:1.0 145:1.0 150:1.0 152:1.0 154:1.0 158:1.0 161:1.0 163:1.0 167:1.0 171:1.0 179:1.0 
1.0 1.0 1:1.0 6:1.0 11:1.0 13:1.0 17:1.0 24:1.0 27:1.0 30:1.0 35:1.0 41:1.0 48:1.0 50:1.0 53:1.0 56:1.0 58:1.0 63:1.0 66:1.0 69:1.0 74:1.0 77:1.0 79:1.0 82:1.0 87:1.0 90:1.0 93:1.0 96:1.0 99:1.0 105:1.0 106:1.0 111:1.0 112:1.0 116:1.0 119:1.0 121:1.0 125:1.0 127:1.0 132:1.0 135:1.0 137:1.0 139:1.0 143:1.0 146:1.0 148:1.0 153:1.0 156:1.0 158:1.0 161:1.0 167:1.0 170:1.0 177:1.0 180:1.0 
1.0 1.0 7:1.0 11:1.0 21:1.0 23:1.0 25:1.0 29:1.0 39:1.0 43:1.0 46:1.0 49:1.0 53:1.0 56:1.0 58:1.0 63:1.0 66:1.0 75:1.0 78:1.0 80:1.0 82:1.0 85:1.0 90:1.0 93:1.0 94:1.0 99:1.0 100:1.0 103:1.0 106:1.0 109:1.0 114:1.0 120:1.0 126:1.0 127:1.0 130:1.0 144:1.0 145:1.0 149:1.0 151:1.0 157:1.0 160:1.0 163:1.0 171:1.0 172:1.0 175:1.0 
0.0 1.0 5:1.0 8:1.0 19:1.0 23:1.0 25:1.0 30:1.0 31:1.0 35:1.0 37:1.0 42:1.0 44:1.0 49:1.0 54:1.0 60:1.0 66:1.0 69:1.0 75:1.0 78:1.0 80:1.0 83:1.0 85:1.0 89:1.0 95:1.0 97:1.0 102:1.0 115:1.0 120:1.0 122:1.0 124:1.0 131:1.0 137:1.0 144:1.0 146:1.0 152:1.0 157:1.0 171:1.0 174:1.0 176:1.0 179:1.0 
0.0 1.0 9:1.0 11:1.0 13:1.0 18:1.0 20:1.0 22:1.0 25:1.0 28:1.0 33:1.0 34:1.0 41:1.0 51:1.0 54:1.0 55:1.0 58:1.0 61:1.0 69:1.0 71:1.0 81:1.0 82:1.0 85:1.0 90:1.0 91:1.0 95:1.0 98:1.0 100:1.0 104:1.0 106:1.0 109:1.0 114:1.0 117:1.0 119:1.0 126:1.0 127:1.0 130:1.0 133:1.0 136:1.0 141:1.0 147:1.0 149:1.0 162:1.0 164:1.0 171:1.0 174:1.0 175:1.0 180:1.0 
1.0 0.0 3:1.0 4:1.0 7:1.0 10:1.0 15:1.0 16:1.0 19:1.0 22:1.0 27:1.0 28:1.0 33:1.0 34:1.0 37:1.0 40:1.0 45:1.0 46:1.0 49:1.0 52:1.0 57:1.0 58:1.0 61:1.0 64:1.0 69:1.0 70:1.0 73:1.0 76:1.0 81:1.0 82:1.0 85:1.0 88:1.0 93:1.0 94:1.0 97:1.0 100:1.0 105:1.0 106:1.0 109:1.0 112:1.0 117:1.0 118:1.0 121:1.0 124:1.0 129:1.0 130:1.0 133:1.0 136:1.0 141:1.0 142:1.0 145:1.0 148:1.0 153:1.0 154:1.0 157:1.0 160:1.0 165:1.0 166:1.0 169:1.0 172:1.0 177:1.0 178:1.0 
1.0 1.0 2:1.0 10:1.0 13:1.0 17:1.0 24:1.0 25:1.0 33:1.0 34:1.0 38:1.0 40:1.0 50:1.0 53:1.0 55:1.0 59:1.0 62:1.0 64:1.0 68:1.0 70:1.0 73:1.0 76:1.0 79:1.0 84:1.0 85:1.0 88:1.0 93:1.0 99:1.0 100:1.0 103:1.0 106:1.0 109:1.0 117:1.0 120:1.0 122:1.0 125:1.0 129:1.0 132:1.0 137:1.0 140:1.0 150:1.0 152:1.0 155:1.0 163:1.0 166:1.0 171:1.0 177:1.0 178:1.0 
0.0 1.0 5:1.0 12:1.0 18:1.0 20:1.0 23:1.0 25:1.0 30:1.0 32:1.0 41:1.0 49:1.0 56:1.0 59:1.0 64:1.0 70:1.0 75:1.0 76:1.0 81:1.0 84:1.0 85:1.0 90:1.0 91:1.0 94:1.0 97:1.0 102:1.0 104:1.0 110:1.0 112:1.0 115:1.0 118:1.0 123:1.0 124:1.0 132:1.0 133:1.0 136:1.0 139:1.0 147:1.0 148:1.0 151:1.0 158:1.0 164:1.0 167:1.0 176:1.0 
1.0 1.0 1:1.0 6:1.0 8:1.0 12:1.0 15:1.0 16:1.0 19:1.0 23:1.0 25:1.0 29:1.0 36:1.0 37:1.0 42:1.0 43:1.0 47:1.0 53:1.0 56:1.0 60:1.0 68:1.0 71:1.0 78:1.0 80:1.0 90:1.0 95:1.0 105:1.0 110:1.0 113:1.0 118:1.0 122:1.0 125:1.0 131:1.0 134:1.0 136:1.0 140:1.0 144:1.0 150:1.0 152:1.0 154:1.0 158:1.0 160:1.0 164:1.0 166:1.0 171:1.0 173:1.0 176:1.0 179:1.0 
0.0 1.0 3:1.0 6:1.0 8:1.0 12:1.0 14:1.0 27:1.0 32:1.0 39:1.0 42:1.0 45:1.0 46:1.0 51:1.0 54:1.0 56:1.0 60:1.0 63:1.0 70:1.0 74:1.0 81:1.0 82:1.0 85:1.0 90:1.0 92:1.0 94:1.0 99:1.0 102:1.0 104:1.0 106:1.0 114:1.0 115:1.0 118:1.0 123:1.0 126:1.0 127:1.0 132:1.0 135:1.0 138:1.0 139:1.0 144:1.0 146:1.0 148:1.0 153:1.0 156:1.0 159:1.0 160:1.0 165:1.0 166:1.0 171:1.0 177:1.0 180:1.0 
0.0 0.12468950857667835 8:1.0 10:1.0 15:1.0 18:1.0 20:1.0 23:1.0 27:1.0 28:1.0 34:1.0 44:1.0 47:1.0 57:1.0 62:1.0 66:1.0 79:1.0 83:1.0 89:1.0 102:1.0 107:1.0 109:1.0 114:1.0 115:1.0 120:1.0 123:1.0 124:1.0 127:1.0 130:1.0 135:1.0 136:1.0 139:1.0 147:1.0 149:1.0 156:1.0 157:1.0 162:1.0 179:1.0 
0.0 0.007363199010030189 2:1.0 5:1.0 9:1.0 15:1.0 18:1.0 23:1.0 25:1.0 30:1.0 32:1.0 34:1.0 39:1.0 41:1.0 43:1.0 48:1.0 50:1.0 52:1.0 56:1.0 60:1.0 61:1.0 65:1.0 74:1.0 77:1.0 81:1.0 83:1.0 86:1.0 92:1.0 95:1.0 99:1.0 101:1.0 103:1.0 108:1.0 111:1.0 117:1.0 120:1.0 122:1.0 127:1.0 135:1.0 138:1.0 139:1.0 144:1.0 147:1.0 148:1.0 153:1.0 156:1.0 163:1.0 167:1.0 171:1.0 174:1.0 176:1.0 180:1.0 
1.0 0.0 1:1.0 6:1.0 7:1.0 12:1.0 15:1.0 17:1.0 19:1.0 24:1.0 25:1.0 30:1.0 32:1.0 39:1.0 41:1.0 44:1.0 47:1.0 50:1.0 57:1.0 58:1.0 63:1.0 69:1.0 70:1.0 75:1.0 77:1.0 80:1.0 82:1.0 90:1.0 92:1.0 94:1.0 99:1.0 100:1.0 105:1.0 108:1.0 109:1.0 116:1.0 122:1.0 125:1.0 131:1.0 134:1.0 137:1.0 143:1.0 145:1.0 152:1.0 155:1.0 157:1.0 164:1.0 170:1.0 176:1.0 
0.0 1.0 3:1.0 10:1.0 14:1.0 17:1.0 22:1.0 33:1.0 39:1.0 41:1.0 43:1.0 50:1.0 67:1.0 70:1.0 73:1.0 79:1.0 83:1.0 93:1.0 94:1.0 103:1.0 111:1.0 115:1.0 118:1.0 122:1.0 125:1.0 127:1.0 133:1.0 136:1.0 139:1.0 146:1.0 153:1.0 154:1.0 158:1.0 160:1.0 165:1.0 167:1.0 169:1.0 177:1.0 
0.0 0.8306891873274925 3:1.0 4:1.0 7:1.0 17:1.0 19:1.0 26:1.0 29:1.0 34:1.0 38:1.0 40:1.0 45:1.0 48:1.0 54:1.0 56:1.0 58:1.0 63:1.0 66:1.0 68:1.0 75:1.0 77:1.0 80:1.0 85:1.0 92:1.0 94:1.0 99:1.0 100:1.0 103:1.0 108:1.0 111:1.0 117:1.0 120:1.0 126:1.0 129:1.0 131:1.0 138:1.0 141:1.0 147:1.0 153:1.0 156:1.0 158:1.0 163:1.0 166:1.0 174:1.0 176:1.0 179:1.0 
0.0 1.0 1:1.0 4:1.0 7:1.0 10:1.0 16:1.0 20:1.0 27:1.0 38:1.0 40:1.0 44:1.0 46:1.0 50:1.0 52:1.0 62:1.0 74:1.0 77:1.0 79:1.0 84:1.0 85:1.0 88:1.0 92:1.0 98:1.0 102:1.0 103:1.0 106:1.0 111:1.0 115:1.0 120:1.0 123:1.0 124:1.0 133:1.0 139:1.0 144:1.0 146:1.0 148:1.0 151:1.0 156:1.0 159:1.0 163:1.0 166:1.0 172:1.0 175:1.0 179:1.0 
0.0 1.0 1:1.0 6:1.0 8:1.0 11:1.0 14:1.0 16:1.0 21:1.0 23:1.0 30:1.0 42:1.0 47:1.0 53:1.0 56:1.0 59:1.0 61:1.0 77:1.0 83:1.0 88:1.0 92:1.0 101:1.0 106:1.0 109:1.0 112:1.0 115:1.0 121:1.0 125:1.0 127:1.0 140:1.0 149:1.0 151:1.0 155:1.0 160:1.0 163:1.0 168:1.0 174:1.0 175:1.0 180:1.0 
0.0 1.0 6:1.0 9:1.0 10:1.0 15:1.0 16:1.0 21:1.0 24:1.0 26:1.0 33:1.0 34:1.0 38:1.0 40:1.0 43:1.0 47:1.0 49:1.0 56:1.0 59:1.0 62:1.0 68:1.0 75:1.0 78:1.0 83:1.0 85:1.0 89:1.0 91:1.0 95:1.0 97:1.0 102:1.0 104:1.0 109:1.0 114:1.0 115:1.0 122:1.0 128:1.0 130:1.0 133:1.0 138:1.0 141:1.0 147:1.0 149:1.0 155:1.0 157:1.0 162:1.0 163:1.0 167:1.0 176:1.0 178:1.0 
1.0 1.0 5:1.0 12:1.0 14:1.0 16:1.0 19:1.0 24:1.0 30:1.0 33:1.0 34:1.0 38:1.0 40:1.0 54:1.0 55:1.0 58:1.0 63:1.0 65:1.0 67:1.0 71:1.0 84:1.0 85:1.0 90:1.0 93:1.0 95:1.0 98:1.0 103:1.0 114:1.0 123:1.0 124:1.0 127:1.0 130:1.0 133:1.0 138:1.0 141:1.0 142:1.0 145:1.0 148:1.0 152:1.0 154:1.0 161:1.0 170:1.0 172:1.0 178:1.0 
1.0 1.0 10:1.0 13:1.0 16:1.0 19:1.0 22:1.0 27:1.0 29:1.0 33:1.0 36:1.0 38:1.0 42:1.0 43:1.0 47:1.0 53:1.0 56:1.0 60:1.0 68:1.0 70:1.0 74:1.0 77:1.0 80:1.0 83:1.0 87:1.0 93:1.0 99:1.0 101:1.0 108:1.0 118:1.0 123:1.0 125:1.0 127:1.0 131:1.0 134:1.0 137:1.0 139:1.0 144:1.0 146:1.0 149:1.0 155:1.0 158:1.0 161:1.0 164:1.0 168:1.0 174:1.0 175:1.0 178:1.0 
1.0 0.0 3:1.0 8:1.0 18:1.0 19:1.0 24:1.0 25:1.0 29:1.0 36:1.0 37:1.0 40:1.0 43:1.0 48:1.0 49:1.0 61:1.0 66:1.0 68:1.0 71:1.0 73:1.0 79:1.0 82:1.0 90:1.0 94:1.0 97:1.0 100:1.0 104:1.0 111:1.0 113:1.0 116:1.0 122:1.0 124:1.0 127:1.0 130:1.0 141:1.0 144:1.0 145:1.0 149:1.0 162:1.0 165:1.0 168:1.0 170:1.0 172:1.0 178:1.0 
0.0 0.7739670106218142 2:1.0 4:1.0 7:1.0 11:1.0 14:1.0 21:1.0 23:1.0 33:1.0 34:1.0 38:1.0 40:1.0 43:1.0 48:1.0 60:1.0 61:1.0 64:1.0 68:1.0 74:1.0 76:1.0 80:1.0 82:1.0 87:1.0 90:1.0 92:1.0 94:1.0 100:1.0 104:1.0 107:1.0 113:1.0 116:1.0 123:1.0 125:1.0 127:1.0 131:1.0 134:1.0 137:1.0 140:1.0 144:1.0 145:1.0 150:1.0 153:1.0 159:1.0 167:1.0 170:1.0 176:1.0 178:1.0 
1.0 0.0 2:1.0 5:1.0 9:1.0 12:1.0 13:1.0 18:1.0 24:1.0 27:1.0 30:1.0 33:1.0 34:1.0 39:1.0 40:1.0 47:1.0 49:1.0 54:1.0 55:1.0 63:1.0 66:1.0 69:1.0 72:1.0 74:1.0 80:1.0 87:1.0 93:1.0 97:1.0 104:1.0 106:1.0 114:1.0 116:1.0 118:1.0 121:1.0 124:1.0 129:1.0 132:1.0 133:1.0 137:1.0 150:1.0 152:1.0 154:1.0 164:1.0 171:1.0 179:1.0 
0.0 1.0 2:1.0 5:1.0 9:1.0 11:1.0 15:1.0 18:1.0 20:1.0 22:1.0 26:1.0 28:1.0 33:1.0 34:1.0 39:1.0 41:1.0 44:1.0 46:1.0 51:1.0 54:1.0 57:1.0 60:1.0 62:1.0 65:1.0 67:1.0 70:1.0 74:1.0 77:1.0 80:1.0 85:1.0 89:1.0 92:1.0 95:1.0 97:1.0 102:1.0 104:1.0 110:1.0 113:1.0 116:1.0 118:1.0 122:1.0 126:1.0 128:1.0 134:1.0 141:1.0 144:1.0 147:1.0 148:1.0 155:1.0 158:1.0 162:1.0 167:1.0 174:1.0 176:1.0 179:1.0 
1.0 0.0 3:1.0 4:1.0 7:1.0 10:1.0 13:1.0 16:1.0 21:1.0 24:1.0 25:1.0 30:1.0 33:1.0 35:1.0 37:1.0 40:1.0 46:1.0 54:1.0 55:1.0 58:1.0 61:1.0 65:1.0 69:1.0 70:1.0 75:1.0 79:1.0 93:1.0 94:1.0 99:1.0 101:1.0 105:1.0 106:1.0 116:1.0 123:1.0 128:1.0 132:1.0 138:1.0 141:1.0 142:1.0 146:1.0 151:1.0 154:1.0 157:1.0 160:1.0 165:1.0 166:1.0 169:1.0 174:1.0 178:1.0 
1.0 0.0 3:1.0 4:1.0 12:1.0 15:1.0 16:1.0 20:1.0 23:1.0 33:1.0 36:1.0 37:1.0 40:1.0 43:1.0 46:1.0 49:1.0 54:1.0 57:1.0 59:1.0 61:1.0 65:1.0 68:1.0 70:1.0 78:1.0 81:1.0 82:1.0 90:1.0 93:1.0 96:1.0 98:1.0 101:1.0 111:1.0 114:1.0 122:1.0 129:1.0 137:1.0 142:1.0 145:1.0 148:1.0 153:1.0 155:1.0 164:1.0 170:1.0 179:1.0 
0.0 1.0 3:1.0 11:1.0 13:1.0 18:1.0 20:1.0 23:1.0 36:1.0 37:1.0 41:1.0 44:1.0 54:1.0 57:1.0 58:1.0 61:1.0 66:1.0 72:1.0 74:1.0 77:1.0 79:1.0 84:1.0 85:1.0 90:1.0 96:1.0 98:1.0 101:1.0 104:1.0 107:1.0 112:1.0 115:1.0 120:1.0 122:1.0 131:1.0 138:1.0 140:1.0 143:1.0 146:1.0 149:1.0 152:1.0 158:1.0 160:1.0 165:1.0 166:1.0 169:1.0 173:1.0 175:1.0 180:1.0 
0.7627771457913041 0.0 1:1.0 8:1.0 15:1.0 17:1.0 19:1.0 26:1.0 28:1.0 31:1.0 36:1.0 38:1.0 45:1.0 46:1.0 49:1.0 54:1.0 62:1.0 69:1.0 75:1.0 80:1.0 83:1.0 89:1.0 91:1.0 95:1.0 99:1.0 100:1.0 105:1.0 107:1.0 114:1.0 115:1.0 128:1.0 130:1.0 134:1.0 137:1.0 150:1.0 152:1.0 154:1.0 158:1.0 160:1.0 165:1.0 166:1.0 173:1.0 
1.0 1.0 4:1.0 9:1.0 11:1.0 13:1.0 17:1.0 20:1.0 22:1.0 27:1.0 29:1.0 31:1.0 36:1.0 42:1.0 45:1.0 47:1.0 49:1.0 54:1.0 56:1.0 65:1.0 69:1.0 70:1.0 73:1.0 78:1.0 80:1.0 83:1.0 85:1.0 90:1.0 92:1.0 95:1.0 98:1.0 100:1.0 105:1.0 111:1.0 114:1.0 115:1.0 118:1.0 122:1.0 125:1.0 127:1.0 131:1.0 133:1.0 136:1.0 140:1.0 147:1.0 149:1.0 152:1.0 155:1.0 161:1.0 163:1.0 166:1.0 169:1.0 172:1.0 177:1.0 178:1.0 
1.0 1.0 1:1.0 8:1.0 10:1.0 13:1.0 19:1.0 22:1.0 27:1.0 29:1.0 35:1.0 38:1.0 43:1.0 48:1.0 53:1.0 56:1.0 58:1.0 63:1.0 64:1.0 68:1.0 72:1.0 74:1.0 77:1.0 79:1.0 87:1.0 90:1.0 93:1.0 98:1.0 100:1.0 113:1.0 115:1.0 119:1.0 121:1.0 126:1.0 127:1.0 132:1.0 135:1.0 136:1.0 141:1.0 144:1.0 145:1.0 149:1.0 151:1.0 154:1.0 159:1.0 162:1.0 164:1.0 169:1.0 173:1.0 178:1.0 
0.0 1.0 1:1.0 4:1.0 7:1.0 11:1.0 13:1.0 20:1.0 22:1.0 25:1.0 29:1.0 35:1.0 38:1.0 45:1.0 46:1.0 50:1.0 53:1.0 58:1.0 61:1.0 65:1.0 68:1.0 72:1.0 74:1.0 84:1.0 90:1.0 93:1.0 94:1.0 104:1.0 107:1.0 109:1.0 114:1.0 115:1.0 119:1.0 121:1.0 132:1.0 136:1.0 144:1.0 145:1.0 150:1.0 153:1.0 154:1.0 157:1.0 162:1.0 163:1.0 167:1.0 176:1.0 
1.0 1.0 3:1.0 4:1.0 12:1.0 13:1.0 16:1.0 21:1.0 22:1.0 30:1.0 31:1.0 36:1.0 37:1.0 45:1.0 53:1.0 58:1.0 66:1.0 72:1.0 75:1.0 76:1.0 83:1.0 90:1.0 93:1.0 94:1.0 98:1.0 100:1.0 103:1.0 108:1.0 109:1.0 112:1.0 117:1.0 120:1.0 121:1.0 126:1.0 127:1.0 131:1.0 134:1.0 138:1.0 143:1.0 150:1.0 153:1.0 155:1.0 157:1.0 164:1.0 171:1.0 174:1.0 175:1.0 180:1.0 
1.0 0.0 2:1.0 9:1.0 12:1.0 13:1.0 17:1.0 19:1.0 23:1.0 25:1.0 29:1.0 33:1.0 35:1.0 38:1.0 41:1.0 43:1.0 48:1.0 51:1.0 60:1.0 64:1.0 69:1.0 72:1.0 78:1.0 79:1.0 82:1.0 86:1.0 90:1.0 92:1.0 97:1.0 105:1.0 108:1.0 110:1.0 116:1.0 119:1.0 121:1.0 124:1.0 129:1.0 130:1.0 133:1.0 138:1.0 139:1.0 144:1.0 146:1.0 148:1.0 156:1.0 159:1.0 164:1.0 166:1.0 176:1.0 
1.0 0.0 2:1.0 9:1.0 12:1.0 15:1.0 16:1.0 21:1.0 23:1.0 27:1.0 29:1.0 35:1.0 48:1.0 51:1.0 52:1.0 59:1.0 62:1.0 65:1.0 67:1.0 74:1.0 77:1.0 80:1.0 86:1.0 88:1.0 93:1.0 96:1.0 98:1.0 105:1.0 108:1.0 110:1.0 113:1.0 115:1.0 120:1.0 121:1.0 126:1.0 131:1.0 134:1.0 137:1.0 144:1.0 147:1.0 149:1.0 151:1.0 156:1.0 158:1.0 165:1.0 166:1.0 171:1.0 174:1.0 177:1.0 178:1.0 
0.0 1.0 3:1.0 4:1.0 9:1.0 11:1.0 14:1.0 19:1.0 24:1.0 25:1.0 29:1.0 31:1.0 35:1.0 38:1.0 41:1.0 44:1.0 51:1.0 54:1.0 57:1.0 66:1.0 70:1.0 75:1.0 78:1.0 81:1.0 84:1.0 85:1.0 90:1.0 91:1.0 96:1.0 99:1.0 101:1.0 108:1.0 111:1.0 114:1.0 117:1.0 123:1.0 126:1.0 127:1.0 132:1.0 135:1.0 138:1.0 139:1.0 144:1.0 145:1.0 150:1.0 153:1.0 155:1.0 161:1.0 164:1.0 173:1.0 176:1.0 179:1.0 
1.0 0.0 1:1.0 5:1.0 8:1.0 21:1.0 24:1.0 26:1.0 32:1.0 36:1.0 39:1.0 42:1.0 43:1.0 48:1.0 49:1.0 54:1.0 57:1.0 59:1.0 61:1.0 66:1.0 67:1.0 71:1.0 78:1.0 84:1.0 87:1.0 90:1.0 92:1.0 99:1.0 101:1.0 105:1.0 106:1.0 110:1.0 113:1.0 119:1.0 126:1.0 134:1.0 138:1.0 139:1.0 144:1.0 145:1.0 148:1.0 153:1.0 154:1.0 157:1.0 162:1.0 167:1.0 171:1.0 173:1.0 180:1.0 
1.0 0.5806700080799592 1:1.0 12:1.0 15:1.0 17:1.0 19:1.0 22:1.0 27:1.0 30:1.0 31:1.0 36:1.0 37:1.0 44:1.0 46:1.0 57:1.0 58:1.0 62:1.0 65:1.0 71:1.0 75:1.0 81:1.0 90:1.0 93:1.0 94:1.0 98:1.0 101:1.0 105:1.0 106:1.0 109:1.0 119:1.0 123:1.0 125:1.0 127:1.0 130:1.0 135:1.0 137:1.0 144:1.0 147:1.0 149:1.0 152:1.0 156:1.0 157:1.0 161:1.0 164:1.0 166:1.0 171:1.0 177:1.0 179:1.0 
1.0 0.0 2:1.0 4:1.0 9:1.0 11:1.0 21:1.0 24:1.0 32:1.0 38:1.0 41:1.0 48:1.0 51:1.0 54:1.0 56:1.0 58:1.0 61:1.0 66:1.0 67:1.0 70:1.0 75:1.0 76:1.0 79:1.0 84:1.0 85:1.0 88:1.0 93:1.0 94:1.0 97:1.0 100:1.0 105:1.0 106:1.0 109:1.0 114:1.0 115:1.0 120:1.0 123:1.0 124:1.0 129:1.0 132:1.0 135:1.0 138:1.0 141:1.0 142:1.0 145:1.0 150:1.0 153:1.0 156:1.0 157:1.0 160:1.0 163:1.0 166:1.0 169:1.0 174:1.0 175:1.0 178:1.0 
1.0 1.0 5:1.0 8:1.0 11:1.0 14:1.0 18:1.0 20:1.0 22:1.0 26:1.0 28:1.0 33:1.0 35:1.0 39:1.0 40:1.0 43:1.0 46:1.0 53:1.0 59:1.0 62:1.0 65:1.0 67:1.0 72:1.0 78:1.0 81:1.0 83:1.0 85:1.0 89:1.0 92:1.0 96:1.0 97:1.0 102:1.0 105:1.0 108:1.0 111:1.0 114:1.0 116:1.0 120:1.0 121:1.0 126:1.0 129:1.0 132:1.0 139:1.0 142:1.0 147:1.0 153:1.0 156:1.0 159:1.0 162:1.0 165:1.0 168:1.0 171:1.0 172:1.0 177:1.0 180:1.0 
1.0 1.0 3:1.0 9:1.0 12:1.0 13:1.0 18:1.0 21:1.0 23:1.0 30:1.0 32:1.0 35:1.0 38:1.0 42:1.0 45:1.0 47:1.0 51:1.0 52:1.0 57:1.0 59:1.0 62:1.0 65:1.0 67:1.0 72:1.0 75:1.0 76:1.0 81:1.0 83:1.0 90:1.0 93:1.0 94:1.0 99:1.0 100:1.0 108:1.0 111:1.0 112:1.0 117:1.0 118:1.0 126:1.0 128:1.0 134:1.0 140:1.0 143:1.0 145:1.0 150:1.0 152:1.0 154:1.0 158:1.0 161:1.0 163:1.0 168:1.0 170:1.0 173:1.0 176:1.0 178:1.0 
1.0 0.0 1:1.0 6:1.0 8:1.0 11:1.0 16:1.0 20:1.0 22:1.0 30:1.0 33:1.0 34:1.0 39:1.0 41:1.0 48:1.0 49:1.0 54:1.0 56:1.0 58:1.0 63:1.0 65:1.0 68:1.0 75:1.0 76:1.0 81:1.0 82:1.0 89:1.0 96:1.0 97:1.0 102:1.0 105:1.0 106:1.0 110:1.0 112:1.0 116:1.0 120:1.0 123:1.0 125:1.0 128:1.0 132:1.0 138:1.0 142:1.0 151:1.0 155:1.0 162:1.0 168:1.0 170:1.0 174:1.0 175:1.0 180:1.0 
1.0 1.0 3:1.0 6:1.0 7:1.0 15:1.0 17:1.0 26:1.0 29:1.0 31:1.0 34:1.0 41:1.0 48:1.0 51:1.0 52:1.0 62:1.0 64:1.0 67:1.0 75:1.0 76:1.0 81:1.0 84:1.0 85:1.0 90:1.0 91:1.0 95:1.0 105:1.0 107:1.0 110:1.0 117:1.0 120:1.0 126:1.0 127:1.0 130:1.0 133:1.0 136:1.0 143:1.0 145:1.0 152:1.0 154:1.0 158:1.0 165:1.0 168:1.0 173:1.0 
1.0 1.0 1:1.0 7:1.0 11:1.0 14:1.0 21:1.0 25:1.0 30:1.0 36:1.0 44:1.0 46:1.0 57:1.0 60:1.0 62:1.0 64:1.0 75:1.0 76:1.0 81:1.0 90:1.0 99:1.0 100:1.0 104:1.0 110:1.0 123:1.0 126:1.0 128:1.0 131:1.0 133:1.0 136:1.0 142:1.0 150:1.0 153:1.0 155:1.0 159:1.0 169:1.0 175:1.0 
0.0 1.0 1:1.0 4:1.0 7:1.0 12:1.0 17:1.0 19:1.0 24:1.0 26:1.0 32:1.0 35:1.0 37:1.0 41:1.0 48:1.0 49:1.0 52:1.0 57:1.0 59:1.0 66:1.0 72:1.0 75:1.0 77:1.0 80:1.0 83:1.0 87:1.0 90:1.0 93:1.0 94:1.0 102:1.0 104:1.0 108:1.0 111:1.0 113:1.0 119:1.0 123:1.0 127:1.0 132:1.0 134:1.0 136:1.0 143:1.0 146:1.0 150:1.0 152:1.0 154:1.0 157:1.0 161:1.0 165:1.0 166:1.0 170:1.0 177:1.0 180:1.0 
0.0 1.0 2:1.0 5:1.0 14:1.0 17:1.0 20:1.0 23:1.0 25:1.0 30:1.0 33:1.0 35:1.0 38:1.0 41:1.0 43:1.0 47:1.0 50:1.0 52:1.0 59:1.0 61:1.0 65:1.0 68:1.0 70:1.0 74:1.0 77:1.0 81:1.0 83:1.0 86:1.0 92:1.0 99:1.0 102:1.0 104:1.0 107:1.0 111:1.0 113:1.0 116:1.0 118:1.0 122:1.0 125:1.0 128:1.0 131:1.0 134:1.0 136:1.0 143:1.0 152:1.0 155:1.0 157:1.0 161:1.0 164:1.0 171:1.0 177:1.0 179:1.0 
0.0 0.9642778022354572 3:1.0 6:1.0 7:1.0 12:1.0 13:1.0 17:1.0 19:1.0 22:1.0 25:1.0 30:1.0 35:1.0 37:1.0 42:1.0 47:1.0 53:1.0 55:1.0 59:1.0 65:1.0 68:1.0 77:1.0 81:1.0 83:1.0 86:1.0 89:1.0 91:1.0 96:1.0 99:1.0 102:1.0 108:1.0 111:1.0 112:1.0 117:1.0 123:1.0 125:1.0 127:1.0 132:1.0 138:1.0 141:1.0 143:1.0 147:1.0 149:1.0 153:1.0 154:1.0 161:1.0 167:1.0 171:1.0 174:1.0 176:1.0 
1.0 0.8130462823926975 3:1.0 9:1.0 18:1.0 20:1.0 26:1.0 29:1.0 31:1.0 36:1.0 40:1.0 44:1.0 48:1.0 57:1.0 58:1.0 66:1.0 67:1.0 71:1.0 74:1.0 90:1.0 92:1.0 99:1.0 102:1.0 105:1.0 106:1.0 110:1.0 112:1.0 116:1.0 119:1.0 122:1.0 125:1.0 127:1.0 131:1.0 135:1.0 138:1.0 140:1.0 142:1.0 147:1.0 152:1.0 156:1.0 159:1.0 162:1.0 168:1.0 171:1.0 173:1.0 176:1.0 178:1.0 
0.8673691155620594 0.0 1:1.0 4:1.0 7:1.0 21:1.0 24:1.0 34:1.0 39:1.0 40:1.0 45:1.0 48:1.0 51:1.0 56:1.0 58:1.0 61:1.0 64:1.0 67:1.0 71:1.0 78:1.0 79:1.0 84:1.0 93:1.0 99:1.0 103:1.0 114:1.0 115:1.0 123:1.0 124:1.0 127:1.0 133:1.0 138:1.0 140:1.0 142:1.0 146:1.0 150:1.0 153:1.0 158:1.0 161:1.0 168:1.0 170:1.0 175:1.0 179:1.0 
1.0 1.0 4:1.0 7:1.0 10:1.0 16:1.0 19:1.0 34:1.0 37:1.0 42:1.0 43:1.0 46:1.0 49:1.0 54:1.0 56:1.0 63:1.0 66:1.0 74:1.0 76:1.0 80:1.0 82:1.0 85:1.0 90:1.0 93:1.0 99:1.0 101:1.0 104:1.0 106:1.0 110:1.0 112:1.0 126:1.0 127:1.0 135:1.0 136:1.0 139:1.0 142:1.0 147:1.0 149:1.0 151:1.0 154:1.0 157:1.0 160:1.0 166:1.0 170:1.0 172:1.0 177:1.0 
0.12604205113571446 0.0 11:1.0 14:1.0 21:1.0 27:1.0 33:1.0 41:1.0 44:1.0 46:1.0 54:1.0 56:1.0 58:1.0 63:1.0 67:1.0 70:1.0 78:1.0 82:1.0 89:1.0 92:1.0 98:1.0 105:1.0 113:1.0 116:1.0 128:1.0 130:1.0 135:1.0 137:1.0 140:1.0 146:1.0 149:1.0 159:1.0 162:1.0 163:1.0 166:1.0 171:1.0 174:1.0 177:1.0 179:1.0 
0.0 1.0 1:1.0 4:1.0 9:1.0 12:1.0 13:1.0 17:1.0 19:1.0 22:1.0 27:1.0 29:1.0 31:1.0 36:1.0 39:1.0 44:1.0 49:1.0 53:1.0 56:1.0 60:1.0 63:1.0 66:1.0 68:1.0 71:1.0 73:1.0 77:1.0 81:1.0 83:1.0 85:1.0 89:1.0 92:1.0 96:1.0 98:1.0 101:1.0 108:1.0 110:1.0 117:1.0 119:1.0 126:1.0 128:1.0 135:1.0 138:1.0 141:1.0 147:1.0 149:1.0 156:1.0 159:1.0 160:1.0 165:1.0 166:1.0 169:1.0 176:1.0 
0.0 1.0 1:1.0 12:1.0 15:1.0 21:1.0 24:1.0 26:1.0 28:1.0 33:1.0 34:1.0 37:1.0 42:1.0 43:1.0 48:1.0 51:1.0 52:1.0 55:1.0 60:1.0 61:1.0 74:1.0 81:1.0 82:1.0 85:1.0 90:1.0 91:1.0 96:1.0 102:1.0 104:1.0 106:1.0 111:1.0 113:1.0 120:1.0 122:1.0 125:1.0 132:1.0 133:1.0 136:1.0 140:1.0 143:1.0 147:1.0 148:1.0 153:1.0 155:1.0 158:1.0 161:1.0 168:1.0 170:1.0 173:1.0 177:1.0 178:1.0 
1.0 0.0 6:1.0 15:1.0 24:1.0 27:1.0 33:1.0 34:1.0 37:1.0 45:1.0 48:1.0 49:1.0 54:1.0 56:1.0 62:1.0 64:1.0 69:1.0 78:1.0 84:1.0 90:1.0 93:1.0 96:1.0 99:1.0 102:1.0 105:1.0 106:1.0 110:1.0 113:1.0 116:1.0 123:1.0 124:1.0 131:1.0 133:1.0 136:1.0 140:1.0 142:1.0 146:1.0 149:1.0 151:1.0 158:1.0 165:1.0 168:1.0 171:1.0 177:1.0 180:1.0 
0.0 1.0 1:1.0 6:1.0 8:1.0 15:1.0 18:1.0 19:1.0 35:1.0 38:1.0 48:1.0 57:1.0 59:1.0 64:1.0 79:1.0 82:1.0 85:1.0 88:1.0 93:1.0 96:1.0 102:1.0 107:1.0 110:1.0 112:1.0 117:1.0 123:1.0 129:1.0 130:1.0 135:1.0 138:1.0 144:1.0 146:1.0 150:1.0 151:1.0 155:1.0 162:1.0 165:1.0 171:1.0 174:1.0 175:1.0 180:1.0 
1.0 0.0 3:1.0 4:1.0 7:1.0 11:1.0 15:1.0 20:1.0 27:1.0 30:1.0 32:1.0 37:1.0 40:1.0 43:1.0 49:1.0 53:1.0 55:1.0 58:1.0 65:1.0 67:1.0 72:1.0 74:1.0 80:1.0 82:1.0 90:1.0 91:1.0 96:1.0 97:1.0 100:1.0 111:1.0 112:1.0 117:1.0 120:1.0 121:1.0 124:1.0 129:1.0 130:1.0 135:1.0 137:1.0 144:1.0 147:1.0 150:1.0 153:1.0 156:1.0 157:1.0 165:1.0 166:1.0 169:1.0 174:1.0 176:1.0 
1.0 1.0 1:1.0 6:1.0 9:1.0 12:1.0 14:1.0 17:1.0 19:1.0 23:1.0 27:1.0 33:1.0 35:1.0 38:1.0 40:1.0 45:1.0 48:1.0 50:1.0 53:1.0 56:1.0 60:1.0 63:1.0 66:1.0 69:1.0 71:1.0 78:1.0 81:1.0 83:1.0 87:1.0 90:1.0 92:1.0 97:1.0 101:1.0 107:1.0 109:1.0 114:1.0 116:1.0 118:1.0 123:1.0 125:1.0 128:1.0 131:1.0 137:1.0 140:1.0 146:1.0 148:1.0 152:1.0 155:1.0 158:1.0 162:1.0 167:1.0 174:1.0 177:1.0 180:1.0 
0.0 1.0 8:1.0 13:1.0 21:1.0 26:1.0 36:1.0 39:1.0 42:1.0 47:1.0 53:1.0 62:1.0 69:1.0 72:1.0 74:1.0 81:1.0 83:1.0 89:1.0 102:1.0 104:1.0 107:1.0 113:1.0 120:1.0 126:1.0 129:1.0 134:1.0 137:1.0 143:1.0 145:1.0 152:1.0 155:1.0 162:1.0 164:1.0 171:1.0 173:1.0 180:1.0 
1.0 0.0 4:1.0 8:1.0 13:1.0 39:1.0 41:1.0 43:1.0 47:1.0 49:1.0 55:1.0 60:1.0 63:1.0 74:1.0 79:1.0 84:1.0 93:1.0 97:1.0 102:1.0 103:1.0 106:1.0 109:1.0 115:1.0 119:1.0 126:1.0 132:1.0 137:1.0 139:1.0 142:1.0 145:1.0 150:1.0 153:1.0 156:1.0 158:1.0 161:1.0 168:1.0 169:1.0 172:1.0 180:1.0 
0.0313920086503189 0.0 5:1.0 8:1.0 10:1.0 15:1.0 18:1.0 19:1.0 24:1.0 25:1.0 32:1.0 35:1.0 39:1.0 41:1.0 43:1.0 51:1.0 60:1.0 61:1.0 64:1.0 69:1.0 70:1.0 73:1.0 78:1.0 81:1.0 86:1.0 90:1.0 96:1.0 101:1.0 105:1.0 108:1.0 113:1.0 116:1.0 118:1.0 125:1.0 128:1.0 132:1.0 135:1.0 138:1.0 139:1.0 144:1.0 145:1.0 153:1.0 159:1.0 161:1.0 167:1.0 169:1.0 176:1.0 178:1.0 
0.0 1.0 3:1.0 5:1.0 8:1.0 11:1.0 18:1.0 20:1.0 23:1.0 25:1.0 29:1.0 32:1.0 35:1.0 38:1.0 40:1.0 43:1.0 48:1.0 51:1.0 57:1.0 59:1.0 62:1.0 69:1.0 70:1.0 75:1.0 77:1.0 80:1.0 83:1.0 90:1.0 92:1.0 95:1.0 97:1.0 101:1.0 104:1.0 107:1.0 110:1.0 112:1.0 115:1.0 118:1.0 123:1.0 129:1.0 131:1.0 134:1.0 141:1.0 142:1.0 147:1.0 149:1.0 152:1.0 155:1.0 162:1.0 164:1.0 167:1.0 169:1.0 174:1.0 176:1.0 179:1.0 
1.0 0.0 2:1.0 4:1.0 9:1.0 11:1.0 13:1.0 18:1.0 20:1.0 26:1.0 28:1.0 33:1.0 35:1.0 38:1.0 44:1.0 47:1.0 50:1.0 53:1.0 56:1.0 59:1.0 63:1.0 65:1.0 72:1.0 75:1.0 78:1.0 81:1.0 82:1.0 87:1.0 89:1.0 93:1.0 94:1.0 97:1.0 100:1.0 105:1.0 116:1.0 126:1.0 129:1.0 134:1.0 140:1.0 142:1.0 147:1.0 149:1.0 158:1.0 160:1.0 173:1.0 176:1.0 180:1.0 
1.0 1.0 4:1.0 9:1.0 12:1.0 14:1.0 20:1.0 23:1.0 25:1.0 30:1.0 32:1.0 34:1.0 39:1.0 42:1.0 44:1.0 51:1.0 54:1.0 56:1.0 62:1.0 64:1.0 69:1.0 72:1.0 74:1.0 83:1.0 85:1.0 95:1.0 98:1.0 100:1.0 108:1.0 111:1.0 116:1.0 119:1.0 125:1.0 132:1.0 141:1.0 144:1.0 152:1.0 155:1.0 160:1.0 165:1.0 169:1.0 174:1.0 176:1.0 178:1.0 
1.0 0.0 3:1.0 5:1.0 8:1.0 11:1.0 13:1.0 18:1.0 20:1.0 25:1.0 28:1.0 48:1.0 49:1.0 52:1.0 55:1.0 58:1.0 62:1.0 64:1.0 69:1.0 72:1.0 75:1.0 80:1.0 92:1.0 97:1.0 105:1.0 114:1.0 116:1.0 119:1.0 122:1.0 124:1.0 129:1.0 132:1.0 134:1.0 141:1.0 144:1.0 149:1.0 155:1.0 157:1.0 160:1.0 163:1.0 167:1.0 173:1.0 176:1.0 
1.0 1.0 3:1.0 4:1.0 9:1.0 11:1.0 18:1.0 20:1.0 27:1.0 29:1.0 33:1.0 35:1.0 44:1.0 50:1.0 53:1.0 55:1.0 58:1.0 62:1.0 69:1.0 70:1.0 74:1.0 76:1.0 79:1.0 83:1.0 90:1.0 93:1.0 95:1.0 98:1.0 102:1.0 105:1.0 110:1.0 117:1.0 119:1.0 121:1.0 124:1.0 129:1.0 134:1.0 136:1.0 141:1.0 142:1.0 147:1.0 150:1.0 151:1.0 159:1.0 162:1.0 164:1.0 167:1.0 169:1.0 174:1.0 180:1.0 
0.0 1.0 2:1.0 5:1.0 8:1.0 10:1.0 13:1.0 16:1.0 24:1.0 29:1.0 35:1.0 37:1.0 42:1.0 43:1.0 46:1.0 54:1.0 58:1.0 66:1.0 71:1.0 74:1.0 77:1.0 79:1.0 84:1.0 85:1.0 88:1.0 91:1.0 95:1.0 98:1.0 105:1.0 111:1.0 114:1.0 116:1.0 123:1.0 125:1.0 134:1.0 136:1.0 139:1.0 143:1.0 146:1.0 148:1.0 159:1.0 160:1.0 164:1.0 166:1.0 171:1.0 
1.0 0.0 5:1.0 11:1.0 15:1.0 18:1.0 21:1.0 24:1.0 27:1.0 29:1.0 33:1.0 36:1.0 38:1.0 41:1.0 45:1.0 48:1.0 50:1.0 54:1.0 56:1.0 60:1.0 63:1.0 65:1.0 69:1.0 72:1.0 75:1.0 78:1.0 79:1.0 84:1.0 86:1.0 90:1.0 93:1.0 98:1.0 101:1.0 104:1.0 107:1.0 111:1.0 114:1.0 116:1.0 119:1.0 123:1.0 125:1.0 129:1.0 132:1.0 134:1.0 137:1.0 140:1.0 143:1.0 147:1.0 148:1.0 152:1.0 156:1.0 162:1.0 168:1.0 174:1.0 179:1.0 
1.0 0.09821500279409409 3:1.0 4:1.0 9:1.0 10:1.0 15:1.0 16:1.0 21:1.0 22:1.0 27:1.0 28:1.0 32:1.0 35:1.0 37:1.0 42:1.0 43:1.0 46:1.0 49:1.0 55:1.0 58:1.0 65:1.0 75:1.0 77:1.0 85:1.0 93:1.0 95:1.0 107:1.0 110:1.0 113:1.0 119:1.0 121:1.0 126:1.0 128:1.0 131:1.0 133:1.0 138:1.0 144:1.0 154:1.0 158:1.0 161:1.0 163:1.0 174:1.0 176:1.0 178:1.0 
1.0 1.0 1:1.0 9:1.0 10:1.0 15:1.0 18:1.0 21:1.0 22:1.0 27:1.0 30:1.0 34:1.0 39:1.0 42:1.0 45:1.0 46:1.0 50:1.0 54:1.0 57:1.0 61:1.0 65:1.0 72:1.0 77:1.0 80:1.0 83:1.0 85:1.0 90:1.0 93:1.0 97:1.0 103:1.0 113:1.0 117:1.0 118:1.0 121:1.0 124:1.0 129:1.0 134:1.0 137:1.0 139:1.0 145:1.0 148:1.0 156:1.0 159:1.0 167:1.0 169:1.0 174:1.0 175:1.0 178:1.0 
1.0 1.0 2:1.0 4:1.0 8:1.0 15:1.0 18:1.0 19:1.0 24:1.0 30:1.0 32:1.0 38:1.0 40:1.0 44:1.0 46:1.0 51:1.0 56:1.0 62:1.0 65:1.0 72:1.0 75:1.0 78:1.0 79:1.0 84:1.0 85:1.0 90:1.0 93:1.0 94:1.0 99:1.0 101:1.0 103:1.0 107:1.0 110:1.0 112:1.0 116:1.0 119:1.0 122:1.0 125:1.0 127:1.0 132:1.0 133:1.0 137:1.0 139:1.0 148:1.0 152:1.0 159:1.0 162:1.0 169:1.0 175:1.0 180:1.0 
1.0 1.0 2:1.0 5:1.0 7:1.0 12:1.0 18:1.0 19:1.0 22:1.0 27:1.0 32:1.0 35:1.0 37:1.0 40:1.0 43:1.0 53:1.0 56:1.0 60:1.0 63:1.0 64:1.0 81:1.0 82:1.0 90:1.0 99:1.0 100:1.0 104:1.0 107:1.0 113:1.0 117:1.0 120:1.0 121:1.0 124:1.0 128:1.0 130:1.0 133:1.0 140:1.0 143:1.0 149:1.0 151:1.0 156:1.0 157:1.0 162:1.0 169:1.0 172:1.0 180:1.0 
1.0 0.0 2:1.0 15:1.0 17:1.0 24:1.0 25:1.0 30:1.0 31:1.0 39:1.0 40:1.0 43:1.0 47:1.0 49:1.0 54:1.0 57:1.0 60:1.0 63:1.0 65:1.0 71:1.0 75:1.0 76:1.0 79:1.0 83:1.0 87:1.0 88:1.0 93:1.0 99:1.0 102:1.0 103:1.0 106:1.0 111:1.0 112:1.0 116:1.0 120:1.0 123:1.0 132:1.0 138:1.0 141:1.0 144:1.0 146:1.0 150:1.0 153:1.0 159:1.0 161:1.0 164:1.0 166:1.0 174:1.0 
1.0 0.0 1:1.0 6:1.0 9:1.0 10:1.0 13:1.0 16:1.0 19:1.0 22:1.0 27:1.0 28:1.0 33:1.0 36:1.0 37:1.0 40:1.0 45:1.0 48:1.0 51:1.0 52:1.0 57:1.0 60:1.0 63:1.0 64:1.0 69:1.0 72:1.0 75:1.0 76:1.0 81:1.0 84:1.0 85:1.0 88:1.0 93:1.0 96:1.0 97:1.0 100:1.0 105:1.0 108:1.0 109:1.0 112:1.0 115:1.0 120:1.0 121:1.0 124:1.0 129:1.0 132:1.0 133:1.0 136:1.0 141:1.0 144:1.0 145:1.0 148:1.0 153:1.0 156:1.0 159:1.0 160:1.0 165:1.0 166:1.0 171:1.0 172:1.0 177:1.0 178:1.0 
1.0 0.0 1:1.0 6:1.0 9:1.0 10:1.0 13:1.0 17:1.0 19:1.0 22:1.0 25:1.0 30:1.0 31:1.0 34:1.0 39:1.0 45:1.0 46:1.0 50:1.0 60:1.0 63:1.0 66:1.0 67:1.0 70:1.0 75:1.0 79:1.0 83:1.0 88:1.0 93:1.0 94:1.0 97:1.0 102:1.0 105:1.0 106:1.0 111:1.0 112:1.0 117:1.0 120:1.0 126:1.0 129:1.0 130:1.0 133:1.0 136:1.0 139:1.0 142:1.0 147:1.0 148:1.0 151:1.0 156:1.0 158:1.0 160:1.0 164:1.0 171:1.0 172:1.0 175:1.0 180:1.0 
0.0 1.0 6:1.0 22:1.0 32:1.0 35:1.0 38:1.0 41:1.0 43:1.0 47:1.0 52:1.0 56:1.0 62:1.0 71:1.0 77:1.0 83:1.0 88:1.0 95:1.0 97:1.0 102:1.0 103:1.0 109:1.0 113:1.0 116:1.0 118:1.0 130:1.0 138:1.0 139:1.0 144:1.0 145:1.0 149:1.0 151:1.0 161:1.0 171:1.0 173:1.0 178:1.0 
0.4222437874035571 1.0 9:1.0 11:1.0 14:1.0 17:1.0 27:1.0 28:1.0 33:1.0 34:1.0 41:1.0 46:1.0 62:1.0 65:1.0 74:1.0 80:1.0 82:1.0 85:1.0 91:1.0 99:1.0 108:1.0 109:1.0 116:1.0 118:1.0 121:1.0 126:1.0 128:1.0 130:1.0 135:1.0 136:1.0 141:1.0 150:1.0 153:1.0 154:1.0 157:1.0 160:1.0 163:1.0 166:1.0 172:1.0 180:1.0 
0.0 1.0 5:1.0 8:1.0 15:1.0 18:1.0 21:1.0 29:1.0 31:1.0 39:1.0 41:1.0 44:1.0 46:1.0 56:1.0 62:1.0 65:1.0 72:1.0 74:1.0 77:1.0 83:1.0 85:1.0 90:1.0 92:1.0 95:1.0 101:1.0 104:1.0 107:1.0 111:1.0 112:1.0 117:1.0 121:1.0 124:1.0 129:1.0 131:1.0 138:1.0 141:1.0 144:1.0 145:1.0 148:1.0 154:1.0 158:1.0 160:1.0 165:1.0 168:1.0 170:1.0 172:1.0 176:1.0 179:1.0 
1.0 0.0 3:1.0 6:1.0 7:1.0 10:1.0 15:1.0 16:1.0 21:1.0 24:1.0 27:1.0 28:1.0 31:1.0 38:1.0 41:1.0 44:1.0 46:1.0 53:1.0 55:1.0 58:1.0 61:1.0 66:1.0 71:1.0 73:1.0 78:1.0 80:1.0 83:1.0 87:1.0 93:1.0 99:1.0 102:1.0 105:1.0 108:1.0 113:1.0 120:1.0 122:1.0 124:1.0 127:1.0 135:1.0 138:1.0 144:1.0 145:1.0 148:1.0 156:1.0 158:1.0 161:1.0 163:1.0 166:1.0 169:1.0 174:1.0 175:1.0 
0.0 1.0 4:1.0 8:1.0 11:1.0 13:1.0 17:1.0 19:1.0 26:1.0 31:1.0 35:1.0 41:1.0 44:1.0 46:1.0 51:1.0 53:1.0 57:1.0 58:1.0 62:1.0 65:1.0 68:1.0 70:1.0 74:1.0 77:1.0 93:1.0 94:1.0 97:1.0 102:1.0 110:1.0 114:1.0 120:1.0 123:1.0 129:1.0 131:1.0 134:1.0 136:1.0 139:1.0 146:1.0 148:1.0 153:1.0 159:1.0 162:1.0 163:1.0 170:1.0 172:1.0 175:1.0 180:1.0 
1.0 0.058601679139703586 3:1.0 4:1.0 8:1.0 12:1.0 15:1.0 20:1.0 27:1.0 30:1.0 33:1.0 34:1.0 39:1.0 40:1.0 45:1.0 48:1.0 50:1.0 53:1.0 55:1.0 59:1.0 61:1.0 69:1.0 70:1.0 75:1.0 83:1.0 90:1.0 93:1.0 95:1.0 98:1.0 105:1.0 108:1.0 112:1.0 120:1.0 126:1.0 129:1.0 132:1.0 135:1.0 138:1.0 141:1.0 143:1.0 146:1.0 150:1.0 153:1.0 156:1.0 159:1.0 162:1.0 164:1.0 167:1.0 174:1.0 176:1.0 179:1.0 
0.0 0.11809165752621287 4:1.0 7:1.0 11:1.0 17:1.0 29:1.0 32:1.0 34:1.0 38:1.0 41:1.0 43:1.0 46:1.0 59:1.0 61:1.0 64:1.0 67:1.0 73:1.0 78:1.0 84:1.0 86:1.0 90:1.0 93:1.0 95:1.0 103:1.0 106:1.0 109:1.0 112:1.0 117:1.0 118:1.0 126:1.0 127:1.0 130:1.0 135:1.0 138:1.0 139:1.0 144:1.0 145:1.0 150:1.0 152:1.0 157:1.0 160:1.0 163:1.0 167:1.0 169:1.0 172:1.0 175:1.0 179:1.0 
1.0 1.0 1:1.0 6:1.0 9:1.0 11:1.0 13:1.0 17:1.0 20:1.0 26:1.0 32:1.0 35:1.0 39:1.0 42:1.0 45:1.0 47:1.0 49:1.0 53:1.0 56:1.0 59:1.0 62:1.0 65:1.0 67:1.0 70:1.0 77:1.0 81:1.0 83:1.0 85:1.0 92:1.0 101:1.0 110:1.0 112:1.0 117:1.0 119:1.0 123:1.0 124:1.0 128:1.0 130:1.0 137:1.0 140:1.0 142:1.0 146:1.0 159:1.0 162:1.0 165:1.0 166:1.0 169:1.0 173:1.0 175:1.0 
0.0 1.0 2:1.0 5:1.0 10:1.0 14:1.0 16:1.0 19:1.0 24:1.0 27:1.0 33:1.0 38:1.0 41:1.0 43:1.0 47:1.0 50:1.0 56:1.0 63:1.0 66:1.0 68:1.0 71:1.0 74:1.0 77:1.0 80:1.0 84:1.0 87:1.0 90:1.0 92:1.0 95:1.0 104:1.0 106:1.0 111:1.0 113:1.0 115:1.0 120:1.0 122:1.0 125:1.0 129:1.0 131:1.0 137:1.0 140:1.0 145:1.0 149:1.0 151:1.0 155:1.0 159:1.0 160:1.0 165:1.0 171:1.0 174:1.0 177:1.0 179:1.0 
0.0 1.0 3:1.0 4:1.0 20:1.0 22:1.0 26:1.0 29:1.0 39:1.0 40:1.0 44:1.0 47:1.0 50:1.0 53:1.0 60:1.0 65:1.0 67:1.0 71:1.0 78:1.0 84:1.0 90:1.0 91:1.0 94:1.0 98:1.0 100:1.0 104:1.0 111:1.0 112:1.0 115:1.0 120:1.0 122:1.0 134:1.0 147:1.0 150:1.0 151:1.0 155:1.0 157:1.0 160:1.0 165:1.0 168:1.0 170:1.0 172:1.0 176:1.0 179:1.0 
0.3093330312841818 0.0 2:1.0 6:1.0 8:1.0 10:1.0 14:1.0 17:1.0 24:1.0 27:1.0 30:1.0 32:1.0 36:1.0 38:1.0 41:1.0 44:1.0 51:1.0 53:1.0 60:1.0 63:1.0 65:1.0 67:1.0 70:1.0 75:1.0 76:1.0 82:1.0 86:1.0 88:1.0 95:1.0 98:1.0 100:1.0 105:1.0 107:1.0 109:1.0 114:1.0 117:1.0 119:1.0 122:1.0 125:1.0 129:1.0 132:1.0 133:1.0 136:1.0 139:1.0 144:1.0 147:1.0 151:1.0 154:1.0 159:1.0 160:1.0 163:1.0 171:1.0 173:1.0 180:1.0 
0.0 1.0 2:1.0 4:1.0 11:1.0 13:1.0 18:1.0 22:1.0 27:1.0 28:1.0 38:1.0 40:1.0 44:1.0 52:1.0 59:1.0 61:1.0 65:1.0 67:1.0 75:1.0 78:1.0 82:1.0 85:1.0 90:1.0 92:1.0 96:1.0 99:1.0 102:1.0 103:1.0 111:1.0 116:1.0 118:1.0 122:1.0 128:1.0 130:1.0 135:1.0 138:1.0 140:1.0 143:1.0 145:1.0 149:1.0 153:1.0 156:1.0 159:1.0 163:1.0 166:1.0 169:1.0 178:1.0 
1.0 1.0 2:1.0 6:1.0 12:1.0 15:1.0 16:1.0 21:1.0 24:1.0 26:1.0 29:1.0 33:1.0 34:1.0 38:1.0 40:1.0 47:1.0 49:1.0 52:1.0 56:1.0 60:1.0 63:1.0 65:1.0 68:1.0 75:1.0 77:1.0 81:1.0 83:1.0 85:1.0 90:1.0 93:1.0 96:1.0 102:1.0 104:1.0 111:1.0 114:1.0 115:1.0 123:1.0 124:1.0 129:1.0 131:1.0 138:1.0 139:1.0 143:1.0 146:1.0 149:1.0 156:1.0 159:1.0 161:1.0 164:1.0 166:1.0 171:1.0 174:1.0 175:1.0 179:1.0 
0.0 1.0 6:1.0 12:1.0 14:1.0 17:1.0 24:1.0 26:1.0 32:1.0 34:1.0 38:1.0 41:1.0 50:1.0 52:1.0 56:1.0 59:1.0 61:1.0 66:1.0 68:1.0 74:1.0 81:1.0 83:1.0 86:1.0 88:1.0 92:1.0 96:1.0 99:1.0 101:1.0 108:1.0 111:1.0 112:1.0 116:1.0 119:1.0 123:1.0 126:1.0 127:1.0 132:1.0 133:1.0 137:1.0 141:1.0 143:1.0 149:1.0 156:1.0 158:1.0 162:1.0 165:1.0 168:1.0 171:1.0 173:1.0 180:1.0 
1.0 0.0 3:1.0 5:1.0 7:1.0 11:1.0 14:1.0 25:1.0 28:1.0 33:1.0 34:1.0 37:1.0 40:1.0 45:1.0 46:1.0 49:1.0 57:1.0 63:1.0 69:1.0 72:1.0 73:1.0 78:1.0 84:1.0 88:1.0 91:1.0 96:1.0 97:1.0 100:1.0 105:1.0 117:1.0 118:1.0 122:1.0 125:1.0 129:1.0 132:1.0 135:1.0 136:1.0 141:1.0 143:1.0 146:1.0 149:1.0 154:1.0 158:1.0 160:1.0 168:1.0 169:1.0 173:1.0 176:1.0 180:1.0 
0.0 1.0 3:1.0 7:1.0 20:1.0 22:1.0 26:1.0 28:1.0 34:1.0 43:1.0 47:1.0 49:1.0 52:1.0 66:1.0 71:1.0 73:1.0 77:1.0 79:1.0 90:1.0 99:1.0 102:1.0 108:1.0 114:1.0 116:1.0 118:1.0 122:1.0 135:1.0 141:1.0 144:1.0 147:1.0 155:1.0 164:1.0 167:1.0 174:1.0 176:1.0 178:1.0 
1.0 1.0 7:1.0 12:1.0 18:1.0 21:1.0 23:1.0 25:1.0 28:1.0 32:1.0 35:1.0 42:1.0 45:1.0 51:1.0 52:1.0 56:1.0 59:1.0 62:1.0 65:1.0 68:1.0 71:1.0 80:1.0 83:1.0 90:1.0 96:1.0 97:1.0 112:1.0 117:1.0 120:1.0 122:1.0 125:1.0 127:1.0 135:1.0 136:1.0 141:1.0 144:1.0 146:1.0 148:1.0 153:1.0 155:1.0 158:1.0 162:1.0 165:1.0 167:1.0 169:1.0 176:1.0 180:1.0 
1.0 1.0 3:1.0 6:1.0 8:1.0 11:1.0 14:1.0 17:1.0 20:1.0 22:1.0 26:1.0 29:1.0 36:1.0 39:1.0 45:1.0 48:1.0 49:1.0 52:1.0 57:1.0 59:1.0 62:1.0 65:1.0 71:1.0 76:1.0 80:1.0 83:1.0 90:1.0 93:1.0 99:1.0 105:1.0 107:1.0 111:1.0 114:1.0 117:1.0 120:1.0 121:1.0 126:1.0 128:1.0 132:1.0 133:1.0 138:1.0 141:1.0 152:1.0 161:1.0 166:1.0 170:1.0 174:1.0 176:1.0 178:1.0 
0.0 1.0 6:1.0 8:1.0 10:1.0 17:1.0 20:1.0 22:1.0 25:1.0 37:1.0 40:1.0 44:1.0 52:1.0 55:1.0 59:1.0 65:1.0 73:1.0 77:1.0 80:1.0 85:1.0 101:1.0 108:1.0 110:1.0 112:1.0 117:1.0 119:1.0 126:1.0 128:1.0 134:1.0 137:1.0 140:1.0 142:1.0 147:1.0 148:1.0 157:1.0 161:1.0 167:1.0 170:1.0 179:1.0 
0.0 1.0 2:1.0 4:1.0 17:1.0 29:1.0 32:1.0 35:1.0 43:1.0 58:1.0 62:1.0 65:1.0 68:1.0 70:1.0 81:1.0 95:1.0 101:1.0 103:1.0 109:1.0 113:1.0 115:1.0 120:1.0 123:1.0 130:1.0 136:1.0 139:1.0 144:1.0 146:1.0 148:1.0 152:1.0 154:1.0 162:1.0 167:1.0 170:1.0 180:1.0 
1.0 0.0 3:1.0 4:1.0 12:1.0 16:1.0 20:1.0 23:1.0 26:1.0 33:1.0 36:1.0 39:1.0 40:1.0 47:1.0 51:1.0 53:1.0 60:1.0 61:1.0 65:1.0 68:1.0 72:1.0 74:1.0 76:1.0 84:1.0 86:1.0 88:1.0 93:1.0 94:1.0 97:1.0 100:1.0 105:1.0 106:1.0 111:1.0 112:1.0 119:1.0 121:1.0 125:1.0 128:1.0 132:1.0 134:1.0 138:1.0 140:1.0 147:1.0 150:1.0 152:1.0 154:1.0 158:1.0 161:1.0 164:1.0 166:1.0 171:1.0 173:1.0 175:1.0 179:1.0 
0.0 1.0 1:1.0 4:1.0 10:1.0 17:1.0 23:1.0 25:1.0 28:1.0 31:1.0 36:1.0 37:1.0 40:1.0 46:1.0 49:1.0 54:1.0 56:1.0 59:1.0 61:1.0 65:1.0 71:1.0 81:1.0 82:1.0 85:1.0 88:1.0 98:1.0 101:1.0 103:1.0 106:1.0 111:1.0 115:1.0 120:1.0 123:1.0 124:1.0 133:1.0 152:1.0 157:1.0 160:1.0 163:1.0 169:1.0 175:1.0 180:1.0 
1.0 1.0 2:1.0 4:1.0 8:1.0 10:1.0 15:1.0 17:1.0 20:1.0 33:1.0 39:1.0 44:1.0 47:1.0 49:1.0 52:1.0 57:1.0 59:1.0 61:1.0 66:1.0 69:1.0 70:1.0 75:1.0 78:1.0 81:1.0 83:1.0 85:1.0 90:1.0 92:1.0 96:1.0 97:1.0 102:1.0 105:1.0 109:1.0 114:1.0 120:1.0 121:1.0 124:1.0 129:1.0 130:1.0 135:1.0 136:1.0 140:1.0 143:1.0 146:1.0 148:1.0 153:1.0 156:1.0 158:1.0 162:1.0 164:1.0 169:1.0 173:1.0 176:1.0 
0.0 1.0 2:1.0 5:1.0 9:1.0 10:1.0 14:1.0 21:1.0 22:1.0 27:1.0 29:1.0 31:1.0 34:1.0 37:1.0 42:1.0 45:1.0 47:1.0 50:1.0 57:1.0 60:1.0 63:1.0 66:1.0 72:1.0 74:1.0 76:1.0 81:1.0 84:1.0 85:1.0 90:1.0 96:1.0 98:1.0 103:1.0 107:1.0 110:1.0 112:1.0 120:1.0 123:1.0 127:1.0 130:1.0 138:1.0 141:1.0 142:1.0 146:1.0 148:1.0 153:1.0 154:1.0 159:1.0 166:1.0 173:1.0 177:1.0 178:1.0 
0.4733409468988199 0.0 3:1.0 6:1.0 7:1.0 12:1.0 13:1.0 21:1.0 22:1.0 25:1.0 30:1.0 31:1.0 34:1.0 39:1.0 40:1.0 45:1.0 46:1.0 51:1.0 56:1.0 60:1.0 61:1.0 66:1.0 69:1.0 70:1.0 74:1.0 77:1.0 83:1.0 86:1.0 88:1.0 96:1.0 100:1.0 105:1.0 108:1.0 114:1.0 116:1.0 119:1.0 121:1.0 125:1.0 129:1.0 132:1.0 138:1.0 141:1.0 143:1.0 146:1.0 149:1.0 152:1.0 155:1.0 157:1.0 162:1.0 164:1.0 166:1.0 171:1.0 173:1.0 175:1.0 180:1.0 
0.1331283683349471 1.0 5:1.0 8:1.0 11:1.0 14:1.0 18:1.0 19:1.0 24:1.0 26:1.0 29:1.0 32:1.0 38:1.0 40:1.0 45:1.0 47:1.0 49:1.0 53:1.0 55:1.0 60:1.0 62:1.0 64:1.0 69:1.0 71:1.0 78:1.0 80:1.0 84:1.0 85:1.0 90:1.0 91:1.0 96:1.0 97:1.0 104:1.0 113:1.0 115:1.0 118:1.0 122:1.0 124:1.0 132:1.0 135:1.0 137:1.0 141:1.0 142:1.0 147:1.0 150:1.0 153:1.0 154:1.0 161:1.0 163:1.0 168:1.0 170:1.0 174:1.0 176:1.0 178:1.0 
0.0 1.0 4:1.0 8:1.0 14:1.0 20:1.0 23:1.0 35:1.0 45:1.0 48:1.0 51:1.0 54:1.0 57:1.0 61:1.0 68:1.0 70:1.0 83:1.0 93:1.0 96:1.0 99:1.0 102:1.0 111:1.0 115:1.0 121:1.0 124:1.0 127:1.0 130:1.0 133:1.0 139:1.0 145:1.0 148:1.0 163:1.0 169:1.0 172:1.0 180:1.0 
1.0 0.0 3:1.0 4:1.0 7:1.0 12:1.0 18:1.0 21:1.0 26:1.0 29:1.0 36:1.0 38:1.0 45:1.0 46:1.0 49:1.0 54:1.0 55:1.0 58:1.0 63:1.0 66:1.0 72:1.0 73:1.0 78:1.0 80:1.0 86:1.0 90:1.0 93:1.0 96:1.0 107:1.0 113:1.0 116:1.0 120:1.0 123:1.0 125:1.0 129:1.0 134:1.0 136:1.0 145:1.0 150:1.0 153:1.0 155:1.0 161:1.0 164:1.0 171:1.0 174:1.0 175:1.0 179:1.0 
1.0 0.0 1:1.0 4:1.0 9:1.0 10:1.0 17:1.0 19:1.0 23:1.0 30:1.0 34:1.0 39:1.0 45:1.0 48:1.0 51:1.0 57:1.0 66:1.0 69:1.0 70:1.0 74:1.0 76:1.0 79:1.0 84:1.0 93:1.0 96:1.0 100:1.0 108:1.0 111:1.0 113:1.0 117:1.0 123:1.0 129:1.0 131:1.0 136:1.0 143:1.0 145:1.0 150:1.0 152:1.0 154:1.0 164:1.0 171:1.0 174:1.0 177:1.0 178:1.0 
0.3857069130630955 0.7867720899552344 3:1.0 4:1.0 9:1.0 11:1.0 17:1.0 24:1.0 26:1.0 28:1.0 33:1.0 36:1.0 38:1.0 45:1.0 46:1.0 49:1.0 54:1.0 55:1.0 63:1.0 68:1.0 72:1.0 74:1.0 76:1.0 81:1.0 83:1.0 90:1.0 95:1.0 97:1.0 102:1.0 104:1.0 108:1.0 111:1.0 114:1.0 115:1.0 123:1.0 126:1.0 129:1.0 132:1.0 135:1.0 137:1.0 139:1.0 143:1.0 147:1.0 149:1.0 159:1.0 161:1.0 168:1.0 169:1.0 173:1.0 177:1.0 179:1.0 
1.0 0.0 2:1.0 6:1.0 9:1.0 10:1.0 14:1.0 17:1.0 19:1.0 24:1.0 26:1.0 32:1.0 34:1.0 42:1.0 45:1.0 47:1.0 50:1.0 59:1.0 63:1.0 66:1.0 68:1.0 72:1.0 75:1.0 77:1.0 83:1.0 86:1.0 88:1.0 93:1.0 95:1.0 99:1.0 100:1.0 105:1.0 107:1.0 110:1.0 114:1.0 120:1.0 122:1.0 126:1.0 128:1.0 132:1.0 134:1.0 140:1.0 147:1.0 149:1.0 151:1.0 156:1.0 158:1.0 161:1.0 168:1.0 170:1.0 172:1.0 176:1.0 178:1.0 
1.0 0.0 1:1.0 9:1.0 11:1.0 14:1.0 16:1.0 21:1.0 24:1.0 31:1.0 34:1.0 37:1.0 42:1.0 43:1.0 48:1.0 49:1.0 52:1.0 55:1.0 58:1.0 66:1.0 67:1.0 72:1.0 73:1.0 78:1.0 81:1.0 82:1.0 87:1.0 88:1.0 93:1.0 96:1.0 97:1.0 102:1.0 105:1.0 107:1.0 110:1.0 112:1.0 117:1.0 120:1.0 123:1.0 124:1.0 129:1.0 132:1.0 135:1.0 144:1.0 145:1.0 148:1.0 160:1.0 165:1.0 171:1.0 177:1.0 179:1.0 
0.5412265974287267 0.46845399364929824 3:1.0 9:1.0 12:1.0 15:1.0 17:1.0 20:1.0 26:1.0 29:1.0 34:1.0 44:1.0 47:1.0 50:1.0 57:1.0 60:1.0 61:1.0 66:1.0 70:1.0 74:1.0 78:1.0 81:1.0 84:1.0 85:1.0 88:1.0 93:1.0 96:1.0 100:1.0 103:1.0 108:1.0 109:1.0 114:1.0 117:1.0 120:1.0 122:1.0 129:1.0 132:1.0 135:1.0 138:1.0 144:1.0 147:1.0 149:1.0 152:1.0 156:1.0 159:1.0 160:1.0 165:1.0 168:1.0 169:1.0 172:1.0 177:1.0 180:1.0 
1.0 1.0 3:1.0 5:1.0 11:1.0 17:1.0 20:1.0 22:1.0 26:1.0 29:1.0 36:1.0 38:1.0 47:1.0 59:1.0 66:1.0 72:1.0 74:1.0 77:1.0 93:1.0 95:1.0 99:1.0 100:1.0 110:1.0 117:1.0 119:1.0 130:1.0 135:1.0 141:1.0 143:1.0 146:1.0 148:1.0 152:1.0 155:1.0 157:1.0 162:1.0 163:1.0 166:1.0 171:1.0 172:1.0 178:1.0 
1.0 0.0 3:1.0 6:1.0 9:1.0 10:1.0 15:1.0 17:1.0 19:1.0 24:1.0 27:1.0 28:1.0 33:1.0 36:1.0 37:1.0 42:1.0 43:1.0 46:1.0 51:1.0 52:1.0 60:1.0 62:1.0 66:1.0 69:1.0 70:1.0 75:1.0 78:1.0 80:1.0 82:1.0 87:1.0 90:1.0 91:1.0 96:1.0 99:1.0 100:1.0 105:1.0 106:1.0 114:1.0 115:1.0 123:1.0 129:1.0 132:1.0 135:1.0 136:1.0 141:1.0 145:1.0 150:1.0 153:1.0 154:1.0 159:1.0 162:1.0 163:1.0 168:1.0 169:1.0 172:1.0 177:1.0 178:1.0 
0.7513301372118554 0.8015568405712192 2:1.0 4:1.0 12:1.0 13:1.0 16:1.0 21:1.0 23:1.0 36:1.0 37:1.0 42:1.0 48:1.0 49:1.0 52:1.0 57:1.0 59:1.0 65:1.0 74:1.0 77:1.0 84:1.0 87:1.0 90:1.0 93:1.0 94:1.0 98:1.0 100:1.0 103:1.0 111:1.0 117:1.0 120:1.0 123:1.0 125:1.0 134:1.0 136:1.0 139:1.0 147:1.0 152:1.0 154:1.0 157:1.0 162:1.0 163:1.0 166:1.0 174:1.0 180:1.0 
1.0 0.0 1:1.0 6:1.0 8:1.0 10:1.0 13:1.0 16:1.0 21:1.0 23:1.0 26:1.0 29:1.0 36:1.0 38:1.0 44:1.0 48:1.0 54:1.0 56:1.0 63:1.0 64:1.0 68:1.0 74:1.0 81:1.0 84:1.0 86:1.0 89:1.0 93:1.0 99:1.0 105:1.0 108:1.0 110:1.0 116:1.0 119:1.0 121:1.0 126:1.0 127:1.0 132:1.0 137:1.0 144:1.0 145:1.0 149:1.0 152:1.0 156:1.0 158:1.0 161:1.0 167:1.0 170:1.0 173:1.0 177:1.0 179:1.0 
1.0 1.0 5:1.0 7:1.0 12:1.0 15:1.0 16:1.0 25:1.0 36:1.0 39:1.0 42:1.0 43:1.0 47:1.0 60:1.0 62:1.0 64:1.0 69:1.0 70:1.0 73:1.0 77:1.0 83:1.0 90:1.0 92:1.0 94:1.0 99:1.0 100:1.0 105:1.0 119:1.0 121:1.0 126:1.0 127:1.0 130:1.0 135:1.0 137:1.0 140:1.0 152:1.0 154:1.0 158:1.0 165:1.0 167:1.0 170:1.0 174:1.0 176:1.0 178:1.0 
1.0 0.0 3:1.0 6:1.0 8:1.0 25:1.0 28:1.0 33:1.0 35:1.0 41:1.0 47:1.0 49:1.0 54:1.0 58:1.0 67:1.0 75:1.0 76:1.0 81:1.0 82:1.0 93:1.0 99:1.0 100:1.0 110:1.0 117:1.0 121:1.0 124:1.0 127:1.0 131:1.0 134:1.0 137:1.0 139:1.0 145:1.0 159:1.0 161:1.0 167:1.0 169:1.0 174:1.0 175:1.0 178:1.0 
1.0 0.4562320560185607 5:1.0 7:1.0 15:1.0 17:1.0 19:1.0 30:1.0 31:1.0 34:1.0 38:1.0 41:1.0 43:1.0 46:1.0 49:1.0 52:1.0 56:1.0 62:1.0 64:1.0 69:1.0 72:1.0 74:1.0 77:1.0 81:1.0 85:1.0 88:1.0 93:1.0 96:1.0 97:1.0 100:1.0 103:1.0 108:1.0 111:1.0 113:1.0 126:1.0 127:1.0 130:1.0 135:1.0 138:1.0 141:1.0 144:1.0 146:1.0 148:1.0 153:1.0 159:1.0 162:1.0 166:1.0 169:1.0 173:1.0 
1.0 1.0 1:1.0 5:1.0 7:1.0 13:1.0 21:1.0 24:1.0 26:1.0 31:1.0 36:1.0 38:1.0 41:1.0 43:1.0 48:1.0 50:1.0 62:1.0 65:1.0 67:1.0 71:1.0 74:1.0 76:1.0 80:1.0 83:1.0 85:1.0 97:1.0 106:1.0 109:1.0 112:1.0 118:1.0 123:1.0 126:1.0 129:1.0 130:1.0 133:1.0 140:1.0 143:1.0 155:1.0 158:1.0 161:1.0 164:1.0 166:1.0 177:1.0 179:1.0 
0.5577237296328829 1.0 8:1.0 11:1.0 15:1.0 16:1.0 19:1.0 24:1.0 25:1.0 29:1.0 32:1.0 41:1.0 43:1.0 48:1.0 49:1.0 52:1.0 55:1.0 58:1.0 63:1.0 64:1.0 67:1.0 71:1.0 74:1.0 76:1.0 81:1.0 83:1.0 85:1.0 89:1.0 91:1.0 97:1.0 100:1.0 108:1.0 109:1.0 114:1.0 115:1.0 119:1.0 121:1.0 125:1.0 128:1.0 130:1.0 136:1.0 139:1.0 142:1.0 147:1.0 148:1.0 151:1.0 156:1.0 165:1.0 168:1.0 173:1.0 180:1.0 
1.0 1.0 2:1.0 4:1.0 7:1.0 11:1.0 14:1.0 17:1.0 19:1.0 24:1.0 26:1.0 31:1.0 39:1.0 42:1.0 50:1.0 56:1.0 62:1.0 66:1.0 68:1.0 70:1.0 73:1.0 78:1.0 81:1.0 84:1.0 85:1.0 88:1.0 93:1.0 98:1.0 101:1.0 111:1.0 113:1.0 115:1.0 118:1.0 123:1.0 125:1.0 130:1.0 133:1.0 143:1.0 156:1.0 157:1.0 161:1.0 164:1.0 171:1.0 180:1.0 
0.7531103608853863 1.0 3:1.0 4:1.0 9:1.0 11:1.0 17:1.0 19:1.0 40:1.0 43:1.0 46:1.0 49:1.0 52:1.0 59:1.0 62:1.0 64:1.0 67:1.0 81:1.0 85:1.0 89:1.0 91:1.0 100:1.0 105:1.0 106:1.0 110:1.0 115:1.0 118:1.0 121:1.0 125:1.0 129:1.0 135:1.0 136:1.0 139:1.0 142:1.0 151:1.0 158:1.0 164:1.0 172:1.0 
1.0 0.5696334843133054 1:1.0 5:1.0 7:1.0 12:1.0 14:1.0 19:1.0 22:1.0 25:1.0 28:1.0 35:1.0 38:1.0 48:1.0 50:1.0 53:1.0 60:1.0 66:1.0 67:1.0 70:1.0 78:1.0 79:1.0 82:1.0 85:1.0 88:1.0 93:1.0 94:1.0 97:1.0 102:1.0 105:1.0 106:1.0 109:1.0 112:1.0 124:1.0 135:1.0 136:1.0 140:1.0 142:1.0 147:1.0 148:1.0 151:1.0 155:1.0 157:1.0 162:1.0 164:1.0 166:1.0 169:1.0 172:1.0 180:1.0 
1.0 0.0 6:1.0 7:1.0 13:1.0 18:1.0 23:1.0 25:1.0 28:1.0 34:1.0 38:1.0 41:1.0 43:1.0 48:1.0 51:1.0 54:1.0 55:1.0 59:1.0 62:1.0 64:1.0 69:1.0 72:1.0 73:1.0 76:1.0 81:1.0 84:1.0 89:1.0 93:1.0 99:1.0 100:1.0 104:1.0 107:1.0 109:1.0 114:1.0 119:1.0 122:1.0 129:1.0 132:1.0 133:1.0 138:1.0 141:1.0 143:1.0 146:1.0 149:1.0 152:1.0 154:1.0 159:1.0 162:1.0 164:1.0 171:1.0 175:1.0 179:1.0 
0.0 0.7242916053003462 3:1.0 6:1.0 12:1.0 13:1.0 16:1.0 20:1.0 23:1.0 30:1.0 33:1.0 34:1.0 38:1.0 42:1.0 43:1.0 48:1.0 49:1.0 54:1.0 57:1.0 63:1.0 64:1.0 69:1.0 71:1.0 73:1.0 78:1.0 84:1.0 85:1.0 90:1.0 91:1.0 95:1.0 98:1.0 101:1.0 104:1.0 107:1.0 114:1.0 117:1.0 120:1.0 123:1.0 129:1.0 132:1.0 134:1.0 137:1.0 140:1.0 147:1.0 148:1.0 159:1.0 162:1.0 165:1.0 168:1.0 169:1.0 174:1.0 175:1.0 180:1.0 
0.0 1.0 2:1.0 4:1.0 7:1.0 21:1.0 23:1.0 26:1.0 29:1.0 32:1.0 34:1.0 39:1.0 40:1.0 43:1.0 50:1.0 58:1.0 62:1.0 65:1.0 69:1.0 72:1.0 74:1.0 79:1.0 83:1.0 85:1.0 92:1.0 99:1.0 102:1.0 106:1.0 110:1.0 112:1.0 115:1.0 118:1.0 123:1.0 126:1.0 129:1.0 131:1.0 133:1.0 136:1.0 139:1.0 147:1.0 148:1.0 153:1.0 156:1.0 159:1.0 160:1.0 164:1.0 167:1.0 173:1.0 178:1.0 
0.0 1.0 2:1.0 4:1.0 9:1.0 10:1.0 13:1.0 16:1.0 21:1.0 22:1.0 26:1.0 28:1.0 31:1.0 36:1.0 41:1.0 48:1.0 51:1.0 55:1.0 68:1.0 71:1.0 83:1.0 85:1.0 90:1.0 93:1.0 94:1.0 98:1.0 104:1.0 107:1.0 110:1.0 120:1.0 121:1.0 126:1.0 131:1.0 133:1.0 142:1.0 145:1.0 148:1.0 151:1.0 154:1.0 157:1.0 160:1.0 163:1.0 170:1.0 179:1.0 
1.0 1.0 2:1.0 4:1.0 11:1.0 18:1.0 24:1.0 26:1.0 29:1.0 33:1.0 36:1.0 38:1.0 43:1.0 47:1.0 54:1.0 56:1.0 59:1.0 62:1.0 65:1.0 67:1.0 71:1.0 74:1.0 76:1.0 84:1.0 85:1.0 89:1.0 92:1.0 95:1.0 99:1.0 101:1.0 105:1.0 111:1.0 113:1.0 120:1.0 122:1.0 124:1.0 129:1.0 132:1.0 135:1.0 138:1.0 141:1.0 146:1.0 149:1.0 156:1.0 158:1.0 161:1.0 165:1.0 168:1.0 170:1.0 173:1.0 176:1.0 
0.0 1.0 3:1.0 14:1.0 16:1.0 21:1.0 27:1.0 33:1.0 35:1.0 38:1.0 47:1.0 50:1.0 53:1.0 63:1.0 64:1.0 67:1.0 71:1.0 74:1.0 84:1.0 85:1.0 89:1.0 91:1.0 95:1.0 97:1.0 100:1.0 103:1.0 108:1.0 112:1.0 120:1.0 121:1.0 124:1.0 133:1.0 137:1.0 148:1.0 152:1.0 162:1.0 165:1.0 167:1.0 171:1.0 174:1.0 175:1.0 180:1.0 
0.0 1.0 11:1.0 15:1.0 21:1.0 23:1.0 35:1.0 45:1.0 47:1.0 59:1.0 62:1.0 65:1.0 69:1.0 83:1.0 93:1.0 95:1.0 107:1.0 119:1.0 131:1.0 143:1.0 147:1.0 158:1.0 170:1.0 172:1.0 180:1.0 
1.0 0.0 1:1.0 21:1.0 25:1.0 37:1.0 42:1.0 48:1.0 51:1.0 53:1.0 55:1.0 60:1.0 63:1.0 74:1.0 78:1.0 80:1.0 82:1.0 90:1.0 97:1.0 102:1.0 106:1.0 111:1.0 114:1.0 117:1.0 123:1.0 126:1.0 131:1.0 140:1.0 150:1.0 151:1.0 155:1.0 158:1.0 165:1.0 166:1.0 170:1.0 173:1.0 
0.7203849326720855 0.0 1:1.0 8:1.0 10:1.0 13:1.0 18:1.0 19:1.0 26:1.0 33:1.0 36:1.0 44:1.0 47:1.0 49:1.0 54:1.0 55:1.0 58:1.0 62:1.0 65:1.0 69:1.0 72:1.0 73:1.0 78:1.0 81:1.0 82:1.0 90:1.0 91:1.0 94:1.0 99:1.0 105:1.0 108:1.0 109:1.0 112:1.0 115:1.0 118:1.0 121:1.0 124:1.0 129:1.0 130:1.0 137:1.0 139:1.0 145:1.0 148:1.0 153:1.0 155:1.0 162:1.0 164:1.0 167:1.0 170:1.0 172:1.0 175:1.0 179:1.0 
1.0 0.0 3:1.0 4:1.0 8:1.0 11:1.0 18:1.0 20:1.0 22:1.0 27:1.0 29:1.0 31:1.0 35:1.0 38:1.0 42:1.0 45:1.0 47:1.0 54:1.0 57:1.0 58:1.0 62:1.0 66:1.0 67:1.0 72:1.0 75:1.0 77:1.0 80:1.0 84:1.0 85:1.0 90:1.0 92:1.0 94:1.0 99:1.0 100:1.0 107:1.0 111:1.0 113:1.0 116:1.0 119:1.0 125:1.0 127:1.0 130:1.0 135:1.0 138:1.0 141:1.0 143:1.0 147:1.0 150:1.0 152:1.0 154:1.0 157:1.0 162:1.0 163:1.0 166:1.0 171:1.0 173:1.0 175:1.0 180:1.0 
1.0 1.0 1:1.0 6:1.0 8:1.0 10:1.0 15:1.0 18:1.0 31:1.0 35:1.0 38:1.0 40:1.0 45:1.0 50:1.0 53:1.0 55:1.0 59:1.0 61:1.0 66:1.0 67:1.0 71:1.0 76:1.0 80:1.0 83:1.0 86:1.0 90:1.0 91:1.0 96:1.0 97:1.0 100:1.0 104:1.0 107:1.0 109:1.0 113:1.0 116:1.0 123:1.0 126:1.0 129:1.0 132:1.0 133:1.0 138:1.0 140:1.0 142:1.0 150:1.0 152:1.0 159:1.0 160:1.0 163:1.0 166:1.0 169:1.0 173:1.0 175:1.0 179:1.0 
0.0 1.0 1:1.0 11:1.0 13:1.0 16:1.0 19:1.0 23:1.0 25:1.0 30:1.0 32:1.0 36:1.0 38:1.0 41:1.0 47:1.0 49:1.0 54:1.0 55:1.0 59:1.0 64:1.0 68:1.0 77:1.0 79:1.0 93:1.0 96:1.0 100:1.0 104:1.0 106:1.0 109:1.0 112:1.0 116:1.0 118:1.0 121:1.0 126:1.0 127:1.0 130:1.0 137:1.0 144:1.0 147:1.0 148:1.0 151:1.0 154:1.0 157:1.0 162:1.0 165:1.0 170:1.0 173:1.0 179:1.0 
1.0 1.0 2:1.0 6:1.0 9:1.0 15:1.0 21:1.0 23:1.0 26:1.0 30:1.0 33:1.0 36:1.0 38:1.0 44:1.0 47:1.0 54:1.0 55:1.0 63:1.0 64:1.0 68:1.0 71:1.0 74:1.0 80:1.0 82:1.0 85:1.0 90:1.0 93:1.0 96:1.0 97:1.0 101:1.0 110:1.0 113:1.0 116:1.0 118:1.0 123:1.0 125:1.0 127:1.0 131:1.0 134:1.0 139:1.0 143:1.0 145:1.0 148:1.0 152:1.0 154:1.0 157:1.0 160:1.0 165:1.0 166:1.0 170:1.0 178:1.0 
1.0 1.0 1:1.0 18:1.0 23:1.0 25:1.0 33:1.0 35:1.0 42:1.0 45:1.0 48:1.0 49:1.0 54:1.0 57:1.0 58:1.0 61:1.0 69:1.0 83:1.0 87:1.0 90:1.0 93:1.0 98:1.0 100:1.0 106:1.0 110:1.0 114:1.0 117:1.0 118:1.0 123:1.0 129:1.0 135:1.0 137:1.0 144:1.0 147:1.0 148:1.0 153:1.0 154:1.0 157:1.0 162:1.0 168:1.0 169:1.0 180:1.0 
1.0 1.0 3:1.0 4:1.0 8:1.0 10:1.0 13:1.0 16:1.0 30:1.0 36:1.0 38:1.0 43:1.0 47:1.0 50:1.0 53:1.0 60:1.0 63:1.0 68:1.0 76:1.0 80:1.0 83:1.0 90:1.0 93:1.0 96:1.0 97:1.0 101:1.0 103:1.0 107:1.0 110:1.0 117:1.0 120:1.0 123:1.0 126:1.0 127:1.0 131:1.0 133:1.0 137:1.0 144:1.0 145:1.0 148:1.0 152:1.0 159:1.0 162:1.0 168:1.0 170:1.0 177:1.0 178:1.0 
1.0 0.0 1:1.0 4:1.0 12:1.0 13:1.0 18:1.0 19:1.0 29:1.0 35:1.0 37:1.0 43:1.0 60:1.0 63:1.0 68:1.0 73:1.0 76:1.0 81:1.0 84:1.0 85:1.0 91:1.0 97:1.0 102:1.0 105:1.0 106:1.0 112:1.0 116:1.0 118:1.0 123:1.0 136:1.0 140:1.0 142:1.0 147:1.0 153:1.0 156:1.0 159:1.0 165:1.0 168:1.0 171:1.0 176:1.0 
1.0 0.0 9:1.0 15:1.0 19:1.0 27:1.0 30:1.0 36:1.0 42:1.0 43:1.0 48:1.0 51:1.0 55:1.0 60:1.0 63:1.0 66:1.0 68:1.0 78:1.0 79:1.0 84:1.0 87:1.0 97:1.0 105:1.0 120:1.0 130:1.0 138:1.0 141:1.0 144:1.0 150:1.0 154:1.0 158:1.0 160:1.0 165:1.0 174:1.0 
1.0 0.0 1:1.0 6:1.0 7:1.0 11:1.0 15:1.0 16:1.0 24:1.0 25:1.0 29:1.0 33:1.0 34:1.0 38:1.0 42:1.0 43:1.0 51:1.0 54:1.0 56:1.0 62:1.0 69:1.0 70:1.0 75:1.0 78:1.0 81:1.0 84:1.0 85:1.0 89:1.0 92:1.0 98:1.0 100:1.0 105:1.0 108:1.0 111:1.0 114:1.0 116:1.0 123:1.0 125:1.0 128:1.0 132:1.0 133:1.0 138:1.0 140:1.0 147:1.0 150:1.0 153:1.0 156:1.0 159:1.0 162:1.0 165:1.0 167:1.0 171:1.0 173:1.0 179:1.0 
1.0 0.0 2:1.0 4:1.0 12:1.0 13:1.0 21:1.0 24:1.0 27:1.0 33:1.0 36:1.0 42:1.0 44:1.0 51:1.0 52:1.0 57:1.0 60:1.0 66:1.0 67:1.0 77:1.0 81:1.0 83:1.0 86:1.0 88:1.0 93:1.0 94:1.0 97:1.0 100:1.0 105:1.0 113:1.0 117:1.0 126:1.0 128:1.0 134:1.0 140:1.0 143:1.0 153:1.0 156:1.0 157:1.0 162:1.0 164:1.0 167:1.0 169:1.0 174:1.0 177:1.0 178:1.0 
1.0 1.0 2:1.0 5:1.0 8:1.0 11:1.0 16:1.0 21:1.0 22:1.0 30:1.0 31:1.0 34:1.0 39:1.0 44:1.0 50:1.0 53:1.0 55:1.0 63:1.0 64:1.0 69:1.0 71:1.0 76:1.0 80:1.0 82:1.0 85:1.0 90:1.0 93:1.0 96:1.0 98:1.0 101:1.0 108:1.0 111:1.0 117:1.0 121:1.0 128:1.0 131:1.0 133:1.0 138:1.0 141:1.0 147:1.0 148:1.0 155:1.0 160:1.0 165:1.0 169:1.0 172:1.0 
1.0 0.0 5:1.0 9:1.0 10:1.0 18:1.0 21:1.0 23:1.0 27:1.0 29:1.0 32:1.0 37:1.0 42:1.0 45:1.0 46:1.0 51:1.0 56:1.0 59:1.0 61:1.0 69:1.0 70:1.0 73:1.0 76:1.0 82:1.0 86:1.0 90:1.0 93:1.0 97:1.0 101:1.0 103:1.0 108:1.0 111:1.0 113:1.0 122:1.0 125:1.0 129:1.0 132:1.0 134:1.0 138:1.0 139:1.0 143:1.0 147:1.0 150:1.0 151:1.0 159:1.0 161:1.0 164:1.0 167:1.0 170:1.0 174:1.0 176:1.0 179:1.0 
0.0 1.0 2:1.0 4:1.0 9:1.0 10:1.0 15:1.0 17:1.0 24:1.0 26:1.0 30:1.0 31:1.0 36:1.0 39:1.0 40:1.0 45:1.0 46:1.0 51:1.0 54:1.0 55:1.0 58:1.0 65:1.0 71:1.0 74:1.0 78:1.0 81:1.0 84:1.0 85:1.0 90:1.0 91:1.0 94:1.0 98:1.0 102:1.0 105:1.0 108:1.0 112:1.0 120:1.0 121:1.0 126:1.0 132:1.0 138:1.0 139:1.0 144:1.0 150:1.0 153:1.0 155:1.0 159:1.0 161:1.0 166:1.0 172:1.0 175:1.0 179:1.0 
1.0 1.0 2:1.0 9:1.0 12:1.0 14:1.0 17:1.0 26:1.0 29:1.0 36:1.0 39:1.0 40:1.0 44:1.0 46:1.0 51:1.0 53:1.0 55:1.0 60:1.0 63:1.0 66:1.0 69:1.0 72:1.0 74:1.0 80:1.0 83:1.0 90:1.0 93:1.0 96:1.0 97:1.0 107:1.0 110:1.0 117:1.0 120:1.0 123:1.0 134:1.0 137:1.0 139:1.0 144:1.0 147:1.0 151:1.0 154:1.0 159:1.0 165:1.0 166:1.0 
0.0 0.6323835548890742 1:1.0 4:1.0 8:1.0 10:1.0 15:1.0 18:1.0 20:1.0 22:1.0 32:1.0 35:1.0 37:1.0 41:1.0 43:1.0 48:1.0 51:1.0 53:1.0 71:1.0 78:1.0 81:1.0 84:1.0 85:1.0 88:1.0 92:1.0 95:1.0 98:1.0 106:1.0 110:1.0 120:1.0 121:1.0 127:1.0 132:1.0 138:1.0 140:1.0 146:1.0 151:1.0 156:1.0 159:1.0 160:1.0 163:1.0 166:1.0 170:1.0 172:1.0 176:1.0 
0.0 1.0 2:1.0 5:1.0 12:1.0 13:1.0 17:1.0 21:1.0 26:1.0 28:1.0 32:1.0 34:1.0 39:1.0 40:1.0 43:1.0 48:1.0 50:1.0 53:1.0 56:1.0 62:1.0 69:1.0 74:1.0 77:1.0 83:1.0 86:1.0 92:1.0 94:1.0 98:1.0 111:1.0 113:1.0 117:1.0 123:1.0 126:1.0 128:1.0 132:1.0 137:1.0 139:1.0 142:1.0 146:1.0 148:1.0 152:1.0 156:1.0 159:1.0 160:1.0 164:1.0 166:1.0 171:1.0 173:1.0 177:1.0 180:1.0 
1.0 1.0 2:1.0 5:1.0 11:1.0 13:1.0 24:1.0 25:1.0 34:1.0 37:1.0 43:1.0 47:1.0 49:1.0 56:1.0 58:1.0 65:1.0 71:1.0 73:1.0 77:1.0 79:1.0 83:1.0 95:1.0 97:1.0 105:1.0 106:1.0 111:1.0 119:1.0 128:1.0 131:1.0 133:1.0 146:1.0 148:1.0 151:1.0 154:1.0 159:1.0 160:1.0 164:1.0 170:1.0 172:1.0 176:1.0 
0.0 1.0 1:1.0 11:1.0 13:1.0 18:1.0 21:1.0 22:1.0 31:1.0 39:1.0 40:1.0 43:1.0 48:1.0 65:1.0 69:1.0 70:1.0 78:1.0 80:1.0 84:1.0 85:1.0 88:1.0 93:1.0 94:1.0 104:1.0 106:1.0 110:1.0 117:1.0 120:1.0 121:1.0 125:1.0 129:1.0 130:1.0 133:1.0 136:1.0 141:1.0 142:1.0 145:1.0 148:1.0 153:1.0 154:1.0 160:1.0 163:1.0 166:1.0 169:1.0 174:1.0 177:1.0 180:1.0 
0.0 1.0 2:1.0 5:1.0 8:1.0 10:1.0 15:1.0 18:1.0 21:1.0 22:1.0 27:1.0 29:1.0 31:1.0 35:1.0 40:1.0 43:1.0 48:1.0 50:1.0 54:1.0 55:1.0 60:1.0 62:1.0 64:1.0 68:1.0 75:1.0 77:1.0 80:1.0 83:1.0 85:1.0 88:1.0 92:1.0 94:1.0 97:1.0 101:1.0 103:1.0 107:1.0 110:1.0 112:1.0 117:1.0 119:1.0 125:1.0 128:1.0 134:1.0 140:1.0 143:1.0 146:1.0 149:1.0 151:1.0 156:1.0 158:1.0 161:1.0 163:1.0 166:1.0 169:1.0 174:1.0 175:1.0 178:1.0 
1.0 1.0 1:1.0 5:1.0 8:1.0 14:1.0 16:1.0 19:1.0 22:1.0 33:1.0 34:1.0 37:1.0 41:1.0 45:1.0 46:1.0 55:1.0 58:1.0 61:1.0 64:1.0 67:1.0 77:1.0 79:1.0 82:1.0 85:1.0 90:1.0 92:1.0 94:1.0 100:1.0 105:1.0 107:1.0 110:1.0 113:1.0 120:1.0 121:1.0 124:1.0 127:1.0 132:1.0 133:1.0 138:1.0 139:1.0 142:1.0 145:1.0 150:1.0 153:1.0 154:1.0 158:1.0 160:1.0 163:1.0 168:1.0 171:1.0 172:1.0 176:1.0 179:1.0 
1.0 1.0 3:1.0 5:1.0 8:1.0 11:1.0 14:1.0 18:1.0 20:1.0 24:1.0 26:1.0 29:1.0 34:1.0 38:1.0 45:1.0 46:1.0 51:1.0 57:1.0 59:1.0 65:1.0 67:1.0 72:1.0 78:1.0 79:1.0 82:1.0 90:1.0 93:1.0 94:1.0 97:1.0 102:1.0 104:1.0 106:1.0 111:1.0 113:1.0 126:1.0 130:1.0 134:1.0 138:1.0 140:1.0 143:1.0 145:1.0 150:1.0 152:1.0 156:1.0 163:1.0 171:1.0 174:1.0 180:1.0 
1.0 1.0 2:1.0 6:1.0 9:1.0 11:1.0 14:1.0 17:1.0 24:1.0 27:1.0 31:1.0 38:1.0 41:1.0 43:1.0 53:1.0 56:1.0 60:1.0 63:1.0 64:1.0 69:1.0 72:1.0 73:1.0 81:1.0 90:1.0 96:1.0 98:1.0 100:1.0 105:1.0 108:1.0 110:1.0 117:1.0 118:1.0 123:1.0 126:1.0 128:1.0 135:1.0 138:1.0 141:1.0 144:1.0 147:1.0 149:1.0 151:1.0 159:1.0 161:1.0 163:1.0 167:1.0 169:1.0 173:1.0 176:1.0 180:1.0 
1.0 0.0 9:1.0 12:1.0 13:1.0 16:1.0 19:1.0 22:1.0 25:1.0 29:1.0 34:1.0 37:1.0 40:1.0 45:1.0 46:1.0 53:1.0 65:1.0 71:1.0 73:1.0 76:1.0 79:1.0 82:1.0 88:1.0 93:1.0 97:1.0 100:1.0 108:1.0 109:1.0 112:1.0 115:1.0 123:1.0 128:1.0 133:1.0 141:1.0 142:1.0 153:1.0 154:1.0 157:1.0 160:1.0 165:1.0 167:1.0 175:1.0 178:1.0 
0.0 1.0 3:1.0 5:1.0 8:1.0 14:1.0 20:1.0 23:1.0 27:1.0 30:1.0 32:1.0 41:1.0 44:1.0 48:1.0 53:1.0 60:1.0 62:1.0 65:1.0 69:1.0 72:1.0 73:1.0 77:1.0 80:1.0 82:1.0 85:1.0 90:1.0 92:1.0 94:1.0 98:1.0 101:1.0 108:1.0 110:1.0 112:1.0 116:1.0 119:1.0 126:1.0 128:1.0 132:1.0 134:1.0 141:1.0 143:1.0 145:1.0 150:1.0 152:1.0 156:1.0 161:1.0 165:1.0 166:1.0 170:1.0 
0.0 1.0 3:1.0 5:1.0 18:1.0 24:1.0 25:1.0 30:1.0 31:1.0 37:1.0 40:1.0 43:1.0 46:1.0 50:1.0 56:1.0 62:1.0 65:1.0 80:1.0 83:1.0 91:1.0 95:1.0 98:1.0 100:1.0 106:1.0 110:1.0 113:1.0 115:1.0 119:1.0 132:1.0 133:1.0 137:1.0 139:1.0 143:1.0 147:1.0 149:1.0 158:1.0 160:1.0 163:1.0 168:1.0 171:1.0 172:1.0 178:1.0 
0.0 1.0 3:1.0 6:1.0 10:1.0 13:1.0 18:1.0 19:1.0 24:1.0 25:1.0 28:1.0 31:1.0 37:1.0 42:1.0 48:1.0 57:1.0 58:1.0 73:1.0 78:1.0 81:1.0 84:1.0 85:1.0 90:1.0 91:1.0 94:1.0 100:1.0 103:1.0 107:1.0 113:1.0 115:1.0 120:1.0 122:1.0 124:1.0 127:1.0 138:1.0 141:1.0 142:1.0 149:1.0 156:1.0 159:1.0 163:1.0 171:1.0 177:1.0 
0.0 1.0 2:1.0 6:1.0 9:1.0 11:1.0 15:1.0 17:1.0 20:1.0 24:1.0 26:1.0 30:1.0 31:1.0 36:1.0 38:1.0 47:1.0 53:1.0 56:1.0 62:1.0 68:1.0 71:1.0 77:1.0 79:1.0 83:1.0 87:1.0 88:1.0 92:1.0 95:1.0 99:1.0 100:1.0 105:1.0 108:1.0 110:1.0 112:1.0 117:1.0 118:1.0 123:1.0 125:1.0 127:1.0 132:1.0 137:1.0 139:1.0 148:1.0 156:1.0 159:1.0 161:1.0 165:1.0 166:1.0 169:1.0 173:1.0 176:1.0 
1.0 0.0 2:1.0 6:1.0 8:1.0 18:1.0 21:1.0 24:1.0 25:1.0 29:1.0 36:1.0 38:1.0 40:1.0 45:1.0 47:1.0 51:1.0 57:1.0 60:1.0 61:1.0 66:1.0 67:1.0 70:1.0 74:1.0 78:1.0 81:1.0 83:1.0 87:1.0 90:1.0 92:1.0 99:1.0 101:1.0 105:1.0 106:1.0 111:1.0 113:1.0 115:1.0 119:1.0 123:1.0 125:1.0 129:1.0 135:1.0 137:1.0 139:1.0 142:1.0 150:1.0 152:1.0 156:1.0 157:1.0 164:1.0 167:1.0 170:1.0 177:1.0 180:1.0 
0.7326724587621534 1.0 8:1.0 12:1.0 17:1.0 19:1.0 23:1.0 28:1.0 35:1.0 41:1.0 44:1.0 50:1.0 56:1.0 59:1.0 61:1.0 65:1.0 72:1.0 75:1.0 77:1.0 80:1.0 82:1.0 86:1.0 90:1.0 92:1.0 94:1.0 99:1.0 100:1.0 107:1.0 110:1.0 113:1.0 119:1.0 121:1.0 126:1.0 129:1.0 131:1.0 135:1.0 138:1.0 144:1.0 147:1.0 150:1.0 153:1.0 156:1.0 158:1.0 162:1.0 165:1.0 167:1.0 171:1.0 175:1.0 179:1.0 
1.0 0.0 3:1.0 4:1.0 8:1.0 12:1.0 13:1.0 21:1.0 22:1.0 27:1.0 30:1.0 36:1.0 37:1.0 41:1.0 43:1.0 48:1.0 53:1.0 55:1.0 59:1.0 63:1.0 66:1.0 67:1.0 72:1.0 75:1.0 76:1.0 82:1.0 85:1.0 90:1.0 91:1.0 98:1.0 100:1.0 103:1.0 111:1.0 113:1.0 116:1.0 119:1.0 125:1.0 127:1.0 136:1.0 139:1.0 142:1.0 147:1.0 149:1.0 151:1.0 156:1.0 158:1.0 161:1.0 165:1.0 168:1.0 174:1.0 178:1.0 
1.0 0.0 1:1.0 6:1.0 7:1.0 10:1.0 15:1.0 17:1.0 20:1.0 24:1.0 27:1.0 28:1.0 31:1.0 36:1.0 42:1.0 45:1.0 51:1.0 52:1.0 55:1.0 60:1.0 61:1.0 65:1.0 69:1.0 71:1.0 73:1.0 77:1.0 80:1.0 87:1.0 89:1.0 93:1.0 96:1.0 99:1.0 100:1.0 104:1.0 106:1.0 114:1.0 115:1.0 122:1.0 124:1.0 131:1.0 134:1.0 139:1.0 143:1.0 146:1.0 149:1.0 153:1.0 154:1.0 159:1.0 160:1.0 168:1.0 171:1.0 177:1.0 180:1.0 
0.0 1.0 2:1.0 5:1.0 7:1.0 10:1.0 13:1.0 18:1.0 21:1.0 23:1.0 27:1.0 30:1.0 33:1.0 34:1.0 37:1.0 42:1.0 43:1.0 51:1.0 54:1.0 60:1.0 63:1.0 66:1.0 68:1.0 70:1.0 75:1.0 77:1.0 80:1.0 83:1.0 85:1.0 90:1.0 91:1.0 95:1.0 97:1.0 101:1.0 104:1.0 108:1.0 117:1.0 120:1.0 123:1.0 124:1.0 132:1.0 133:1.0 136:1.0 140:1.0 145:1.0 149:1.0 153:1.0 156:1.0 158:1.0 160:1.0 165:1.0 167:1.0 172:1.0 176:1.0 178:1.0 
0.0 1.0 3:1.0 5:1.0 12:1.0 16:1.0 19:1.0 28:1.0 34:1.0 45:1.0 46:1.0 51:1.0 54:1.0 60:1.0 61:1.0 69:1.0 72:1.0 73:1.0 79:1.0 82:1.0 85:1.0 90:1.0 91:1.0 94:1.0 98:1.0 105:1.0 106:1.0 109:1.0 114:1.0 123:1.0 124:1.0 132:1.0 135:1.0 136:1.0 139:1.0 142:1.0 146:1.0 148:1.0 151:1.0 159:1.0 160:1.0 163:1.0 168:1.0 175:1.0 178:1.0 
1.0 0.0 3:1.0 6:1.0 9:1.0 12:1.0 13:1.0 17:1.0 20:1.0 22:1.0 30:1.0 33:1.0 36:1.0 39:1.0 40:1.0 45:1.0 48:1.0 51:1.0 53:1.0 55:1.0 59:1.0 61:1.0 66:1.0 72:1.0 75:1.0 78:1.0 81:1.0 82:1.0 87:1.0 90:1.0 93:1.0 96:1.0 97:1.0 102:1.0 103:1.0 108:1.0 114:1.0 115:1.0 120:1.0 123:1.0 124:1.0 127:1.0 132:1.0 135:1.0 138:1.0 139:1.0 143:1.0 145:1.0 150:1.0 156:1.0 157:1.0 162:1.0 165:1.0 166:1.0 171:1.0 174:1.0 177:1.0 180:1.0 
1.0 1.0 2:1.0 9:1.0 10:1.0 14:1.0 16:1.0 21:1.0 22:1.0 25:1.0 33:1.0 34:1.0 37:1.0 41:1.0 44:1.0 51:1.0 53:1.0 55:1.0 60:1.0 61:1.0 65:1.0 68:1.0 71:1.0 78:1.0 80:1.0 84:1.0 86:1.0 90:1.0 93:1.0 95:1.0 100:1.0 104:1.0 109:1.0 113:1.0 115:1.0 118:1.0 122:1.0 125:1.0 127:1.0 132:1.0 133:1.0 138:1.0 140:1.0 144:1.0 145:1.0 150:1.0 153:1.0 155:1.0 158:1.0 160:1.0 165:1.0 171:1.0 172:1.0 177:1.0 
1.0 0.0 1:1.0 5:1.0 7:1.0 12:1.0 26:1.0 33:1.0 35:1.0 46:1.0 49:1.0 62:1.0 64:1.0 72:1.0 73:1.0 76:1.0 79:1.0 82:1.0 87:1.0 88:1.0 97:1.0 105:1.0 106:1.0 113:1.0 119:1.0 121:1.0 126:1.0 127:1.0 130:1.0 133:1.0 144:1.0 148:1.0 155:1.0 163:1.0 168:1.0 177:1.0 180:1.0 
0.7329097349805631 0.0 6:1.0 9:1.0 11:1.0 13:1.0 16:1.0 19:1.0 22:1.0 26:1.0 28:1.0 32:1.0 39:1.0 41:1.0 47:1.0 49:1.0 54:1.0 55:1.0 60:1.0 61:1.0 65:1.0 69:1.0 70:1.0 75:1.0 76:1.0 81:1.0 83:1.0 86:1.0 93:1.0 94:1.0 97:1.0 103:1.0 110:1.0 122:1.0 124:1.0 127:1.0 130:1.0 133:1.0 137:1.0 140:1.0 146:1.0 148:1.0 151:1.0 158:1.0 162:1.0 167:1.0 171:1.0 172:1.0 176:1.0 178:1.0 
1.0 1.0 3:1.0 4:1.0 9:1.0 12:1.0 13:1.0 18:1.0 20:1.0 29:1.0 32:1.0 34:1.0 37:1.0 40:1.0 49:1.0 56:1.0 59:1.0 61:1.0 70:1.0 75:1.0 77:1.0 79:1.0 83:1.0 85:1.0 88:1.0 93:1.0 95:1.0 98:1.0 101:1.0 105:1.0 110:1.0 112:1.0 117:1.0 123:1.0 126:1.0 128:1.0 131:1.0 134:1.0 137:1.0 139:1.0 147:1.0 149:1.0 151:1.0 157:1.0 160:1.0 163:1.0 171:1.0 175:1.0 179:1.0 
0.0 1.0 3:1.0 6:1.0 10:1.0 18:1.0 19:1.0 24:1.0 25:1.0 28:1.0 35:1.0 40:1.0 45:1.0 48:1.0 50:1.0 52:1.0 57:1.0 60:1.0 63:1.0 66:1.0 68:1.0 70:1.0 75:1.0 78:1.0 81:1.0 84:1.0 85:1.0 90:1.0 97:1.0 101:1.0 103:1.0 108:1.0 113:1.0 116:1.0 119:1.0 133:1.0 137:1.0 139:1.0 144:1.0 145:1.0 151:1.0 156:1.0 157:1.0 160:1.0 163:1.0 166:1.0 169:1.0 173:1.0 175:1.0 180:1.0 
1.0 1.0 2:1.0 6:1.0 9:1.0 12:1.0 15:1.0 20:1.0 22:1.0 26:1.0 30:1.0 36:1.0 38:1.0 44:1.0 48:1.0 50:1.0 53:1.0 55:1.0 58:1.0 63:1.0 66:1.0 67:1.0 72:1.0 74:1.0 80:1.0 84:1.0 85:1.0 90:1.0 93:1.0 95:1.0 99:1.0 107:1.0 109:1.0 114:1.0 117:1.0 120:1.0 121:1.0 126:1.0 129:1.0 131:1.0 134:1.0 136:1.0 139:1.0 142:1.0 146:1.0 150:1.0 155:1.0 157:1.0 161:1.0 164:1.0 168:1.0 173:1.0 176:1.0 179:1.0 
1.0 0.0 2:1.0 5:1.0 8:1.0 10:1.0 14:1.0 17:1.0 21:1.0 27:1.0 29:1.0 36:1.0 38:1.0 45:1.0 48:1.0 51:1.0 52:1.0 56:1.0 59:1.0 66:1.0 68:1.0 70:1.0 75:1.0 78:1.0 84:1.0 88:1.0 93:1.0 94:1.0 99:1.0 100:1.0 105:1.0 108:1.0 111:1.0 114:1.0 117:1.0 120:1.0 122:1.0 125:1.0 128:1.0 135:1.0 136:1.0 140:1.0 144:1.0 146:1.0 150:1.0 152:1.0 154:1.0 159:1.0 160:1.0 164:1.0 167:1.0 170:1.0 172:1.0 177:1.0 
0.0 1.0 9:1.0 11:1.0 14:1.0 17:1.0 19:1.0 22:1.0 25:1.0 28:1.0 32:1.0 34:1.0 41:1.0 48:1.0 51:1.0 53:1.0 55:1.0 58:1.0 61:1.0 66:1.0 75:1.0 76:1.0 79:1.0 90:1.0 92:1.0 101:1.0 104:1.0 106:1.0 109:1.0 112:1.0 115:1.0 120:1.0 128:1.0 130:1.0 134:1.0 136:1.0 148:1.0 155:1.0 157:1.0 162:1.0 163:1.0 166:1.0 171:1.0 174:1.0 175:1.0 179:1.0 
0.0 1.0 2:1.0 5:1.0 8:1.0 15:1.0 16:1.0 24:1.0 25:1.0 28:1.0 33:1.0 36:1.0 38:1.0 40:1.0 44:1.0 47:1.0 57:1.0 60:1.0 63:1.0 66:1.0 68:1.0 77:1.0 80:1.0 83:1.0 90:1.0 92:1.0 95:1.0 99:1.0 101:1.0 103:1.0 110:1.0 113:1.0 119:1.0 125:1.0 128:1.0 131:1.0 134:1.0 140:1.0 142:1.0 147:1.0 150:1.0 151:1.0 154:1.0 159:1.0 162:1.0 165:1.0 168:1.0 169:1.0 173:1.0 180:1.0 
1.0 1.0 1:1.0 18:1.0 33:1.0 35:1.0 53:1.0 60:1.0 61:1.0 65:1.0 71:1.0 74:1.0 76:1.0 81:1.0 87:1.0 90:1.0 93:1.0 96:1.0 98:1.0 100:1.0 103:1.0 108:1.0 109:1.0 125:1.0 128:1.0 148:1.0 154:1.0 158:1.0 160:1.0 164:1.0 166:1.0 172:1.0 175:1.0 
0.0 1.0 2:1.0 8:1.0 11:1.0 13:1.0 17:1.0 20:1.0 26:1.0 29:1.0 33:1.0 36:1.0 38:1.0 42:1.0 45:1.0 47:1.0 53:1.0 56:1.0 62:1.0 65:1.0 70:1.0 75:1.0 78:1.0 79:1.0 82:1.0 85:1.0 89:1.0 92:1.0 94:1.0 99:1.0 101:1.0 107:1.0 111:1.0 117:1.0 120:1.0 123:1.0 125:1.0 128:1.0 132:1.0 135:1.0 138:1.0 139:1.0 142:1.0 146:1.0 150:1.0 153:1.0 156:1.0 159:1.0 162:1.0 163:1.0 168:1.0 169:1.0 174:1.0 175:1.0 178:1.0 
1.0 0.0 9:1.0 15:1.0 16:1.0 19:1.0 22:1.0 25:1.0 30:1.0 39:1.0 46:1.0 49:1.0 52:1.0 55:1.0 58:1.0 62:1.0 64:1.0 67:1.0 72:1.0 74:1.0 79:1.0 82:1.0 85:1.0 93:1.0 99:1.0 100:1.0 103:1.0 107:1.0 115:1.0 118:1.0 122:1.0 125:1.0 128:1.0 134:1.0 136:1.0 140:1.0 146:1.0 151:1.0 154:1.0 159:1.0 161:1.0 173:1.0 176:1.0 179:1.0 
0.0 0.5296641683500078 9:1.0 11:1.0 17:1.0 24:1.0 26:1.0 28:1.0 33:1.0 36:1.0 42:1.0 44:1.0 48:1.0 50:1.0 53:1.0 59:1.0 62:1.0 69:1.0 72:1.0 75:1.0 76:1.0 81:1.0 87:1.0 90:1.0 96:1.0 101:1.0 104:1.0 106:1.0 109:1.0 114:1.0 117:1.0 120:1.0 122:1.0 125:1.0 127:1.0 132:1.0 134:1.0 137:1.0 140:1.0 142:1.0 146:1.0 150:1.0 152:1.0 159:1.0 162:1.0 168:1.0 171:1.0 177:1.0 178:1.0 
1.0 0.0 6:1.0 7:1.0 12:1.0 13:1.0 18:1.0 19:1.0 27:1.0 28:1.0 31:1.0 36:1.0 37:1.0 44:1.0 47:1.0 49:1.0 54:1.0 65:1.0 67:1.0 77:1.0 83:1.0 86:1.0 91:1.0 95:1.0 97:1.0 105:1.0 109:1.0 114:1.0 116:1.0 126:1.0 128:1.0 131:1.0 133:1.0 138:1.0 140:1.0 145:1.0 152:1.0 155:1.0 158:1.0 162:1.0 163:1.0 167:1.0 173:1.0 175:1.0 
1.0 0.0 3:1.0 4:1.0 12:1.0 15:1.0 16:1.0 21:1.0 24:1.0 27:1.0 39:1.0 44:1.0 49:1.0 53:1.0 55:1.0 61:1.0 66:1.0 68:1.0 72:1.0 75:1.0 78:1.0 80:1.0 82:1.0 85:1.0 90:1.0 96:1.0 102:1.0 105:1.0 110:1.0 117:1.0 120:1.0 126:1.0 128:1.0 131:1.0 138:1.0 143:1.0 153:1.0 156:1.0 158:1.0 160:1.0 165:1.0 166:1.0 169:1.0 172:1.0 175:1.0 179:1.0 
0.0 0.566405737358026 2:1.0 5:1.0 8:1.0 18:1.0 20:1.0 23:1.0 25:1.0 29:1.0 32:1.0 35:1.0 38:1.0 41:1.0 45:1.0 46:1.0 49:1.0 54:1.0 55:1.0 59:1.0 61:1.0 64:1.0 69:1.0 72:1.0 73:1.0 78:1.0 80:1.0 82:1.0 85:1.0 90:1.0 92:1.0 95:1.0 98:1.0 100:1.0 103:1.0 107:1.0 109:1.0 114:1.0 115:1.0 123:1.0 124:1.0 127:1.0 134:1.0 136:1.0 139:1.0 142:1.0 145:1.0 148:1.0 153:1.0 154:1.0 158:1.0 170:1.0 177:1.0 178:1.0 
1.0 1.0 1:1.0 5:1.0 10:1.0 16:1.0 20:1.0 23:1.0 26:1.0 28:1.0 31:1.0 34:1.0 37:1.0 44:1.0 47:1.0 50:1.0 53:1.0 55:1.0 59:1.0 62:1.0 65:1.0 74:1.0 77:1.0 80:1.0 87:1.0 90:1.0 93:1.0 96:1.0 97:1.0 101:1.0 103:1.0 107:1.0 110:1.0 117:1.0 120:1.0 125:1.0 128:1.0 130:1.0 134:1.0 137:1.0 140:1.0 145:1.0 148:1.0 153:1.0 155:1.0 162:1.0 164:1.0 167:1.0 179:1.0 
0.0 1.0 2:1.0 9:1.0 14:1.0 20:1.0 22:1.0 26:1.0 29:1.0 36:1.0 42:1.0 44:1.0 47:1.0 56:1.0 62:1.0 65:1.0 68:1.0 73:1.0 77:1.0 84:1.0 85:1.0 88:1.0 92:1.0 94:1.0 98:1.0 100:1.0 104:1.0 108:1.0 110:1.0 112:1.0 116:1.0 120:1.0 123:1.0 126:1.0 127:1.0 135:1.0 138:1.0 141:1.0 143:1.0 146:1.0 153:1.0 156:1.0 159:1.0 162:1.0 165:1.0 168:1.0 169:1.0 173:1.0 176:1.0 179:1.0 
0.12771926327602035 0.0 1:1.0 6:1.0 9:1.0 12:1.0 15:1.0 16:1.0 20:1.0 23:1.0 26:1.0 28:1.0 33:1.0 36:1.0 37:1.0 41:1.0 45:1.0 50:1.0 53:1.0 56:1.0 59:1.0 61:1.0 66:1.0 72:1.0 74:1.0 77:1.0 81:1.0 88:1.0 93:1.0 95:1.0 99:1.0 102:1.0 104:1.0 116:1.0 118:1.0 123:1.0 126:1.0 129:1.0 132:1.0 135:1.0 137:1.0 140:1.0 143:1.0 147:1.0 150:1.0 151:1.0 156:1.0 158:1.0 162:1.0 164:1.0 167:1.0 173:1.0 177:1.0 180:1.0 
1.0 0.0 6:1.0 7:1.0 11:1.0 13:1.0 16:1.0 19:1.0 22:1.0 26:1.0 29:1.0 31:1.0 34:1.0 39:1.0 40:1.0 47:1.0 57:1.0 60:1.0 63:1.0 66:1.0 74:1.0 84:1.0 87:1.0 90:1.0 93:1.0 94:1.0 97:1.0 100:1.0 104:1.0 111:1.0 112:1.0 116:1.0 118:1.0 126:1.0 128:1.0 135:1.0 136:1.0 147:1.0 150:1.0 168:1.0 172:1.0 176:1.0 178:1.0 
1.0 1.0 1:1.0 4:1.0 11:1.0 14:1.0 26:1.0 38:1.0 40:1.0 45:1.0 47:1.0 54:1.0 57:1.0 58:1.0 63:1.0 69:1.0 74:1.0 77:1.0 83:1.0 85:1.0 90:1.0 93:1.0 94:1.0 99:1.0 101:1.0 104:1.0 106:1.0 111:1.0 113:1.0 116:1.0 119:1.0 122:1.0 124:1.0 128:1.0 131:1.0 134:1.0 142:1.0 147:1.0 148:1.0 151:1.0 154:1.0 157:1.0 162:1.0 163:1.0 171:1.0 
1.0 0.0 2:1.0 10:1.0 14:1.0 17:1.0 20:1.0 23:1.0 25:1.0 28:1.0 31:1.0 36:1.0 37:1.0 42:1.0 43:1.0 46:1.0 49:1.0 54:1.0 55:1.0 60:1.0 72:1.0 73:1.0 76:1.0 79:1.0 83:1.0 89:1.0 93:1.0 94:1.0 99:1.0 100:1.0 104:1.0 107:1.0 109:1.0 115:1.0 118:1.0 121:1.0 126:1.0 127:1.0 133:1.0 143:1.0 154:1.0 159:1.0 165:1.0 168:1.0 169:1.0 174:1.0 177:1.0 179:1.0 
0.0 1.0 3:1.0 4:1.0 8:1.0 15:1.0 18:1.0 20:1.0 23:1.0 25:1.0 33:1.0 36:1.0 39:1.0 40:1.0 45:1.0 47:1.0 49:1.0 53:1.0 55:1.0 60:1.0 62:1.0 71:1.0 74:1.0 81:1.0 83:1.0 85:1.0 89:1.0 94:1.0 98:1.0 104:1.0 107:1.0 121:1.0 126:1.0 129:1.0 131:1.0 134:1.0 141:1.0 142:1.0 150:1.0 153:1.0 155:1.0 158:1.0 164:1.0 171:1.0 174:1.0 175:1.0 178:1.0 
1.0 1.0 3:1.0 4:1.0 9:1.0 11:1.0 13:1.0 18:1.0 26:1.0 28:1.0 32:1.0 36:1.0 39:1.0 41:1.0 44:1.0 46:1.0 54:1.0 62:1.0 65:1.0 69:1.0 72:1.0 74:1.0 78:1.0 80:1.0 82:1.0 85:1.0 90:1.0 93:1.0 95:1.0 98:1.0 107:1.0 117:1.0 119:1.0 121:1.0 125:1.0 132:1.0 135:1.0 139:1.0 143:1.0 145:1.0 149:1.0 153:1.0 156:1.0 159:1.0 161:1.0 165:1.0 166:1.0 171:1.0 174:1.0 177:1.0 179:1.0 
1.0 0.2577135441502627 3:1.0 9:1.0 12:1.0 14:1.0 21:1.0 28:1.0 31:1.0 41:1.0 47:1.0 50:1.0 52:1.0 57:1.0 62:1.0 72:1.0 74:1.0 76:1.0 86:1.0 90:1.0 92:1.0 94:1.0 99:1.0 105:1.0 107:1.0 110:1.0 113:1.0 115:1.0 120:1.0 126:1.0 127:1.0 135:1.0 138:1.0 140:1.0 142:1.0 151:1.0 155:1.0 161:1.0 168:1.0 170:1.0 173:1.0 177:1.0 
1.0 1.0 4:1.0 9:1.0 12:1.0 17:1.0 20:1.0 26:1.0 29:1.0 36:1.0 38:1.0 44:1.0 50:1.0 53:1.0 55:1.0 61:1.0 68:1.0 74:1.0 78:1.0 80:1.0 83:1.0 85:1.0 90:1.0 96:1.0 99:1.0 102:1.0 105:1.0 117:1.0 118:1.0 124:1.0 129:1.0 130:1.0 135:1.0 136:1.0 139:1.0 143:1.0 149:1.0 151:1.0 156:1.0 157:1.0 160:1.0 165:1.0 167:1.0 171:1.0 177:1.0 180:1.0 
1.0 0.0 3:1.0 4:1.0 7:1.0 12:1.0 14:1.0 16:1.0 21:1.0 30:1.0 32:1.0 37:1.0 40:1.0 48:1.0 49:1.0 52:1.0 57:1.0 61:1.0 72:1.0 73:1.0 76:1.0 79:1.0 82:1.0 90:1.0 93:1.0 94:1.0 99:1.0 100:1.0 108:1.0 110:1.0 113:1.0 118:1.0 123:1.0 125:1.0 127:1.0 131:1.0 134:1.0 137:1.0 140:1.0 142:1.0 146:1.0 148:1.0 153:1.0 155:1.0 157:1.0 162:1.0 169:1.0 173:1.0 175:1.0 180:1.0 
0.25100983524380255 0.8512757085644286 2:1.0 6:1.0 8:1.0 10:1.0 14:1.0 16:1.0 20:1.0 24:1.0 27:1.0 30:1.0 33:1.0 36:1.0 39:1.0 41:1.0 43:1.0 47:1.0 49:1.0 54:1.0 56:1.0 60:1.0 62:1.0 65:1.0 71:1.0 74:1.0 77:1.0 83:1.0 87:1.0 89:1.0 93:1.0 94:1.0 99:1.0 101:1.0 104:1.0 108:1.0 111:1.0 117:1.0 119:1.0 123:1.0 124:1.0 127:1.0 130:1.0 135:1.0 138:1.0 141:1.0 144:1.0 146:1.0 149:1.0 153:1.0 155:1.0 158:1.0 165:1.0 167:1.0 171:1.0 174:1.0 180:1.0 
1.0 0.0 1:1.0 5:1.0 8:1.0 10:1.0 14:1.0 17:1.0 20:1.0 23:1.0 27:1.0 32:1.0 38:1.0 45:1.0 46:1.0 50:1.0 53:1.0 55:1.0 63:1.0 64:1.0 69:1.0 72:1.0 74:1.0 77:1.0 79:1.0 83:1.0 86:1.0 89:1.0 96:1.0 97:1.0 102:1.0 105:1.0 111:1.0 113:1.0 120:1.0 123:1.0 126:1.0 128:1.0 131:1.0 134:1.0 141:1.0 144:1.0 147:1.0 149:1.0 158:1.0 163:1.0 167:1.0 170:1.0 173:1.0 180:1.0 
1.0 1.0 3:1.0 6:1.0 9:1.0 12:1.0 21:1.0 24:1.0 27:1.0 30:1.0 35:1.0 42:1.0 44:1.0 49:1.0 54:1.0 57:1.0 60:1.0 62:1.0 68:1.0 75:1.0 77:1.0 80:1.0 82:1.0 85:1.0 93:1.0 99:1.0 102:1.0 104:1.0 107:1.0 110:1.0 113:1.0 115:1.0 120:1.0 121:1.0 129:1.0 132:1.0 133:1.0 137:1.0 143:1.0 146:1.0 149:1.0 151:1.0 156:1.0 158:1.0 161:1.0 164:1.0 167:1.0 174:1.0 177:1.0 
1.0 0.0 6:1.0 9:1.0 12:1.0 14:1.0 21:1.0 23:1.0 25:1.0 32:1.0 35:1.0 42:1.0 44:1.0 51:1.0 54:1.0 55:1.0 62:1.0 66:1.0 69:1.0 70:1.0 75:1.0 76:1.0 80:1.0 84:1.0 90:1.0 93:1.0 96:1.0 97:1.0 102:1.0 103:1.0 109:1.0 113:1.0 119:1.0 122:1.0 125:1.0 131:1.0 135:1.0 136:1.0 141:1.0 142:1.0 145:1.0 148:1.0 153:1.0 156:1.0 157:1.0 160:1.0 165:1.0 166:1.0 169:1.0 174:1.0 175:1.0 179:1.0 
0.0 1.0 5:1.0 7:1.0 10:1.0 14:1.0 16:1.0 22:1.0 30:1.0 32:1.0 36:1.0 37:1.0 42:1.0 45:1.0 57:1.0 63:1.0 65:1.0 67:1.0 72:1.0 73:1.0 77:1.0 81:1.0 83:1.0 85:1.0 89:1.0 91:1.0 96:1.0 97:1.0 101:1.0 104:1.0 107:1.0 113:1.0 120:1.0 123:1.0 126:1.0 129:1.0 130:1.0 135:1.0 139:1.0 145:1.0 153:1.0 165:1.0 166:1.0 169:1.0 
1.0 1.0 3:1.0 5:1.0 7:1.0 24:1.0 27:1.0 28:1.0 39:1.0 50:1.0 62:1.0 93:1.0 96:1.0 114:1.0 132:1.0 134:1.0 150:1.0 168:1.0 
1.0 1.0 3:1.0 4:1.0 8:1.0 13:1.0 16:1.0 20:1.0 24:1.0 25:1.0 29:1.0 31:1.0 35:1.0 37:1.0 43:1.0 47:1.0 49:1.0 57:1.0 58:1.0 61:1.0 64:1.0 76:1.0 81:1.0 83:1.0 90:1.0 93:1.0 100:1.0 103:1.0 107:1.0 111:1.0 114:1.0 120:1.0 122:1.0 125:1.0 127:1.0 132:1.0 133:1.0 136:1.0 141:1.0 142:1.0 147:1.0 152:1.0 154:1.0 158:1.0 165:1.0 168:1.0 169:1.0 173:1.0 175:1.0 178:1.0 
0.0 1.0 2:1.0 5:1.0 9:1.0 12:1.0 15:1.0 17:1.0 20:1.0 26:1.0 29:1.0 38:1.0 42:1.0 47:1.0 49:1.0 53:1.0 60:1.0 63:1.0 65:1.0 69:1.0 74:1.0 76:1.0 79:1.0 83:1.0 90:1.0 92:1.0 96:1.0 97:1.0 102:1.0 103:1.0 107:1.0 110:1.0 112:1.0 117:1.0 119:1.0 126:1.0 128:1.0 132:1.0 140:1.0 142:1.0 147:1.0 149:1.0 151:1.0 156:1.0 158:1.0 161:1.0 165:1.0 167:1.0 170:1.0 173:1.0 180:1.0 
1.0 1.0 3:1.0 4:1.0 7:1.0 11:1.0 15:1.0 16:1.0 20:1.0 22:1.0 25:1.0 31:1.0 36:1.0 38:1.0 49:1.0 53:1.0 56:1.0 59:1.0 65:1.0 67:1.0 72:1.0 75:1.0 77:1.0 79:1.0 85:1.0 90:1.0 93:1.0 95:1.0 98:1.0 105:1.0 108:1.0 111:1.0 117:1.0 119:1.0 126:1.0 129:1.0 131:1.0 138:1.0 140:1.0 143:1.0 146:1.0 148:1.0 153:1.0 154:1.0 158:1.0 161:1.0 164:1.0 167:1.0 173:1.0 180:1.0 
1.0 0.0 3:1.0 4:1.0 12:1.0 15:1.0 21:1.0 24:1.0 27:1.0 28:1.0 32:1.0 34:1.0 41:1.0 43:1.0 46:1.0 49:1.0 53:1.0 60:1.0 62:1.0 66:1.0 68:1.0 75:1.0 77:1.0 80:1.0 86:1.0 89:1.0 93:1.0 99:1.0 100:1.0 103:1.0 106:1.0 111:1.0 114:1.0 116:1.0 118:1.0 123:1.0 124:1.0 134:1.0 136:1.0 140:1.0 143:1.0 145:1.0 152:1.0 158:1.0 160:1.0 163:1.0 168:1.0 169:1.0 174:1.0 175:1.0 
1.0 0.4206114019682533 4:1.0 9:1.0 12:1.0 13:1.0 27:1.0 30:1.0 33:1.0 36:1.0 37:1.0 48:1.0 49:1.0 52:1.0 57:1.0 59:1.0 62:1.0 65:1.0 69:1.0 72:1.0 74:1.0 81:1.0 82:1.0 90:1.0 93:1.0 97:1.0 102:1.0 105:1.0 107:1.0 109:1.0 114:1.0 115:1.0 118:1.0 122:1.0 132:1.0 135:1.0 136:1.0 141:1.0 142:1.0 146:1.0 148:1.0 151:1.0 159:1.0 165:1.0 166:1.0 171:1.0 172:1.0 175:1.0 180:1.0 
0.0 0.8569875219193361 7:1.0 10:1.0 15:1.0 21:1.0 23:1.0 28:1.0 33:1.0 42:1.0 48:1.0 49:1.0 64:1.0 70:1.0 74:1.0 76:1.0 82:1.0 85:1.0 88:1.0 93:1.0 96:1.0 98:1.0 101:1.0 103:1.0 108:1.0 109:1.0 112:1.0 117:1.0 119:1.0 126:1.0 131:1.0 138:1.0 139:1.0 144:1.0 147:1.0 149:1.0 151:1.0 154:1.0 161:1.0 163:1.0 171:1.0 172:1.0 
1.0 0.0 4:1.0 10:1.0 16:1.0 23:1.0 26:1.0 28:1.0 32:1.0 34:1.0 42:1.0 48:1.0 50:1.0 56:1.0 58:1.0 63:1.0 67:1.0 71:1.0 74:1.0 76:1.0 81:1.0 84:1.0 90:1.0 93:1.0 96:1.0 97:1.0 102:1.0 111:1.0 112:1.0 126:1.0 131:1.0 140:1.0 146:1.0 148:1.0 152:1.0 159:1.0 167:1.0 173:1.0 
1.0 0.03598485515526056 2:1.0 8:1.0 15:1.0 17:1.0 20:1.0 27:1.0 33:1.0 35:1.0 37:1.0 41:1.0 45:1.0 48:1.0 50:1.0 53:1.0 55:1.0 60:1.0 62:1.0 69:1.0 71:1.0 73:1.0 80:1.0 85:1.0 89:1.0 95:1.0 97:1.0 102:1.0 105:1.0 107:1.0 110:1.0 113:1.0 116:1.0 118:1.0 121:1.0 126:1.0 129:1.0 132:1.0 135:1.0 146:1.0 153:1.0 164:1.0 169:1.0 179:1.0 
1.0 1.0 1:1.0 5:1.0 14:1.0 21:1.0 23:1.0 29:1.0 31:1.0 36:1.0 39:1.0 45:1.0 48:1.0 49:1.0 52:1.0 63:1.0 64:1.0 67:1.0 71:1.0 73:1.0 76:1.0 81:1.0 82:1.0 85:1.0 90:1.0 92:1.0 96:1.0 99:1.0 102:1.0 103:1.0 108:1.0 111:1.0 113:1.0 120:1.0 121:1.0 126:1.0 137:1.0 139:1.0 144:1.0 145:1.0 148:1.0 151:1.0 155:1.0 162:1.0 164:1.0 168:1.0 170:1.0 172:1.0 177:1.0 180:1.0 
0.0 1.0 3:1.0 6:1.0 9:1.0 10:1.0 14:1.0 16:1.0 21:1.0 24:1.0 25:1.0 29:1.0 35:1.0 38:1.0 45:1.0 48:1.0 51:1.0 56:1.0 63:1.0 64:1.0 69:1.0 72:1.0 75:1.0 76:1.0 81:1.0 84:1.0 85:1.0 90:1.0 93:1.0 96:1.0 98:1.0 101:1.0 103:1.0 106:1.0 111:1.0 114:1.0 115:1.0 118:1.0 122:1.0 125:1.0 127:1.0 132:1.0 135:1.0 141:1.0 144:1.0 147:1.0 150:1.0 155:1.0 158:1.0 160:1.0 165:1.0 167:1.0 170:1.0 173:1.0 175:1.0 179:1.0 
1.0 0.0 2:1.0 5:1.0 12:1.0 13:1.0 17:1.0 19:1.0 24:1.0 26:1.0 28:1.0 35:1.0 37:1.0 41:1.0 43:1.0 51:1.0 54:1.0 55:1.0 58:1.0 63:1.0 65:1.0 68:1.0 70:1.0 76:1.0 84:1.0 85:1.0 93:1.0 95:1.0 97:1.0 102:1.0 104:1.0 107:1.0 111:1.0 112:1.0 116:1.0 119:1.0 126:1.0 129:1.0 130:1.0 134:1.0 137:1.0 140:1.0 143:1.0 145:1.0 149:1.0 152:1.0 156:1.0 157:1.0 162:1.0 163:1.0 166:1.0 170:1.0 173:1.0 176:1.0 179:1.0 
0.0 1.0 3:1.0 8:1.0 10:1.0 13:1.0 18:1.0 19:1.0 25:1.0 28:1.0 31:1.0 35:1.0 37:1.0 40:1.0 47:1.0 49:1.0 54:1.0 56:1.0 64:1.0 68:1.0 71:1.0 74:1.0 81:1.0 84:1.0 85:1.0 91:1.0 96:1.0 98:1.0 100:1.0 103:1.0 107:1.0 109:1.0 113:1.0 118:1.0 121:1.0 124:1.0 130:1.0 134:1.0 143:1.0 146:1.0 148:1.0 152:1.0 154:1.0 157:1.0 160:1.0 171:1.0 172:1.0 175:1.0 179:1.0 
0.0 0.37191438233890506 2:1.0 5:1.0 7:1.0 12:1.0 14:1.0 21:1.0 22:1.0 26:1.0 33:1.0 38:1.0 43:1.0 47:1.0 54:1.0 59:1.0 61:1.0 65:1.0 68:1.0 76:1.0 89:1.0 94:1.0 98:1.0 101:1.0 107:1.0 109:1.0 114:1.0 115:1.0 122:1.0 124:1.0 128:1.0 131:1.0 140:1.0 145:1.0 149:1.0 153:1.0 154:1.0 159:1.0 162:1.0 163:1.0 167:1.0 170:1.0 174:1.0 175:1.0 180:1.0 
1.0 1.0 2:1.0 5:1.0 7:1.0 10:1.0 14:1.0 19:1.0 24:1.0 39:1.0 40:1.0 55:1.0 59:1.0 61:1.0 69:1.0 71:1.0 77:1.0 79:1.0 85:1.0 90:1.0 93:1.0 95:1.0 102:1.0 103:1.0 106:1.0 111:1.0 114:1.0 117:1.0 118:1.0 122:1.0 132:1.0 134:1.0 137:1.0 147:1.0 152:1.0 158:1.0 160:1.0 165:1.0 166:1.0 174:1.0 175:1.0 180:1.0 
1.0 0.839302868254801 10:1.0 14:1.0 16:1.0 20:1.0 23:1.0 30:1.0 32:1.0 35:1.0 37:1.0 40:1.0 45:1.0 51:1.0 54:1.0 55:1.0 60:1.0 62:1.0 64:1.0 68:1.0 71:1.0 74:1.0 76:1.0 79:1.0 84:1.0 86:1.0 90:1.0 96:1.0 97:1.0 101:1.0 105:1.0 106:1.0 111:1.0 113:1.0 116:1.0 119:1.0 125:1.0 131:1.0 133:1.0 137:1.0 139:1.0 144:1.0 150:1.0 153:1.0 154:1.0 157:1.0 165:1.0 168:1.0 169:1.0 174:1.0 175:1.0 180:1.0 
0.5978392573121086 1.0 3:1.0 4:1.0 9:1.0 12:1.0 18:1.0 21:1.0 24:1.0 26:1.0 30:1.0 33:1.0 35:1.0 37:1.0 42:1.0 44:1.0 48:1.0 53:1.0 57:1.0 59:1.0 62:1.0 66:1.0 69:1.0 71:1.0 80:1.0 83:1.0 85:1.0 90:1.0 91:1.0 95:1.0 97:1.0 101:1.0 104:1.0 106:1.0 109:1.0 117:1.0 120:1.0 123:1.0 124:1.0 127:1.0 134:1.0 137:1.0 140:1.0 142:1.0 145:1.0 153:1.0 156:1.0 159:1.0 162:1.0 163:1.0 166:1.0 171:1.0 176:1.0 180:1.0 
0.0 1.0 3:1.0 6:1.0 7:1.0 15:1.0 18:1.0 19:1.0 22:1.0 25:1.0 29:1.0 33:1.0 36:1.0 38:1.0 49:1.0 53:1.0 56:1.0 60:1.0 63:1.0 66:1.0 67:1.0 72:1.0 79:1.0 83:1.0 85:1.0 89:1.0 91:1.0 96:1.0 99:1.0 102:1.0 105:1.0 107:1.0 110:1.0 114:1.0 117:1.0 119:1.0 122:1.0 126:1.0 129:1.0 131:1.0 135:1.0 138:1.0 141:1.0 144:1.0 147:1.0 149:1.0 153:1.0 154:1.0 157:1.0 162:1.0 165:1.0 166:1.0 170:1.0 176:1.0 180:1.0 
0.0 1.0 1:1.0 5:1.0 7:1.0 11:1.0 14:1.0 16:1.0 20:1.0 22:1.0 26:1.0 32:1.0 36:1.0 38:1.0 40:1.0 46:1.0 51:1.0 56:1.0 60:1.0 63:1.0 64:1.0 68:1.0 71:1.0 74:1.0 77:1.0 79:1.0 84:1.0 85:1.0 88:1.0 94:1.0 98:1.0 103:1.0 107:1.0 110:1.0 113:1.0 115:1.0 118:1.0 121:1.0 129:1.0 131:1.0 138:1.0 141:1.0 143:1.0 153:1.0 154:1.0 161:1.0 163:1.0 171:1.0 172:1.0 175:1.0 179:1.0 
0.08271388683039085 0.0 4:1.0 9:1.0 10:1.0 18:1.0 21:1.0 26:1.0 29:1.0 36:1.0 37:1.0 42:1.0 45:1.0 46:1.0 49:1.0 52:1.0 55:1.0 60:1.0 70:1.0 76:1.0 81:1.0 83:1.0 93:1.0 98:1.0 103:1.0 116:1.0 122:1.0 128:1.0 134:1.0 139:1.0 142:1.0 146:1.0 148:1.0 154:1.0 159:1.0 168:1.0 173:1.0 175:1.0 180:1.0 
0.08671706104477682 1.0 1:1.0 4:1.0 9:1.0 10:1.0 13:1.0 21:1.0 23:1.0 31:1.0 35:1.0 37:1.0 40:1.0 46:1.0 49:1.0 52:1.0 56:1.0 62:1.0 68:1.0 71:1.0 77:1.0 80:1.0 82:1.0 87:1.0 90:1.0 93:1.0 98:1.0 107:1.0 110:1.0 117:1.0 120:1.0 121:1.0 128:1.0 130:1.0 134:1.0 136:1.0 139:1.0 143:1.0 147:1.0 149:1.0 152:1.0 155:1.0 161:1.0 164:1.0 167:1.0 170:1.0 174:1.0 175:1.0 179:1.0 
1.0 1.0 1:1.0 6:1.0 9:1.0 10:1.0 15:1.0 16:1.0 21:1.0 22:1.0 25:1.0 28:1.0 37:1.0 40:1.0 43:1.0 46:1.0 58:1.0 67:1.0 82:1.0 85:1.0 90:1.0 93:1.0 101:1.0 109:1.0 112:1.0 118:1.0 124:1.0 128:1.0 130:1.0 133:1.0 136:1.0 140:1.0 145:1.0 150:1.0 154:1.0 160:1.0 169:1.0 176:1.0 178:1.0 
1.0 0.05856438932279766 1:1.0 6:1.0 8:1.0 17:1.0 23:1.0 26:1.0 28:1.0 36:1.0 38:1.0 40:1.0 44:1.0 46:1.0 51:1.0 54:1.0 56:1.0 60:1.0 61:1.0 66:1.0 69:1.0 75:1.0 76:1.0 81:1.0 83:1.0 85:1.0 88:1.0 93:1.0 96:1.0 98:1.0 102:1.0 105:1.0 108:1.0 114:1.0 117:1.0 120:1.0 123:1.0 126:1.0 127:1.0 132:1.0 135:1.0 138:1.0 141:1.0 142:1.0 147:1.0 151:1.0 156:1.0 159:1.0 162:1.0 167:1.0 170:1.0 173:1.0 180:1.0 
0.0 1.0 2:1.0 9:1.0 15:1.0 23:1.0 25:1.0 29:1.0 32:1.0 34:1.0 38:1.0 40:1.0 47:1.0 49:1.0 52:1.0 57:1.0 59:1.0 63:1.0 65:1.0 68:1.0 72:1.0 75:1.0 78:1.0 79:1.0 83:1.0 85:1.0 92:1.0 96:1.0 102:1.0 104:1.0 110:1.0 112:1.0 115:1.0 120:1.0 126:1.0 129:1.0 132:1.0 133:1.0 138:1.0 140:1.0 147:1.0 150:1.0 153:1.0 156:1.0 159:1.0 160:1.0 165:1.0 168:1.0 171:1.0 173:1.0 177:1.0 179:1.0 
0.0 1.0 1:1.0 6:1.0 8:1.0 17:1.0 19:1.0 29:1.0 32:1.0 39:1.0 41:1.0 44:1.0 50:1.0 60:1.0 65:1.0 72:1.0 75:1.0 77:1.0 83:1.0 85:1.0 90:1.0 92:1.0 94:1.0 98:1.0 100:1.0 106:1.0 117:1.0 120:1.0 125:1.0 127:1.0 133:1.0 136:1.0 139:1.0 142:1.0 146:1.0 148:1.0 154:1.0 164:1.0 171:1.0 174:1.0 
1.0 0.0 6:1.0 7:1.0 15:1.0 17:1.0 21:1.0 24:1.0 27:1.0 30:1.0 31:1.0 35:1.0 42:1.0 45:1.0 46:1.0 51:1.0 60:1.0 62:1.0 68:1.0 70:1.0 82:1.0 86:1.0 97:1.0 100:1.0 104:1.0 106:1.0 109:1.0 113:1.0 115:1.0 118:1.0 122:1.0 126:1.0 134:1.0 137:1.0 141:1.0 142:1.0 148:1.0 153:1.0 154:1.0 162:1.0 163:1.0 173:1.0 175:1.0 180:1.0 
1.0 1.0 7:1.0 11:1.0 14:1.0 16:1.0 19:1.0 23:1.0 28:1.0 48:1.0 53:1.0 55:1.0 61:1.0 71:1.0 80:1.0 82:1.0 85:1.0 88:1.0 93:1.0 94:1.0 97:1.0 102:1.0 105:1.0 106:1.0 109:1.0 112:1.0 115:1.0 118:1.0 121:1.0 129:1.0 140:1.0 147:1.0 149:1.0 151:1.0 159:1.0 165:1.0 166:1.0 169:1.0 172:1.0 177:1.0 180:1.0 
1.0 0.8649028435824159 2:1.0 6:1.0 7:1.0 11:1.0 15:1.0 17:1.0 19:1.0 24:1.0 25:1.0 29:1.0 32:1.0 35:1.0 38:1.0 40:1.0 47:1.0 50:1.0 53:1.0 55:1.0 59:1.0 66:1.0 69:1.0 72:1.0 75:1.0 76:1.0 80:1.0 87:1.0 90:1.0 93:1.0 95:1.0 98:1.0 100:1.0 105:1.0 106:1.0 110:1.0 112:1.0 117:1.0 119:1.0 122:1.0 129:1.0 135:1.0 136:1.0 141:1.0 144:1.0 146:1.0 148:1.0 153:1.0 158:1.0 160:1.0 165:1.0 167:1.0 174:1.0 177:1.0 
1.0 1.0 3:1.0 4:1.0 8:1.0 10:1.0 14:1.0 18:1.0 20:1.0 27:1.0 29:1.0 36:1.0 39:1.0 42:1.0 44:1.0 47:1.0 51:1.0 53:1.0 55:1.0 63:1.0 65:1.0 72:1.0 74:1.0 77:1.0 80:1.0 83:1.0 85:1.0 90:1.0 92:1.0 99:1.0 102:1.0 107:1.0 114:1.0 116:1.0 119:1.0 123:1.0 125:1.0 128:1.0 134:1.0 138:1.0 143:1.0 146:1.0 152:1.0 155:1.0 159:1.0 162:1.0 168:1.0 170:1.0 176:1.0 179:1.0 
0.0 1.0 1:1.0 5:1.0 8:1.0 15:1.0 18:1.0 23:1.0 26:1.0 32:1.0 35:1.0 42:1.0 45:1.0 47:1.0 50:1.0 53:1.0 56:1.0 59:1.0 62:1.0 69:1.0 72:1.0 77:1.0 83:1.0 87:1.0 90:1.0 96:1.0 99:1.0 102:1.0 103:1.0 106:1.0 110:1.0 123:1.0 125:1.0 132:1.0 134:1.0 140:1.0 142:1.0 147:1.0 151:1.0 159:1.0 160:1.0 168:1.0 171:1.0 172:1.0 175:1.0 178:1.0 
0.9681039634416503 0.0 2:1.0 5:1.0 8:1.0 13:1.0 27:1.0 33:1.0 35:1.0 37:1.0 42:1.0 53:1.0 56:1.0 58:1.0 63:1.0 72:1.0 75:1.0 76:1.0 81:1.0 82:1.0 95:1.0 97:1.0 100:1.0 107:1.0 109:1.0 113:1.0 126:1.0 127:1.0 132:1.0 133:1.0 137:1.0 140:1.0 142:1.0 145:1.0 148:1.0 156:1.0 160:1.0 164:1.0 166:1.0 169:1.0 172:1.0 175:1.0 180:1.0 
1.0 0.0 6:1.0 20:1.0 25:1.0 30:1.0 33:1.0 34:1.0 37:1.0 42:1.0 43:1.0 51:1.0 57:1.0 60:1.0 61:1.0 65:1.0 67:1.0 70:1.0 75:1.0 78:1.0 80:1.0 82:1.0 87:1.0 93:1.0 94:1.0 97:1.0 102:1.0 105:1.0 107:1.0 110:1.0 114:1.0 116:1.0 119:1.0 122:1.0 126:1.0 129:1.0 132:1.0 134:1.0 137:1.0 141:1.0 143:1.0 146:1.0 155:1.0 158:1.0 160:1.0 165:1.0 167:1.0 174:1.0 177:1.0 180:1.0 
1.0 0.0 1:1.0 5:1.0 8:1.0 10:1.0 13:1.0 18:1.0 21:1.0 23:1.0 30:1.0 35:1.0 37:1.0 41:1.0 44:1.0 46:1.0 50:1.0 52:1.0 62:1.0 64:1.0 68:1.0 71:1.0 73:1.0 80:1.0 82:1.0 86:1.0 93:1.0 99:1.0 101:1.0 105:1.0 110:1.0 113:1.0 116:1.0 118:1.0 121:1.0 126:1.0 127:1.0 130:1.0 134:1.0 138:1.0 140:1.0 142:1.0 147:1.0 149:1.0 152:1.0 155:1.0 162:1.0 165:1.0 168:1.0 173:1.0 176:1.0 179:1.0 
1.0 1.0 1:1.0 5:1.0 7:1.0 10:1.0 13:1.0 16:1.0 23:1.0 25:1.0 28:1.0 33:1.0 34:1.0 39:1.0 42:1.0 47:1.0 49:1.0 53:1.0 58:1.0 61:1.0 72:1.0 73:1.0 79:1.0 85:1.0 92:1.0 97:1.0 114:1.0 115:1.0 120:1.0 129:1.0 131:1.0 134:1.0 147:1.0 148:1.0 153:1.0 154:1.0 158:1.0 167:1.0 170:1.0 172:1.0 176:1.0 180:1.0 
1.0 0.0 1:1.0 4:1.0 8:1.0 14:1.0 16:1.0 19:1.0 22:1.0 26:1.0 28:1.0 33:1.0 34:1.0 37:1.0 42:1.0 45:1.0 51:1.0 56:1.0 63:1.0 70:1.0 73:1.0 81:1.0 82:1.0 87:1.0 88:1.0 93:1.0 94:1.0 99:1.0 105:1.0 106:1.0 114:1.0 116:1.0 119:1.0 122:1.0 124:1.0 131:1.0 138:1.0 140:1.0 143:1.0 148:1.0 152:1.0 155:1.0 157:1.0 164:1.0 167:1.0 169:1.0 172:1.0 177:1.0 180:1.0 
1.0 1.0 3:1.0 6:1.0 8:1.0 11:1.0 15:1.0 17:1.0 20:1.0 23:1.0 30:1.0 34:1.0 38:1.0 41:1.0 44:1.0 50:1.0 62:1.0 64:1.0 68:1.0 71:1.0 83:1.0 86:1.0 89:1.0 94:1.0 97:1.0 100:1.0 105:1.0 106:1.0 110:1.0 113:1.0 116:1.0 121:1.0 124:1.0 127:1.0 134:1.0 141:1.0 142:1.0 147:1.0 150:1.0 151:1.0 154:1.0 161:1.0 163:1.0 166:1.0 170:1.0 172:1.0 177:1.0 180:1.0 
0.9438982063217516 1.0 1:1.0 6:1.0 9:1.0 12:1.0 20:1.0 22:1.0 25:1.0 30:1.0 33:1.0 36:1.0 38:1.0 40:1.0 48:1.0 51:1.0 54:1.0 57:1.0 62:1.0 65:1.0 68:1.0 72:1.0 74:1.0 76:1.0 81:1.0 83:1.0 90:1.0 96:1.0 99:1.0 101:1.0 108:1.0 111:1.0 114:1.0 117:1.0 119:1.0 121:1.0 126:1.0 127:1.0 132:1.0 134:1.0 141:1.0 144:1.0 147:1.0 150:1.0 152:1.0 159:1.0 162:1.0 167:1.0 170:1.0 173:1.0 179:1.0 
1.0 0.0 10:1.0 15:1.0 31:1.0 43:1.0 46:1.0 52:1.0 62:1.0 67:1.0 73:1.0 77:1.0 87:1.0 88:1.0 93:1.0 99:1.0 100:1.0 103:1.0 106:1.0 111:1.0 115:1.0 118:1.0 136:1.0 139:1.0 147:1.0 153:1.0 167:1.0 170:1.0 173:1.0 176:1.0 178:1.0 
1.0 1.0 1:1.0 4:1.0 7:1.0 11:1.0 18:1.0 21:1.0 24:1.0 27:1.0 29:1.0 32:1.0 39:1.0 40:1.0 45:1.0 46:1.0 50:1.0 54:1.0 56:1.0 59:1.0 62:1.0 65:1.0 72:1.0 75:1.0 77:1.0 80:1.0 82:1.0 90:1.0 93:1.0 94:1.0 98:1.0 101:1.0 105:1.0 107:1.0 116:1.0 119:1.0 122:1.0 124:1.0 130:1.0 134:1.0 137:1.0 144:1.0 147:1.0 149:1.0 155:1.0 162:1.0 167:1.0 170:1.0 172:1.0 175:1.0 180:1.0 
1.0 0.0 2:1.0 5:1.0 7:1.0 10:1.0 14:1.0 18:1.0 20:1.0 23:1.0 25:1.0 29:1.0 32:1.0 34:1.0 39:1.0 41:1.0 44:1.0 46:1.0 54:1.0 57:1.0 60:1.0 61:1.0 66:1.0 72:1.0 78:1.0 80:1.0 86:1.0 88:1.0 93:1.0 96:1.0 97:1.0 102:1.0 107:1.0 111:1.0 113:1.0 117:1.0 120:1.0 123:1.0 126:1.0 128:1.0 130:1.0 135:1.0 136:1.0 140:1.0 144:1.0 150:1.0 151:1.0 155:1.0 157:1.0 164:1.0 171:1.0 176:1.0 179:1.0 
0.7753788088486456 0.0 3:1.0 5:1.0 11:1.0 17:1.0 20:1.0 23:1.0 30:1.0 32:1.0 41:1.0 43:1.0 48:1.0 51:1.0 52:1.0 57:1.0 59:1.0 63:1.0 66:1.0 75:1.0 78:1.0 81:1.0 84:1.0 87:1.0 89:1.0 92:1.0 99:1.0 105:1.0 108:1.0 110:1.0 113:1.0 120:1.0 123:1.0 124:1.0 129:1.0 132:1.0 133:1.0 138:1.0 141:1.0 142:1.0 147:1.0 150:1.0 152:1.0 154:1.0 158:1.0 161:1.0 163:1.0 168:1.0 170:1.0 180:1.0 
0.6631642895166268 1.0 2:1.0 5:1.0 11:1.0 16:1.0 23:1.0 26:1.0 30:1.0 34:1.0 43:1.0 48:1.0 51:1.0 56:1.0 69:1.0 70:1.0 75:1.0 76:1.0 81:1.0 83:1.0 90:1.0 93:1.0 94:1.0 102:1.0 104:1.0 106:1.0 110:1.0 113:1.0 115:1.0 126:1.0 129:1.0 131:1.0 137:1.0 140:1.0 147:1.0 159:1.0 160:1.0 163:1.0 166:1.0 174:1.0 175:1.0 180:1.0 
