svm_type c_svc
kernel_type sigmoid
gamma 0.0625
coef0 0.0
nr_class 26
total_sv 12913
rho -0.13170679676821617 0.7882983906710667 0.8250950640998813 -0.14996366373946463 0.37036887257088347 0.5286586686441184 0.35340652695963876 1.0368593777283723 0.27291990001336625 -0.3282740077046214 0.5682275803186281 0.8292032035782666 0.48784913679534475 0.7348559555258568 -0.8160553804013194 0.6974877100620903 0.003349372887998208 -1.8046691642315613 0.25734064542628843 0.5164424668996522 0.6433483643653384 -0.027137386447913033 0.4618981860494981 1.1900612448603873 -0.7930969406181103 0.6387943293187252 1.4123470760925614 0.0672055480356581 0.4610538360322377 0.9424760802203954 0.22184510377914637 1.3415585885205974 -0.7290184776618214 -0.5159672553760993 0.39490970206157217 0.534815223764253 1.0764741234555386 0.321219920346099 0.04620776237331576 0.16320005007465388 0.15306180696867766 -1.1426545407347872 -0.11461519692176993 0.41652422281160023 0.213886336978436 0.043709329070879 0.5825366425502672 1.1848777216175128 -0.3247976249701671 1.3673747363272948 -0.9252027924390198 0.38564333563140735 0.8284544673758031 0.1252307887304923 1.2797971349296828 0.014431546219739931 -0.43707729971688547 0.5388161896478073 0.4666489407914608 0.8171497005277928 0.5795761881241354 -0.8784716215706907 0.4909568405837789 -0.05583258745941364 -2.8462318020185426 0.1496774837254426 0.7881388909738912 0.17492011839298288 -0.23148800019529583 0.6212330719134506 1.8828134296052699 -1.6982901549599316 -1.5211822355410882 -1.3723377622355057 -0.8836599193215353 -0.9265660857842034 -0.5537863376073245 -1.5352039659954964 -2.165713133718822 -1.3708570004852487 -0.6421088050698993 -0.29242005748237815 -0.8434474932700675 -1.7330868694569896 -2.158839466462254 -1.1077971545039418 -3.1198880281074586 -1.4353429341761739 -0.4469543986186228 -1.1079462211669104 -1.0612152378544535 -0.8116075516165857 -0.29371869040775284 -2.27218828588393 0.5995495945291827 0.8404006987991205 0.4924398440840774 1.1834906984927995 -0.20175898193279534 -0.1267111146894998 0.5917021655980109 0.7171210093692932 0.8520298839261493 0.42122520776652284 0.08641493791347621 0.38035389281592347 -0.05852852450820705 -1.6051222946856392 0.10234845053844825 1.1135889266198713 0.4742427441736506 0.30688581459769676 0.8392513575702882 1.3082358460616363 -0.4875923959131798 0.44265702295052806 0.21135592492542957 0.7345654429266457 -0.7593268994723498 -1.4754435512741846 0.36753526234151696 0.1400338852599754 0.8561646472577588 0.027227388428902616 -0.6412935476794925 -0.29778012521656255 -0.6916790864505139 -1.372140930685363 -1.3550381343669702 1.041616248634598 -0.4057242898443639 -0.02308768589771674 0.36818149644564474 0.3874276361704465 -0.5957751478358022 -0.5327801051826405 0.5114029368384331 -0.8283248078773141 -2.0883621119100177 -0.8162736463703476 -0.1882382893800931 0.07527757724060409 -0.32343313726566664 -1.4624037606522002 -1.1709873804099395 -0.31272955634709104 -2.2697372715857993 -0.4306370171071318 -0.04893528193720392 -0.26313686244074336 -0.6993417196569058 -0.1038086558435699 0.8115505274332969 -1.3855606739826711 0.3889425555032903 -0.6556677676656196 -1.044510339326802 0.23473479667098926 0.221239890159704 0.3653883068864021 0.056527192704862665 -0.38268758330204933 -0.35956310451468043 -0.4707705395367621 -0.8674844096230824 -1.8702171470096394 -0.09534250961340285 -0.15730566376179214 -0.46021855803627093 0.39043416771490264 0.510862734176875 -0.4239679914370653 -0.6382355641766578 -1.7097734746116662 -0.5409301353574443 -0.557084212814469 -0.27136091954129976 -0.48825049691179695 -1.6555735645937422 -1.4380229853144033 -0.7726598140130194 -2.6269850171832982 -0.381479525945605 -0.16756409488477733 -0.8317139606360234 -0.8179776563094299 -0.4905137180180392 0.1984547351926905 -2.339730126003918 -0.20869194792295873 0.6826996741386263 0.7062067458996837 0.875388413387536 0.44515006178783967 0.028107977934728634 0.17993205381466265 -0.6923818816902249 -0.7084157676666359 -0.5124311898983988 1.5495748703694427 0.39322590002976754 0.166380654130744 0.8708893209903191 0.9690869921767357 -0.06728873079232668 1.3992614665502843 0.4980239058437197 1.7215541816878868 1.70931296500943 0.5181745688481924 1.0871207071087796 0.6303588527176118 -0.0315322841908936 0.34204670948111027 1.340455824664845 0.40590061726045584 0.37049879972219546 1.454823909569427 1.4692463683932326 0.6331296971760966 0.3007831800374035 1.1171477807390062 0.31958401458237967 -2.0991611644618744 -0.4647429029844785 -0.5603871267001089 -2.0768767694957084 -0.49621608530975003 0.9692662972328258 -0.3000173135260669 -0.45396617611218837 1.021179579277552 0.7844986935024071 -0.9685548597976551 0.34425593420048567 -0.007072722674872946 -1.7011762300463815 -0.6125067052040297 -0.604396496071385 -2.8942986560651525 -0.17822574837475336 0.15741676197276178 -0.3882792070474808 -0.9926770119375846 0.31284129940888 0.8789081813581202 -1.4166696333129634 -0.5050080623840726 -1.262213620566702 -1.4998454069544818 -0.7025723539967882 -2.5479023405615 -0.47843596863805704 -0.36459413930424 -0.5757526937583579 -1.1658486010059097 -0.5100152891029924 0.12814203233657448 -1.459182025791304 -1.6718238757893853 -1.1101057645652541 -0.2980439497825028 -2.359015654746626 -0.21347805465780567 0.14946497166491263 0.0010947516551642893 -0.5968720112904888 0.13002299884254312 0.7836201231510808 -1.8831225120113717 1.4215313207623999 0.16240112389980818 -0.7624806559915954 0.1998761988726875 0.9394535655235108 0.6920673454806971 0.6489409412078376 1.8500665241964025 1.4413664984630947 0.13145794689504492 -0.6395119066849295 -3.7603309538894227 -0.09140279125581044 1.2229212710703263 -0.42220944192348114 0.11517222738296547 1.0888602787821138 1.4070572429855204 -1.5025613803448292 -0.8331368349692451 -0.07059257313002137 1.3264053629374952 1.1458533152351333 0.19020500122340284 0.48094018785144954 0.6091390317471204 -0.06125341418859541 0.3389963521263465 1.9330179356999566 1.5999789728262526 1.460142698912028 2.4108493112767047 2.491486720790404 1.267901580360905 0.7879358913879003 0.31695011189236016 -0.07655678868836438 0.5587649855522772 0.5491227204790118 -0.05481845554146908 -0.8271388410888257 -1.077907411329877 0.0012916373210282728 0.2218396905031151 -0.7872328910110244 -0.44740031000875674 0.2459960044900278 0.42491639164939166 -0.5997798482005258 0.9008263981478385 0.9531953091527114 -0.5627964640382842 0.7277986592377851 -0.9826649682997273 -1.7799071567331317
label 26 16 19 8 6 14 18 13 4 22 1 11 5 15 17 12 24 25 9 23 21 20 3 7 2 10
nr_sv 413 427 559 538 503 565 503 428 534 525 359 560 546 574 523 356 579 578 437 395 460 514 453 547 548 489
SV
0.0 1.0 0.0 0.0 0.0 0.0 0.0 1.0 0.0 0.0 0.0 1.0 0.0 0.0 0.0 1.0 1.0 1.0 0.0 0.0 1.0 0.0 0.0 0.0 1.0 1:-0.733333 2:-0.466667 3:-0.466667 4:-0.6 5:-0.733333 6:-0.0666667 7:0.0666667 8:-0.733333 9:0.2 10:0.466667 11:-0.0666667 12:-0.0666667 13:-0.866667 14:0.0666667 15:-0.333333 16:-0.2 
0.0 1.0 1.0 0.0 0.0 0.0 0.0 1.0 0.0 0.0 0.0 0.548059636887117 0.0 0.0 0.0 1.0 1.0 1.0 0.0 0.0 1.0 0.0 0.0 0.0 1.0 1:-0.733333 2:-0.466667 3:-0.333333 4:-0.6 5:-0.733333 6:-0.0666667 7:0.0666667 8:-0.733333 9:0.2 10:0.466667 11:-0.0666667 12:-0.0666667 13:-0.866667 14:0.0666667 15:-0.333333 16:-0.2 
1.0 1.0 1.0 1.0 0.0 1.0 0.0 1.0 0.7181058436978357 1.0 0.0 1.0 0.0 1.0 0.0 0.0 0.0 0.0 0.0 0.0 0.0 1.0 1.0 1.0 1.0 1:-0.466667 2:0.0666667 3:-0.333333 4:-0.2 5:-0.466667 6:0.2 7:0.2 8:-0.2 9:-0.466667 10:-0.0666667 11:-0.333333 12:0.0666667 13:-0.6 14:0.0666667 15:0.333333 16:-0.0666667 
0.0 1.0 0.0 0.0 0.0 0.0 0.0 0.0 0.0 0.0 0.0 1.0 0.0 0.0 0.0 1.0 0.0 1.0 0.0 0.0 0.0 0.0 0.0 0.0 1.0 1:-0.866667 2:-0.6 3:-0.6 4:-0.733333 5:-0.866667 6:-0.0666667 7:0.0666667 8:-0.733333 9:0.2 10:0.466667 11:-0.2 12:0.0666667 13:-0.866667 14:0.0666667 15:-0.333333 16:-0.0666667 
0.0 1.0 0.0 0.0 0.0 0.0 0.0 0.0 0.0 0.0 0.0 1.0 0.0 0.0 0.0 0.0 0.0 0.0 0.0 0.0 0.0 0.0 0.0 1.0 0.0 1:-0.733333 2:-0.2 3:-0.6 4:-0.466667 5:-0.6 6:0.0666667 7:-0.0666667 8:-0.333333 9:0.2 10:-0.0666667 11:-0.0666667 12:-0.0666667 13:-0.866667 14:0.0666667 15:-0.0666667 16:0.0666667 
0.0 1.0 0.0 0.0 0.0 0.0 0.0 0.0 0.0 0.0 0.0 1.0 0.0 0.0 0.0 1.0 0.0 1.0 0.0 0.0 0.0 0.0 0.0 0.0 1.0 1:-0.866667 2:-0.466667 3:-0.6 4:-0.6 5:-0.866667 6:-0.0666667 7:-0.0666667 8:-0.733333 9:0.2 10:0.466667 11:-0.2 12:0.0666667 13:-0.866667 14:0.0666667 15:-0.333333 16:0.0666667 
0.0 1.0 0.0 0.0 0.0 0.0 0.0 0.0 0.0 0.0 0.0 0.0 0.0 1.0 0.0 0.0 0.0 0.0 0.0 0.0 0.0 0.0 0.0 0.0 1.0 1:0.2 2:0.333333 3:-0.0666667 4:0.866667 5:-0.2 6:0.0666667 7:-0.0666667 8:-0.466667 9:-0.733333 10:0.6 11:-0.2 12:0.0666667 13:-0.6 14:0.2 15:0.733333 16:-0.2 
1.0 1.0 1.0 0.6424211305758158 1.0 1.0 1.0 1.0 0.0 1.0 1.0 0.0 1.0 1.0 1.0 1.0 0.0 1.0 0.5369697785544907 0.0 0.0 0.0 1.0 1.0 1.0 1:-0.333333 2:0.0666667 3:-0.0666667 4:0.333333 5:-0.0666667 6:0.333333 7:-0.333333 8:-0.466667 9:-0.466667 10:0.0666667 11:-0.6 12:-0.2 13:-0.6 14:-0.333333 15:0.0666667 16:0.0666667 
1.0 1.0 0.0 1.0 0.0 0.0 0.0 0.0 0.0 0.0 0.0 0.0 0.0 1.0 0.0 0.0 1.0 0.0 0.0 0.0 1.0 0.49045430434382886 0.0 1.0 1.0 1:-0.0666667 2:0.2 3:-0.333333 4:0.733333 5:-0.333333 6:-0.0666667 7:0.0666667 8:-0.333333 9:-0.6 10:0.466667 11:-0.0666667 12:-0.0666667 13:-0.6 14:0.2 15:0.466667 16:-0.2 
0.0 0.0 0.0 0.0 0.0 0.0 0.0 0.0 0.0 0.0 0.0 1.0 0.0 1.0 0.0 0.0 0.0 0.0 0.0 0.0 0.0 0.0 0.0 1.0 0.0 1:-0.2 2:0.333333 3:0.0666667 4:0.0666667 5:-0.333333 6:0.0666667 7:-0.2 8:-0.6 9:0.2 10:0.6 11:-0.466667 12:0.2 13:-0.6 14:-0.2 15:0.0666667 16:0.2 
1.0 1.0 1.0 1.0 0.9866404632467775 1.0 1.0 1.0 0.0 1.0 1.0 1.0 1.0 1.0 1.0 1.0 0.0 1.0 0.0 0.0 0.0 0.0 1.0 1.0 1.0 1:-0.6 2:-0.333333 3:-0.333333 4:0.0666667 5:-0.6 6:0.466667 7:-0.333333 8:-0.6 9:-0.333333 10:0.333333 11:-0.733333 12:-0.0666667 13:-0.733333 14:-0.0666667 15:-0.333333 16:0.466667 
0.0 1.0 0.0 0.0 0.0 0.0 0.0 0.0 0.0 0.0 0.0 0.0 0.0 0.0 0.0 0.0 0.0 0.0 0.0 0.0 0.0 0.0 0.0 0.0 0.0 1:-0.466667 2:0.0666667 3:-0.333333 4:-0.2 5:-0.333333 6:0.0666667 7:0.0666667 8:-0.6 9:0.0666667 10:-0.0666667 11:-0.0666667 12:-0.0666667 13:-1.0 14:0.0666667 15:0.466667 16:0.0666667 
0.0 1.0 0.0 0.0 0.0 0.0 0.0 0.0 0.0 0.0 0.0 1.0 0.0 0.0 0.0 1.0 0.0 1.0 0.0 0.0 0.0 0.0 0.0 0.0 0.0 1:-0.733333 2:-0.6 3:-0.466667 4:-0.733333 5:-0.866667 6:-0.0666667 7:-0.0666667 8:-0.733333 9:0.2 10:0.466667 11:-0.2 12:0.0666667 13:-0.866667 14:0.0666667 15:-0.333333 16:-0.0666667 
1.0 1.0 1.0 1.0 0.0 1.0 0.0 1.0 0.0 0.0 0.0 0.0 0.0 0.0 0.0 1.0 1.0 1.0 0.0 0.0 1.0 0.0 0.0 1.0 1.0 1:-0.733333 2:-0.466667 3:-0.333333 4:-0.6 5:-0.733333 6:-0.0666667 7:0.0666667 8:-0.733333 9:0.2 10:0.466667 11:-0.0666667 12:-0.2 13:-0.866667 14:0.0666667 15:-0.333333 16:-0.0666667 
0.0 0.0 1.0 1.0 1.0 1.0 1.0 1.0 1.0 1.0 1.0 1.0 0.3199671342553844 0.0 0.0 1.0 1.0 0.0 1.0 1.0 1.0 0.0 0.0 0.0 0.0 1:0.0666667 2:0.733333 3:0.2 4:-0.0666667 5:-0.2 6:-0.333333 7:0.2 8:-0.733333 9:0.2 10:0.6 11:0.0666667 12:0.0666667 13:-0.2 14:-0.333333 15:0.0666667 16:-0.733333 
0.0 0.0 0.0 0.0 0.0 0.0 0.0 0.0 0.0 0.0 1.0 1.0 0.0 1.0 1.0 0.0 0.0 0.0 0.0 0.0 0.0 1.0 0.0 0.0 0.0 1:-0.2 2:0.333333 3:0.0666667 4:0.0666667 5:-0.333333 6:0.0666667 7:-0.2 8:-0.733333 9:0.2 10:0.6 11:-0.466667 12:0.466667 13:-0.6 14:-0.0666667 15:0.0666667 16:0.2 
0.0 1.0 0.0 0.0 0.0 0.0 0.0 0.0 0.0 0.0 0.0 1.0 0.0 0.0 1.0 1.0 0.0 0.0 0.0 0.0 1.0 1.0 1.0 0.0 0.0 1:-0.6 2:-0.0666667 3:-0.466667 4:-0.333333 5:-0.6 6:-0.2 7:0.0666667 8:-0.333333 9:0.333333 10:-0.0666667 11:-0.0666667 12:0.333333 13:-0.733333 14:0.2 15:0.0666667 16:0.0666667 
0.0 0.0 0.0 0.0 0.0 0.0 0.0 0.0 0.0 0.0 1.0 1.0 0.0 1.0 1.0 0.0 0.0 0.0 0.0 0.0 0.0 0.0 0.0 0.0 0.0 1:-0.466667 2:0.2 3:-0.2 4:-0.0666667 5:-0.466667 6:0.0666667 7:-0.333333 8:-0.733333 9:0.2 10:0.466667 11:-0.466667 12:0.333333 13:-0.733333 14:-0.0666667 15:-0.0666667 16:0.2 
0.0 1.0 1.0 0.0 1.0 1.0 1.0 1.0 1.0 1.0 1.0 1.0 1.0 1.0 1.0 1.0 1.0 1.0 1.0 1.0 1.0 1.0 1.0 1.0 1.0 1:-0.866667 2:-0.6 3:-0.733333 4:-0.733333 5:-0.866667 6:-0.0666667 7:-0.0666667 8:-0.333333 9:0.0666667 10:-0.2 11:-0.2 12:0.0666667 13:-0.733333 14:0.0666667 15:-0.2 16:0.0666667 
0.0 1.0 0.0 0.0 0.0 0.0 0.0 0.0 0.0 0.0 0.0 1.0 0.0 0.0 0.0 1.0 0.0 1.0 0.0 0.0 0.0 0.0 0.0 0.0 1.0 1:-0.733333 2:-0.6 3:-0.6 4:-0.733333 5:-0.866667 6:-0.0666667 7:0.0666667 8:-0.733333 9:0.2 10:0.466667 11:-0.2 12:0.0666667 13:-0.866667 14:0.0666667 15:-0.333333 16:-0.0666667 
1.0 1.0 1.0 1.0 1.0 1.0 1.0 1.0 1.0 1.0 1.0 1.0 1.0 1.0 1.0 1.0 1.0 1.0 1.0 1.0 1.0 1.0 1.0 0.0 1.0 1:-0.333333 2:0.2 3:-0.333333 4:-0.466667 5:-0.6 6:-0.333333 7:0.0666667 8:-0.733333 9:0.0666667 10:0.466667 11:0.2 12:0.2 13:-0.6 14:0.2 15:-0.333333 16:-0.333333 
0.0 0.0 0.0 0.0 0.0 0.0 0.0 1.0 0.0 0.0 0.0 0.0 0.0 0.0 0.0 0.0 0.0 1.0 0.0 0.0 1.0 0.0 0.0 0.0 1.0 1:-0.733333 2:-0.466667 3:-0.466667 4:-0.6 5:-0.733333 6:-0.0666667 7:0.0666667 8:-0.733333 9:0.2 10:0.6 11:-0.0666667 12:-0.0666667 13:-0.866667 14:0.0666667 15:-0.333333 16:-0.2 
0.0 1.0 0.0 0.0 0.0 0.0 0.0 0.0 0.0 0.0 0.0 0.0 0.0 0.0 0.0 0.0 0.0 0.0 0.0 0.0 0.0 0.0 0.0 0.0 0.0 1:-0.6 2:0.2 3:-0.466667 4:-0.2 5:-0.6 6:-0.0666667 7:-0.0666667 8:-0.2 9:0.466667 10:-0.2 11:-0.2 12:0.0666667 13:-0.866667 14:0.0666667 15:0.0666667 16:0.0666667 
0.0 1.0 0.0 0.0 0.0 0.0 0.0 0.0 0.0 0.0 0.0 0.0 0.0 0.0 0.0 0.0 0.0 0.0 0.0 0.0 0.0 0.0 0.0 0.0 0.0 1:-0.6 2:0.0666667 3:-0.466667 4:-0.2 5:-0.6 6:-0.0666667 7:0.0666667 8:-0.6 9:0.466667 10:0.0666667 11:-0.2 12:0.0666667 13:-1.0 14:0.0666667 15:-0.0666667 16:-0.0666667 
0.0 1.0 0.0 0.0 0.0 0.0 0.0 0.0 0.0 0.0 0.0 1.0 0.0 0.0 0.0 0.0 0.0 0.0 0.0 0.0 0.0 1.0 0.0 0.0 0.0 1:-0.733333 2:-0.0666667 3:-0.6 4:-0.333333 5:-0.6 6:-0.2 7:0.0666667 8:-0.333333 9:0.333333 10:-0.0666667 11:-0.2 12:0.333333 13:-0.866667 14:0.2 15:0.0666667 16:-0.0666667 
0.0 1.0 0.0 0.0 0.0 0.0 0.0 0.0 0.0 0.0 0.0 0.0 0.0 0.0 0.0 1.0 0.0 0.0 0.0 0.0 0.0 0.0 0.0 0.0 0.0 1:-0.866667 2:-1.0 3:-0.733333 4:-1.0 5:-1.0 6:-0.0666667 7:-0.0666667 8:-0.733333 9:0.333333 10:0.0666667 11:-0.2 12:0.0666667 13:-1.0 14:0.0666667 15:-0.2 16:0.0666667 
0.0 1.0 1.0 0.0 0.0 1.0 0.0 1.0 0.0 0.4808070313363062 0.0 1.0 1.0 1.0 1.0 1.0 1.0 1.0 0.0 1.0 0.0 0.0 1.0 1.0 1.0 1:-0.733333 2:-0.6 3:-0.733333 4:-0.866667 5:-0.866667 6:0.0666667 7:-0.0666667 8:-0.333333 9:0.0666667 10:-0.2 11:-0.2 12:-0.0666667 13:-0.866667 14:0.0666667 15:-0.2 16:0.0666667 
0.0 1.0 1.0 0.0 0.0 1.0 0.0 0.0 0.0 0.0 1.0 1.0 1.0 1.0 0.0 1.0 0.0 0.0 0.0 0.0 0.0 0.8949758207585157 1.0 1.0 0.0 1:-0.733333 2:-0.733333 3:-0.6 4:-0.6 5:-0.733333 6:-0.0666667 7:-0.0666667 8:-0.333333 9:0.2 10:-0.2 11:-0.2 12:0.0666667 13:-0.733333 14:0.0666667 15:-0.0666667 16:0.0666667 
0.0 0.0 0.0 0.0 0.0 0.0 0.0 0.0 0.0 0.0 1.0 1.0 0.0 0.18823728429358577 1.0 1.0 0.0 0.0 0.0 0.0 0.0 1.0 0.0 0.0 0.0 1:-0.333333 2:-0.0666667 3:-0.2 4:-0.333333 5:-0.6 6:0.0666667 7:-0.0666667 8:-0.733333 9:0.2 10:0.6 11:-0.333333 12:0.333333 13:-0.733333 14:0.2 15:-0.2 16:0.2 
0.0 1.0 1.0 0.0 0.0 0.0 0.0 0.0 0.0 0.0 1.0 1.0 0.0 0.0 0.0 1.0 0.0 1.0 0.0 0.0 0.0 0.0 0.0 1.0 1.0 1:-0.733333 2:-0.466667 3:-0.466667 4:-0.6 5:-0.733333 6:-0.0666667 7:-0.0666667 8:-0.733333 9:0.2 10:0.466667 11:-0.2 12:0.0666667 13:-0.866667 14:0.0666667 15:-0.333333 16:0.0666667 
0.0 1.0 0.0 0.0 0.0 0.0 0.0 0.0 0.0 0.0 0.0 1.0 0.0 0.0 0.0 1.0 0.0 1.0 0.0 0.0 0.0 0.0 0.0 0.0 0.0 1:-0.6 2:-0.2 3:-0.466667 4:-0.466667 5:-0.733333 6:0.0666667 7:-0.0666667 8:-0.733333 9:0.2 10:0.466667 11:-0.333333 12:0.0666667 13:-0.733333 14:0.0666667 15:-0.2 16:0.0666667 
0.0 1.0 0.0 0.0 0.0 0.0 0.0 0.0 0.0 0.0 0.0 0.0 0.0 0.0 1.0 1.0 0.0 1.0 0.0 0.0 0.0 0.0 0.0 0.0 0.0 1:-0.466667 2:0.466667 3:-0.2 4:0.0666667 5:-0.0666667 6:0.0666667 7:-0.0666667 8:-0.733333 9:0.0666667 10:-0.0666667 11:-0.2 12:0.0666667 13:-1.0 14:0.0666667 15:0.2 16:0.0666667 
1.0 1.0 1.0 1.0 1.0 1.0 1.0 1.0 1.0 1.0 1.0 0.0 0.0 1.0 0.0 1.0 1.0 1.0 1.0 1.0 1.0 0.0 0.07363271432183766 1.0 1.0 1:-0.2 2:0.466667 3:0.0666667 4:0.0666667 5:0.0666667 6:0.333333 7:0.2 8:-0.333333 9:-0.466667 10:-0.0666667 11:-0.333333 12:-0.0666667 13:-0.6 14:0.0666667 15:0.2 16:-0.333333 
0.0 0.0 0.0 0.0 0.0 0.0 0.0 0.0 0.0 0.0 0.0 1.0 0.0 0.0 0.0 0.0 0.0 0.0 0.0 0.0 1.0 0.0 0.0 0.0 0.0 1:-0.2 2:0.466667 3:0.0666667 4:0.2 5:-0.333333 6:-0.0666667 7:0.0666667 8:-0.6 9:0.466667 10:0.6 11:-0.0666667 12:0.0666667 13:-0.733333 14:0.2 15:-0.0666667 16:0.0666667 
0.0 1.0 0.0 0.0 0.0 0.0 0.0 0.0 0.0 0.0 0.0 0.0 0.0 0.0 0.0 0.0 0.0 0.0 0.0 0.0 0.0 0.0 0.0 0.0 0.0 1:-0.733333 2:-0.866667 3:-0.733333 4:-0.866667 5:-0.866667 6:-0.0666667 7:-0.0666667 8:-0.6 9:0.466667 10:0.0666667 11:-0.2 12:0.0666667 13:-1.0 14:0.0666667 15:-0.2 16:0.0666667 
0.0 1.0 0.0 0.0 0.0 0.0 0.0 0.0 0.0 0.0 0.0 0.0 0.0 0.0 0.0 0.0 0.0 0.0 0.0 0.0 0.0 0.0 0.0 0.6691278201301071 0.0 1:-0.6 2:0.0666667 3:-0.466667 4:-0.2 5:-0.6 6:0.2 7:-0.2 8:-0.333333 9:0.333333 10:-0.0666667 11:-0.333333 12:-0.2 13:-0.866667 14:-0.0666667 15:0.0666667 16:0.0666667 
0.0 0.0 0.0 0.0 0.0 0.0 0.0 0.0 0.0 0.0 1.0 1.0 0.0 1.0 1.0 1.0 0.0 0.0 0.0 0.0 0.0 0.0 1.0 0.0 0.0 1:-0.2 2:0.2 3:0.0666667 4:-0.0666667 5:-0.333333 6:0.2 7:-0.333333 8:-0.6 9:0.2 10:0.466667 11:-0.6 12:0.466667 13:-0.6 14:-0.2 15:-0.0666667 16:0.2 
0.0 1.0 1.0 0.0 0.0 1.0 1.0 1.0 0.0 1.0 1.0 1.0 1.0 1.0 1.0 1.0 0.0 0.0 0.0 0.0 0.0 1.0 1.0 1.0 1.0 1:0.0666667 2:0.6 3:0.0666667 4:-0.2 5:-0.333333 6:0.333333 7:-0.6 8:-0.466667 9:-0.0666667 10:0.6 11:-0.6 12:0.466667 13:-0.6 14:-0.2 15:-0.0666667 16:0.466667 
1.0 1.0 0.0 1.0 0.0 0.0 0.0 1.0 0.0 0.0 0.0 0.0 0.0 0.0 0.0 1.0 1.0 1.0 0.0 0.0 1.0 0.0 0.0 0.0 1.0 1:-0.466667 2:0.0666667 3:-0.2 4:-0.2 5:-0.466667 6:-0.0666667 7:0.2 8:-0.733333 9:0.2 10:0.466667 11:-0.0666667 12:-0.2 13:-0.866667 14:0.0666667 15:-0.2 16:-0.2 
1.0 1.0 1.0 1.0 1.0 1.0 1.0 1.0 0.0 1.0 1.0 0.0 1.0 1.0 1.0 1.0 0.0 1.0 0.0 0.0 0.0 0.0 1.0 1.0 1.0 1:-0.333333 2:-0.0666667 3:-0.0666667 4:0.2 5:-0.2 6:0.333333 7:-0.333333 8:-0.466667 9:-0.466667 10:0.0666667 11:-0.733333 12:-0.2 13:-0.733333 14:-0.0666667 15:-0.0666667 16:0.0666667 
1.0 1.0 1.0 1.0 1.0 1.0 1.0 1.0 1.0 1.0 1.0 0.0 1.0 0.0 0.0 1.0 1.0 1.0 1.0 1.0 1.0 0.0 0.0 1.0 1.0 1:-0.466667 2:0.0666667 3:-0.333333 4:-0.2 5:-0.333333 6:0.0666667 7:0.333333 8:-0.333333 9:-0.466667 10:-0.2 11:-0.333333 12:-0.2 13:-0.6 14:0.0666667 15:0.0666667 16:-0.6 
1.0 1.0 0.0 1.0 0.0 0.0 0.0 0.0 0.0 0.0 0.0 1.0 0.0 0.0 0.0 0.0 0.0 1.0 0.0 0.0 1.0 0.0 0.0 1.0 0.0 1:-0.333333 2:0.2 3:-0.0666667 4:-0.2 5:-0.333333 6:-0.0666667 7:0.0666667 8:-0.733333 9:0.2 10:0.6 11:-0.2 12:0.0666667 13:-0.866667 14:0.2 15:-0.2 16:0.0666667 
0.0 1.0 0.0 0.0 0.0 0.0 0.0 0.0 0.0 0.0 0.0 0.0 0.0 0.0 0.0 0.0 0.0 0.0 0.0 0.0 0.0 0.0 0.0 0.0 0.0 1:-0.6 2:0.2 3:-0.333333 4:-0.0666667 5:-0.333333 6:0.0666667 7:-0.2 8:-0.733333 9:-0.0666667 10:0.0666667 11:-0.2 12:0.0666667 13:-0.866667 14:-0.0666667 15:0.466667 16:0.333333 
1.0 1.0 0.0 1.0 0.0 0.0 0.0 0.0 1.0 0.0 0.0 1.0 0.0 0.0 0.0 0.0 1.0 1.0 0.0 0.0 1.0 1.0 0.0 0.0 1.0 1:0.2 2:0.466667 3:-0.2 4:1.0 5:-0.2 6:-0.333333 7:0.466667 8:-0.6 9:-0.6 10:0.6 11:0.0666667 12:-0.2 13:-0.6 14:0.2 15:0.466667 16:-0.333333 
0.0 1.0 0.0 0.0 0.0 1.0 0.0 0.0 0.0 0.0 1.0 1.0 0.0 1.0 1.0 1.0 0.0 0.0 0.0 0.0 0.0 1.0 1.0 1.0 0.0 1:-0.333333 2:-0.0666667 3:-0.2 4:-0.333333 5:-0.466667 6:0.0666667 7:-0.333333 8:-0.733333 9:0.2 10:0.466667 11:-0.466667 12:0.333333 13:-0.733333 14:0.0666667 15:-0.2 16:0.333333 
0.0 1.0 0.0 0.0 0.0 0.0 0.0 0.0 0.0 0.0 0.0 0.0 0.0 0.0 0.0 0.0 0.0 0.0 0.0 0.0 0.0 0.0 0.0 0.0 0.0 1:-0.6 2:0.333333 3:-0.466667 4:-0.0666667 5:-0.6 6:-0.0666667 7:0.0666667 8:-0.6 9:0.466667 10:0.2 11:-0.2 12:0.0666667 13:-1.0 14:0.0666667 15:-0.0666667 16:0.0666667 
0.0 1.0 0.0 0.0 0.0 0.0 0.0 0.0 0.0 0.0 0.0 1.0 0.0 0.0 0.0 1.0 0.0 1.0 0.0 0.0 0.0 0.0 0.0 0.0 1.0 1:-0.733333 2:-0.466667 3:-0.466667 4:-0.6 5:-0.866667 6:-0.0666667 7:0.0666667 8:-0.733333 9:0.2 10:0.466667 11:-0.2 12:0.0666667 13:-0.866667 14:0.0666667 15:-0.333333 16:-0.0666667 
0.0 0.0 0.0 0.0 0.0 0.0 0.0 0.0 0.0 0.0 1.0 1.0 0.0 0.0 1.0 1.0 0.0 1.0 0.0 0.0 0.0 0.0 0.0 0.0 0.0 1:-0.733333 2:-0.466667 3:-0.466667 4:-0.6 5:-0.733333 6:0.0666667 7:-0.2 8:-0.733333 9:0.2 10:0.466667 11:-0.333333 12:0.2 13:-0.866667 14:0.0666667 15:-0.333333 16:0.2 
0.0 1.0 0.0 0.0 0.0 0.0 0.0 0.0 0.0 0.0 0.0 0.0 0.0 0.0 0.0 0.0 0.0 0.0 0.0 0.0 0.0 0.0 0.0 0.0 1.0 1:-0.6 2:-0.0666667 3:-0.333333 4:-0.333333 5:-0.733333 6:0.2 7:-0.2 8:-0.6 9:0.2 10:0.466667 11:-0.6 12:0.2 13:-0.866667 14:-0.0666667 15:-0.2 16:0.2 
0.0 1.0 0.0 0.0 0.0 1.0 0.0 1.0 0.0 0.0 1.0 1.0 1.0 1.0 1.0 1.0 0.0 0.0 0.0 0.0 0.0 1.0 1.0 1.0 0.0 1:-0.733333 2:-0.333333 3:-0.6 4:-0.466667 5:-0.733333 6:-0.0666667 7:-0.0666667 8:-0.333333 9:0.2 10:-0.2 11:-0.2 12:0.0666667 13:-0.733333 14:0.0666667 15:-0.0666667 16:0.0666667 
1.0 1.0 1.0 1.0 1.0 1.0 1.0 1.0 1.0 1.0 0.0 1.0 1.0 1.0 1.0 1.0 1.0 0.0 1.0 1.0 1.0 1.0 1.0 1.0 1.0 1:-0.466667 2:0.2 3:-0.333333 4:-0.0666667 5:-0.333333 6:0.2 7:0.2 8:-0.2 9:-0.466667 10:-0.0666667 11:-0.333333 12:0.0666667 13:-0.466667 14:0.2 15:0.333333 16:-0.2 
0.0 1.0 0.0 0.0 0.0 0.0 0.0 0.0 0.0 0.0 0.0 0.0 0.0 0.0 0.0 0.0 0.0 0.0 0.0 0.0 0.0 0.0 0.0 0.0 0.0 1:-0.466667 2:-0.0666667 3:-0.466667 4:-0.333333 5:-0.6 6:-0.0666667 7:-0.0666667 8:-0.333333 9:0.466667 10:-0.0666667 11:-0.2 12:0.2 13:-0.866667 14:0.0666667 15:0.0666667 16:0.0666667 
0.0 1.0 0.0 1.0 0.0 0.0 0.0 0.0 0.0 0.0 0.0 1.0 0.0 0.0 0.0 1.0 1.0 1.0 0.0 0.0 1.0 0.0 0.0 0.0 0.0 1:-0.333333 2:0.0666667 3:-0.2 4:-0.2 5:-0.466667 6:-0.0666667 7:0.0666667 8:-0.733333 9:0.2 10:0.466667 11:-0.0666667 12:0.0666667 13:-0.866667 14:0.2 15:-0.2 16:-0.0666667 
0.0 1.0 0.0 0.0 0.0 0.0 0.0 0.0 0.0 0.0 0.0 1.0 0.9956822348293853 0.0 0.0 1.0 0.0 0.0 0.0 0.0 0.0 0.0 1.0 1.0 0.0 1:-0.733333 2:-0.866667 3:-0.6 4:-0.733333 5:-0.866667 6:-0.0666667 7:-0.0666667 8:-0.333333 9:0.2 10:-0.2 11:-0.2 12:0.0666667 13:-0.866667 14:0.0666667 15:-0.0666667 16:0.0666667 
0.0 1.0 1.0 1.0 1.0 1.0 0.0 1.0 0.0 1.0 1.0 1.0 1.0 0.0 1.0 1.0 1.0 1.0 0.0 1.0 1.0 1.0 0.0 0.0 1.0 1:-0.333333 2:0.333333 3:-0.333333 4:-0.333333 5:-0.6 6:-0.333333 7:0.0666667 8:-0.733333 9:0.2 10:0.466667 11:0.0666667 12:0.0666667 13:-0.6 14:-0.2 15:-0.2 16:-0.333333 
0.0 1.0 0.0 0.0 0.0 1.0 0.0 1.0 0.0 0.0 0.0 1.0 0.0 1.0 0.0 1.0 0.0 0.0 0.0 0.0 0.0 0.0 0.0 1.0 0.0 1:-0.733333 2:-0.333333 3:-0.6 4:-0.466667 5:-0.6 6:0.0666667 7:-0.0666667 8:-0.333333 9:0.2 10:-0.2 11:-0.2 12:-0.0666667 13:-0.733333 14:0.0666667 15:-0.0666667 16:0.0666667 
0.0 1.0 0.0 0.0 0.0 0.0 0.0 0.0 0.0 0.0 0.0 1.0 0.0 0.0 0.0 1.0 0.0 0.0 0.0 0.0 0.0 0.0 0.0 0.0 0.0 1:-0.6 2:-0.733333 3:-0.466667 4:-0.466667 5:-0.733333 6:-0.0666667 7:-0.0666667 8:-0.333333 9:0.333333 10:-0.2 11:-0.2 12:0.0666667 13:-0.866667 14:0.0666667 15:-0.0666667 16:0.0666667 
0.0 1.0 0.0 0.0 0.0 0.0 0.0 0.0 0.0 0.0 0.0 1.0 0.0 0.0 0.0 1.0 0.0 0.0 0.0 0.0 0.0 0.0 0.0 0.0 0.0 1:-0.466667 2:-0.0666667 3:-0.333333 4:-0.333333 5:-0.333333 6:0.0666667 7:0.0666667 8:-0.733333 9:-0.0666667 10:-0.0666667 11:-0.2 12:0.0666667 13:-1.0 14:0.2 15:0.2 16:0.2 
0.0 1.0 0.0 0.0 0.0 0.0 0.0 1.0 0.0 0.0 0.0 0.0 0.0 0.0 0.0 0.0 0.0 0.0 0.0 0.0 0.0 0.0 0.0 1.0 0.0 1:-0.333333 2:0.466667 3:-0.0666667 4:0.2 5:-0.333333 6:0.0666667 7:-0.2 8:-0.2 9:0.466667 10:-0.0666667 11:-0.333333 12:-0.2 13:-0.733333 14:-0.0666667 15:0.0666667 16:0.0666667 
0.0 1.0 0.0 0.0 0.0 0.0 0.0 0.0 0.0 0.0 0.0 0.0 0.0 0.0 0.0 1.0 0.0 0.0 0.0 0.0 0.0 0.0 0.0 0.0 0.0 1:-0.466667 2:0.0666667 3:-0.2 4:-0.2 5:-0.2 6:0.0666667 7:0.0666667 8:-0.733333 9:0.0666667 10:-0.0666667 11:-0.2 12:-0.0666667 13:-1.0 14:0.0666667 15:0.2 16:0.0666667 
0.0 1.0 0.0 0.0 0.0 0.0 0.0 0.0 0.0 0.0 0.0 0.0 0.0 0.0 0.0 1.0 0.0 0.0 0.0 0.0 0.0 0.0 0.0 0.0 0.0 1:-0.866667 2:-1.0 3:-0.866667 4:-0.866667 5:-1.0 6:-0.0666667 7:-0.0666667 8:-0.733333 9:0.2 10:0.2 11:-0.2 12:0.0666667 13:-1.0 14:0.0666667 15:-0.2 16:0.0666667 
1.0 1.0 1.0 1.0 0.0 1.0 0.0 1.0 1.0 0.0 0.0 1.0 1.0 1.0 0.0 0.0 0.0 0.0 0.0 0.0 0.0 1.0 1.0 1.0 1.0 1:-0.333333 2:-0.2 3:-0.466667 4:0.0666667 5:-0.6 6:0.0666667 7:-0.2 8:-0.333333 9:-0.333333 10:0.333333 11:-0.2 12:-0.0666667 13:-0.6 14:0.2 15:0.2 16:0.2 
1.0 1.0 1.0 1.0 1.0 1.0 1.0 1.0 1.0 1.0 1.0 1.0 1.0 1.0 1.0 1.0 0.0 1.0 0.8164164035858648 1.0 1.0 1.0 1.0 1.0 1.0 1:-0.0666667 2:0.866667 3:-0.0666667 4:0.0666667 5:-0.466667 6:0.333333 7:-0.466667 8:-0.6 9:0.0666667 10:0.6 11:-0.466667 12:0.333333 13:-0.6 14:0.2 15:-0.466667 16:0.466667 
0.0 1.0 0.0 0.0 0.0 0.0 0.0 0.0 0.0 0.0 0.0 0.0 0.0 0.0 0.0 0.0 0.0 1.0 0.0 0.0 0.0 0.0 0.0 0.6595744164265323 1.0 1:-0.6 2:-0.0666667 3:-0.333333 4:-0.333333 5:-0.6 6:0.0666667 7:-0.0666667 8:-0.733333 9:0.2 10:0.466667 11:-0.333333 12:-0.0666667 13:-0.866667 14:-0.0666667 15:-0.2 16:0.0666667 
1.0 1.0 1.0 0.0 0.0 1.0 0.0 1.0 0.0 1.0 1.0 0.0 0.0 1.0 1.0 1.0 0.0 1.0 0.0 0.0 0.0 0.0 1.0 1.0 1.0 1:-0.466667 2:-0.2 3:-0.2 4:0.0666667 5:-0.466667 6:0.733333 7:-0.466667 8:-0.6 9:-0.0666667 10:0.333333 11:-0.733333 12:-0.0666667 13:-0.733333 14:-0.0666667 15:-0.333333 16:0.6 
0.0 1.0 0.0 1.0 0.0 0.0 0.0 0.0 0.0 0.0 0.0 0.0 0.0 0.0 0.0 0.0 1.0 0.0 0.0 0.0 0.30018529664588756 0.0 0.0 1.0 1.0 1:0.2 2:0.2 3:-0.2 4:0.6 5:-0.2 6:-0.2 7:0.2 8:-0.466667 9:-0.733333 10:0.6 11:-0.0666667 12:-0.0666667 13:-0.6 14:0.0666667 15:0.733333 16:-0.2 
0.0 1.0 0.0 0.0 0.0 1.0 0.0 0.0 0.0 0.0 0.0 1.0 1.0 1.0 1.0 1.0 0.0 0.0 0.0 0.0 0.0 1.0 1.0 1.0 0.0 1:-0.866667 2:-0.6 3:-0.733333 4:-0.733333 5:-0.866667 6:-0.0666667 7:-0.0666667 8:-0.333333 9:0.0666667 10:-0.2 11:-0.2 12:0.0666667 13:-0.866667 14:0.0666667 15:-0.0666667 16:0.0666667 
1.0 1.0 1.0 1.0 1.0 0.0 0.0 1.0 1.0 0.0 0.0 1.0 1.0 0.0 0.0 1.0 1.0 0.0 0.0 1.0 1.0 1.0 0.0 0.0 0.0 1:-0.2 2:0.333333 3:0.2 4:-0.0666667 5:-0.333333 6:-0.333333 7:0.333333 8:-0.466667 9:0.333333 10:0.466667 11:0.333333 12:-0.2 13:-0.866667 14:0.2 15:-0.2 16:-0.333333 
0.0 1.0 1.0 0.0 0.0 1.0 0.0 1.0 0.0 0.0 1.0 1.0 1.0 1.0 1.0 1.0 0.0 0.0 0.0 1.0 1.0 1.0 1.0 1.0 0.0 1:-0.733333 2:-0.6 3:-0.733333 4:-0.733333 5:-0.733333 6:-0.0666667 7:-0.0666667 8:-0.333333 9:0.2 10:-0.2 11:-0.2 12:0.0666667 13:-0.866667 14:0.0666667 15:-0.2 16:0.0666667 
0.0 1.0 1.0 0.0 0.0 1.0 0.0 1.0 0.0 1.0 1.0 1.0 1.0 1.0 1.0 0.0 0.0 1.0 0.0 0.0 0.0 1.0 1.0 1.0 1.0 1:-0.0666667 2:1.0 3:-0.0666667 4:0.2 5:-0.333333 6:0.466667 7:-0.6 8:-0.466667 9:-0.2 10:0.6 11:-0.6 12:0.333333 13:-0.6 14:-0.0666667 15:-0.0666667 16:0.466667 
0.0 1.0 0.0 0.0 0.0 0.0 0.0 0.0 0.0 0.0 0.0 0.0 0.0 0.0 0.0 1.0 0.0 0.0 0.0 0.0 0.0 0.0 0.0 1.0 0.0 1:-0.466667 2:0.0666667 3:-0.2 4:-0.2 5:-0.2 6:0.0666667 7:0.0666667 8:-0.6 9:0.0666667 10:-0.0666667 11:-0.0666667 12:-0.0666667 13:-0.866667 14:0.0666667 15:0.2 16:0.0666667 
0.0 0.0 0.0 0.0 0.0 0.0 0.0 1.0 0.0 0.0 0.0 1.0 0.0 0.0 0.0 0.0 0.0 0.0 0.0 0.0 0.0 0.0 0.0 0.0 0.0 1:-0.733333 2:-0.466667 3:-0.466667 4:-0.733333 5:-0.733333 6:-0.0666667 7:-0.0666667 8:-0.733333 9:0.2 10:0.6 11:-0.2 12:0.0666667 13:-0.866667 14:0.0666667 15:-0.333333 16:-0.0666667 
0.0 1.0 0.0 0.0 0.0 0.0 0.0 0.0 0.0 0.0 0.0 1.0 0.0 -0.0 0.0 0.0 0.0 0.0 0.0 0.0 0.0 0.0 0.0 0.0 0.0 1:-0.6 2:0.333333 3:-0.466667 4:0.0666667 5:-0.466667 6:-0.0666667 7:-0.0666667 8:-0.2 9:0.333333 10:-0.2 11:-0.2 12:0.0666667 13:-0.866667 14:0.0666667 15:0.0666667 16:0.0666667 
0.0 1.0 1.0 0.0 0.0 1.0 0.0 1.0 0.0 1.0 0.0 0.0 0.0 1.0 1.0 1.0 0.0 1.0 0.0 0.0 0.0 0.0 0.0 1.0 1.0 1:-0.466667 2:-0.0666667 3:-0.2 4:0.2 5:-0.466667 6:0.466667 7:-0.466667 8:-0.733333 9:-0.2 10:0.2 11:-0.733333 12:-0.2 13:-0.866667 14:0.0666667 15:-0.2 16:0.2 
0.0 0.0 0.0 1.0 0.0 0.0 0.0 0.0 0.0 0.0 0.0 1.0 0.0 0.0 0.0 1.0 0.0 1.0 0.0 0.0 0.0 0.0 0.0 0.0 1.0 1:-0.866667 2:-0.6 3:-0.6 4:-0.733333 5:-0.866667 6:-0.0666667 7:0.0666667 8:-0.866667 9:0.2 10:0.466667 11:-0.0666667 12:-0.0666667 13:-0.866667 14:0.0666667 15:-0.333333 16:-0.0666667 
1.0 1.0 0.7809813809665846 1.0 1.0 0.0 0.0 1.0 1.0 0.0 0.0 0.0 0.0 0.0 0.0 0.0 1.0 0.0 0.0 1.0 1.0 0.0 0.0 0.0 0.0 1:-0.466667 2:-0.2 3:-0.2 4:-0.466667 5:-0.6 6:-0.2 7:0.2 8:-0.6 9:0.2 10:0.466667 11:0.2 12:-0.2 13:-0.866667 14:0.2 15:-0.2 16:-0.333333 
1.0 1.0 0.0 1.0 0.0 0.0 0.0 0.0 0.0 0.0 0.0 1.0 0.0 0.0 0.0 1.0 1.0 1.0 0.0 0.0 1.0 0.0 0.0 0.0 0.0 1:-0.466667 2:0.333333 3:-0.2 4:0.0666667 5:-0.466667 6:-0.2 7:0.2 8:-0.733333 9:0.2 10:0.466667 11:0.0666667 12:-0.0666667 13:-0.733333 14:0.333333 15:-0.0666667 16:-0.2 
0.0 0.0 0.0 0.0 0.0 0.0 0.0 0.0 0.0 0.0 0.0 1.0 0.0 0.0 0.0 0.0 0.0 1.0 0.0 0.0 0.0 0.0 0.0 0.0 1.0 1:-0.733333 2:-0.466667 3:-0.466667 4:-0.6 5:-0.733333 6:-0.0666667 7:-0.0666667 8:-0.733333 9:0.2 10:0.6 11:-0.2 12:0.0666667 13:-0.866667 14:0.0666667 15:-0.333333 16:-0.0666667 
0.0 0.0 0.0 0.0 0.0 0.0 0.0 0.0 0.0 0.0 0.0 1.0 0.0 0.0 0.0 0.0 0.0 0.0 0.0 0.0 0.0 0.0 0.0 0.0 0.0 1:-0.6 2:-0.333333 3:-0.2 4:-0.466667 5:-0.6 6:-0.0666667 7:-0.0666667 8:-0.733333 9:0.333333 10:0.6 11:-0.2 12:0.0666667 13:-0.866667 14:0.0666667 15:-0.2 16:0.0666667 
0.0 1.0 0.0 0.0 0.0 0.0 0.0 0.0 0.0 0.0 0.0 1.0 0.0 0.0 1.0 0.0 0.0 0.0 0.0 0.0 0.0 0.0 0.0 0.0 0.0 1:-0.6 2:-0.0666667 3:-0.466667 4:-0.333333 5:-0.466667 6:-0.2 7:-0.2 8:-0.6 9:-0.0666667 10:-0.0666667 11:-0.2 12:0.333333 13:-0.866667 14:-0.0666667 15:0.333333 16:-0.0666667 
1.0 1.0 1.0 1.0 0.0 1.0 0.0 1.0 0.0 1.0 0.40193393871872823 1.0 0.0 1.0 1.0 1.0 0.0 1.0 0.0 0.0 0.0 0.0 1.0 1.0 1.0 1:-0.333333 2:-0.2 3:-0.466667 4:0.0666667 5:-0.6 6:0.466667 7:-0.466667 8:-0.6 9:-0.333333 10:0.466667 11:-0.466667 12:0.0666667 13:-0.6 14:0.2 15:-0.0666667 16:0.333333 
0.0 1.0 0.0 0.0 0.0 0.0 0.0 0.0 0.0 0.0 0.0 1.0 0.0 0.0 0.0 0.0 0.0 0.0 0.0 0.0 1.0 1.0 1.0 0.0 0.0 1:-0.6 2:-0.2 3:-0.466667 4:-0.466667 5:-0.6 6:-0.0666667 7:0.0666667 8:-0.333333 9:0.333333 10:-0.0666667 11:-0.0666667 12:0.2 13:-0.866667 14:0.2 15:-0.0666667 16:0.0666667 
0.0 0.0 1.0 1.0 0.0 0.0 0.0 0.0 0.0 0.0 0.0 1.0 0.0 0.0 0.0 0.0 0.0 1.0 0.0 0.0 1.0 0.0 0.0 0.0 1.0 1:-0.6 2:-0.333333 3:-0.333333 4:-0.466667 5:-0.6 6:-0.0666667 7:0.0666667 8:-0.733333 9:0.2 10:0.6 11:-0.2 12:0.0666667 13:-0.866667 14:0.0666667 15:-0.333333 16:-0.0666667 
0.0 0.0 0.0 0.0 0.0 0.0 0.0 0.0 0.0 0.0 0.0 1.0 0.0 0.0 0.0 0.0 0.0 1.0 0.0 0.0 0.0 0.0 0.0 0.0 1.0 1:-0.733333 2:-0.466667 3:-0.466667 4:-0.6 5:-0.733333 6:-0.0666667 7:0.0666667 8:-0.733333 9:0.2 10:0.6 11:-0.2 12:0.0666667 13:-0.866667 14:0.0666667 15:-0.333333 16:-0.0666667 
0.0 0.0 0.0 0.0 0.0 0.0 0.0 0.0 0.0 0.0 0.0 1.0 0.0 0.0 0.0 0.0 0.0 0.0 0.0 0.0 0.0 0.0 0.0 0.0 0.0 1:-0.733333 2:-0.466667 3:-0.466667 4:-0.6 5:-0.866667 6:0.0666667 7:-0.2 8:-0.733333 9:0.333333 10:0.466667 11:-0.333333 12:0.2 13:-0.866667 14:0.0666667 15:-0.2 16:0.2 
0.0 1.0 1.0 0.0 0.0 1.0 0.0 1.0 1.0 0.0 1.0 1.0 1.0 1.0 1.0 1.0 0.0 0.0 0.0 1.0 1.0 1.0 1.0 1.0 0.0 1:-0.733333 2:-0.466667 3:-0.733333 4:-0.6 5:-0.733333 6:-0.0666667 7:0.0666667 8:-0.333333 9:0.0666667 10:-0.2 11:-0.2 12:0.2 13:-0.733333 14:0.0666667 15:-0.0666667 16:0.0666667 
0.0 1.0 1.0 0.0 1.0 1.0 0.0 1.0 0.0 1.0 1.0 1.0 1.0 1.0 1.0 1.0 0.0 1.0 0.0 1.0 0.6124633839159505 1.0 1.0 1.0 0.0 1:-0.866667 2:-0.6 3:-0.733333 4:-0.866667 5:-0.866667 6:-0.0666667 7:-0.0666667 8:-0.333333 9:0.0666667 10:-0.2 11:-0.2 12:0.0666667 13:-0.866667 14:0.0666667 15:-0.2 16:0.0666667 
0.0 1.0 0.0 0.0 0.0 0.0 0.0 0.0 0.0 0.0 0.0 0.0 0.0 0.0 0.0 0.0 0.0 0.0 0.0 0.0 0.0 0.0 0.0 0.0 0.0 1:-0.6 2:-0.0666667 3:-0.466667 4:-0.333333 5:-0.6 6:-0.0666667 7:-0.0666667 8:-0.6 9:0.466667 10:0.0666667 11:-0.2 12:0.0666667 13:-1.0 14:0.0666667 15:-0.0666667 16:0.0666667 
0.0 1.0 0.0 0.0 0.0 0.0 0.0 0.0 0.0 0.0 0.0 1.0 0.0 1.0 0.0 0.0 0.0 0.0 0.0 0.0 0.0 0.0 1.0 1.0 1.0 1:-0.2 2:-0.0666667 3:-0.466667 4:0.466667 5:-0.466667 6:0.0666667 7:-0.333333 8:-0.466667 9:-0.466667 10:0.466667 11:-0.2 12:0.0666667 13:-0.6 14:0.2 15:0.333333 16:0.0666667 
1.0 1.0 1.0 1.0 1.0 1.0 0.0 1.0 1.0 1.0 0.610083986849221 0.0 0.0 1.0 0.0 1.0 1.0 0.0 0.0 0.0 1.0 0.0 0.2814871985565769 1.0 1.0 1:-0.2 2:0.333333 3:0.2 4:0.0666667 5:-0.0666667 6:0.2 7:0.2 8:-0.333333 9:-0.466667 10:-0.0666667 11:-0.333333 12:-0.0666667 13:-0.6 14:0.2 15:0.333333 16:-0.333333 
0.0 1.0 0.0 0.0 0.0 0.0 0.0 0.0 0.0 0.0 0.0 1.0 0.0 1.0 1.0 0.0 0.0 0.0 0.0 0.0 1.0 1.0 1.0 0.0 0.0 1:-0.466667 2:0.2 3:-0.466667 4:-0.2 5:-0.6 6:-0.2 7:0.0666667 8:-0.2 9:0.333333 10:-0.0666667 11:-0.0666667 12:0.333333 13:-0.866667 14:0.2 15:0.0666667 16:0.0666667 
0.0 0.0 0.0 0.0 0.0 0.0 0.0 0.0 0.0 0.0 0.0 1.0 0.0 0.0 0.0 0.0 0.0 0.0 0.0 0.0 0.0 0.0 0.0 0.0 0.0 1:-0.466667 2:-0.2 3:-0.333333 4:-0.466667 5:-0.6 6:0.0666667 7:-0.2 8:-0.733333 9:0.333333 10:0.6 11:-0.333333 12:0.333333 13:-0.866667 14:0.2 15:-0.2 16:0.2 
1.0 1.0 1.0 1.0 0.0 1.0 0.0 1.0 1.0 0.0 1.0 1.0 0.0 1.0 1.0 1.0 0.0 0.0 0.0 0.0 1.0 1.0 0.0 1.0 0.0 1:-0.0666667 2:0.466667 3:0.2 4:0.0666667 5:-0.0666667 6:-0.0666667 7:-0.0666667 8:-0.733333 9:0.2 10:0.6 11:-0.2 12:0.2 13:-0.733333 14:0.2 15:-0.2 16:0.0666667 
0.0 1.0 1.0 0.0 0.0 1.0 0.0 1.0 0.9176223998809756 1.0 0.0 0.0 0.0 1.0 1.0 1.0 1.0 0.0 0.0 0.0 0.0 0.0 1.0 1.0 1.0 1:-0.333333 2:-0.0666667 3:-0.2 4:-0.333333 5:-0.333333 6:0.2 7:-0.2 8:-0.333333 9:-0.466667 10:-0.0666667 11:-0.333333 12:-0.0666667 13:-0.6 14:0.0666667 15:0.333333 16:-0.2 
0.0 1.0 0.0 0.0 0.0 0.0 0.0 0.0 0.0 0.0 0.0 1.0 0.0 0.0 0.0 0.0 0.0 0.0 0.0 0.0 0.0 0.0 0.0 0.0 0.0 1:-0.2 2:0.333333 3:0.0666667 4:-0.0666667 5:-0.333333 6:0.0666667 7:-0.2 8:-0.6 9:0.333333 10:0.6 11:-0.466667 12:0.2 13:-0.866667 14:-0.0666667 15:-0.2 16:0.2 
1.0 1.0 1.0 1.0 0.0 1.0 0.0 1.0 1.0 1.0 0.0 1.0 0.0 1.0 0.0 1.0 0.49044828595652606 0.0 0.0 0.0 1.0 0.0 1.0 1.0 1.0 1:-0.333333 2:0.2 3:-0.0666667 4:-0.0666667 5:-0.2 6:0.333333 7:0.2 8:-0.2 9:-0.466667 10:-0.0666667 11:-0.333333 12:0.0666667 13:-0.6 14:0.0666667 15:0.333333 16:-0.0666667 
0.0 1.0 0.0 0.0 0.0 0.0 0.0 0.0 0.0 0.0 0.0 0.34867876864499364 0.0 0.0 0.0 0.0 0.0 0.0 0.0 0.0 0.0 0.0 1.0 0.0 0.0 1:-0.6 2:0.0666667 3:-0.466667 4:-0.2 5:-0.6 6:-0.0666667 7:-0.0666667 8:-0.2 9:0.333333 10:-0.2 11:-0.2 12:0.0666667 13:-0.866667 14:0.0666667 15:0.0666667 16:0.0666667 
0.0 1.0 0.0 1.0 0.0 0.0 0.0 0.0 0.0 0.0 0.0 1.0 0.0 0.0 0.0 1.0 0.0 1.0 0.0 0.0 1.0 0.0 0.0 0.0 1.0 1:-0.733333 2:-0.333333 3:-0.333333 4:-0.6 5:-0.733333 6:-0.0666667 7:0.0666667 8:-0.733333 9:0.2 10:0.6 11:-0.2 12:0.0666667 13:-0.866667 14:0.2 15:-0.333333 16:-0.0666667 
0.0 0.2843219025877905 0.0 0.0 0.0 0.0 0.0 0.0 0.0 0.0 0.0 1.0 0.0 0.0 0.0 1.0 0.0 0.0 0.0 0.0 0.0 0.0 0.0 0.0 0.0 1:-0.466667 2:-0.0666667 3:-0.2 4:-0.333333 5:-0.6 6:-0.0666667 7:-0.0666667 8:-0.733333 9:0.333333 10:0.466667 11:-0.2 12:0.0666667 13:-0.866667 14:0.0666667 15:-0.2 16:0.0666667 
0.0 1.0 0.0 0.0 0.0 0.0 0.0 0.0 0.0 0.0 0.0 0.0 0.0 0.0 0.0 0.0 0.0 0.0 0.0 0.0 0.0 0.0 0.0 0.0 0.0 1:-0.6 2:0.333333 3:-0.466667 4:-0.0666667 5:-0.6 6:-0.0666667 7:0.0666667 8:-0.6 9:0.466667 10:0.2 11:-0.2 12:0.0666667 13:-1.0 14:0.0666667 15:-0.0666667 16:0.0666667 
0.0 1.0 0.0 0.0 0.0 0.0 0.0 1.0 0.0 0.0 0.0 0.0 0.0 0.0 0.0 1.0 0.0 0.0 0.0 0.0 0.0 0.0 0.0 1.0 0.0 1:-0.6 2:-0.333333 3:-0.6 4:-0.6 5:-0.733333 6:0.0666667 7:-0.0666667 8:-0.333333 9:0.333333 10:-0.2 11:-0.2 12:-0.0666667 13:-0.733333 14:0.0666667 15:-0.0666667 16:0.0666667 
0.0 1.0 0.0 0.0 0.0 0.0 0.0 1.0 0.0 0.0 0.0 0.0 0.0 0.0 0.0 0.0 0.0 0.0 0.0 0.0 0.0 0.0 0.0 0.0 1.0 1:-0.333333 2:0.0666667 3:-0.0666667 4:-0.2 5:-0.333333 6:0.0666667 7:-0.0666667 8:-0.733333 9:0.2 10:0.6 11:-0.2 12:-0.0666667 13:-0.866667 14:-0.0666667 15:-0.2 16:-0.0666667 
0.0 1.0 0.0 1.0 0.0 0.0 0.0 1.0 0.0 0.0 0.0 0.0 0.0 0.0 0.0 1.0 0.0 1.0 0.0 0.0 1.0 0.0 0.0 0.0 1.0 1:-0.466667 2:0.2 3:-0.2 4:-0.0666667 5:-0.466667 6:-0.0666667 7:0.2 8:-0.733333 9:0.2 10:0.466667 11:-0.0666667 12:-0.2 13:-0.866667 14:-0.0666667 15:-0.2 16:-0.2 
0.0 1.0 0.0 0.0 0.0 0.0 0.0 0.0 0.0 0.0 0.0 1.0 0.0 0.0 0.0 1.0 0.0 0.0 0.0 0.0 0.0 1.0 1.0 0.0 0.0 1:-0.733333 2:-0.866667 3:-0.6 4:-0.6 5:-0.733333 6:-0.0666667 7:0.0666667 8:-0.333333 9:0.2 10:-0.2 11:-0.2 12:0.2 13:-0.866667 14:0.2 15:-0.0666667 16:0.0666667 
0.0 0.0 0.0 0.0 0.0 0.0 0.0 0.0 0.0 0.0 0.0 1.0 0.0 0.0 0.0 0.0 0.0 1.0 0.0 0.0 0.0 0.0 0.0 1.0 0.0 1:-0.733333 2:-0.466667 3:-0.466667 4:-0.733333 5:-0.733333 6:-0.0666667 7:-0.0666667 8:-0.733333 9:0.2 10:0.6 11:-0.2 12:0.0666667 13:-0.866667 14:0.0666667 15:-0.333333 16:0.0666667 
1.0 1.0 1.0 1.0 1.0 1.0 1.0 1.0 1.0 1.0 1.0 1.0 1.0 1.0 1.0 1.0 0.0 1.0 1.0 1.0 0.0 1.0 1.0 1.0 1.0 1:-0.333333 2:0.2 3:-0.2 4:-0.466667 5:-0.6 6:0.333333 7:-0.6 8:-0.6 9:-0.0666667 10:0.6 11:-0.466667 12:0.333333 13:-0.733333 14:0.2 15:-0.466667 16:0.466667 
0.0 1.0 1.0 0.0 0.0 1.0 0.0 1.0 0.0 0.0 1.0 1.0 1.0 1.0 1.0 1.0 0.0 0.0 0.0 1.0 0.0 1.0 1.0 1.0 0.0 1:-0.866667 2:-0.6 3:-0.733333 4:-0.733333 5:-0.866667 6:-0.0666667 7:-0.0666667 8:-0.333333 9:0.0666667 10:-0.2 11:-0.2 12:0.0666667 13:-0.733333 14:0.0666667 15:-0.0666667 16:0.0666667 
0.0 0.0 0.0 0.0 0.0 0.0 0.0 0.0 0.0 0.0 0.0 1.0 0.0 0.0 0.0 1.0 0.0 1.0 0.0 0.0 0.0 0.0 0.0 0.0 1.0 1:-0.866667 2:-0.6 3:-0.6 4:-0.733333 5:-0.866667 6:-0.0666667 7:-0.0666667 8:-0.733333 9:0.2 10:0.466667 11:-0.2 12:0.0666667 13:-0.866667 14:0.0666667 15:-0.333333 16:-0.0666667 
1.0 1.0 0.0 1.0 1.0 0.0 0.0 0.0 1.0 0.0 0.0 1.0 0.0 0.0 0.0 0.883710143220542 1.0 0.0 0.0 1.0 1.0 0.0 0.0 0.0 0.0 1:-0.333333 2:0.0666667 3:-0.0666667 4:-0.2 5:-0.466667 6:-0.333333 7:0.333333 8:-0.6 9:0.333333 10:0.466667 11:0.2 12:-0.2 13:-0.866667 14:0.2 15:-0.2 16:-0.333333 
1.0 1.0 1.0 1.0 1.0 1.0 1.0 1.0 1.0 1.0 1.0 1.0 1.0 1.0 1.0 1.0 1.0 1.0 1.0 1.0 1.0 0.0 1.0 1.0 1.0 1:-0.466667 2:-0.0666667 3:-0.333333 4:-0.333333 5:-0.466667 6:0.2 7:0.0666667 8:-0.333333 9:-0.6 10:-0.0666667 11:-0.333333 12:-0.0666667 13:-0.6 14:-0.0666667 15:0.0666667 16:-0.466667 
0.0 0.3900668042060009 0.0 0.0 0.0 0.0 0.0 0.0 0.0 0.0 0.0 0.0 0.0 0.0 0.0 0.0 0.0 0.0 0.0 0.0 0.0 0.0 0.0 0.0 0.0 1:-0.466667 2:0.0666667 3:-0.2 4:-0.2 5:-0.6 6:0.2 7:-0.333333 8:-0.6 9:0.333333 10:0.466667 11:-0.466667 12:0.2 13:-0.866667 14:-0.0666667 15:-0.2 16:0.2 
1.0 0.0 1.0 1.0 0.0 0.0 0.0 1.0 0.0 0.0 0.0 1.0 0.0 0.0 0.0 0.0 0.0 0.0 0.0 0.0 1.0 0.0 0.0 1.0 1.0 1:-0.733333 2:-0.6 3:-0.466667 4:-0.733333 5:-0.733333 6:-0.0666667 7:0.0666667 8:-0.733333 9:0.2 10:0.6 11:-0.0666667 12:-0.0666667 13:-0.866667 14:0.0666667 15:-0.333333 16:-0.0666667 
0.0 1.0 0.0 0.0 0.0 1.0 0.0 1.0 0.0 1.0 1.0 1.0 1.0 1.0 1.0 1.0 0.0 0.12835538144147415 0.0 0.0 0.0 0.0 1.0 1.0 1.0 1:-0.0666667 2:0.466667 3:-0.0666667 4:-0.2 5:-0.466667 6:0.2 7:-0.333333 8:-0.6 9:0.0666667 10:0.466667 11:-0.466667 12:0.2 13:-0.6 14:-0.2 15:-0.0666667 16:0.2 
0.0 0.0 1.0 0.0 0.0 0.0 0.0 0.0 0.0 0.0 1.0 1.0 0.0 0.0 0.0 1.0 0.0 0.3418711342017598 0.0 0.0 0.0 0.0 0.0 1.0 0.0 1:-0.733333 2:-0.466667 3:-0.333333 4:-0.6 5:-0.733333 6:-0.0666667 7:-0.0666667 8:-0.733333 9:0.2 10:0.6 11:-0.2 12:0.0666667 13:-0.866667 14:0.0666667 15:-0.333333 16:0.0666667 
0.0 1.0 0.0 0.0 0.0 0.0 0.0 0.0 0.0 0.0 0.0 1.0 1.0 0.0 0.0 1.0 0.0 0.0 0.0 0.0 0.0 1.0 1.0 0.0 0.0 1:-0.733333 2:-0.866667 3:-0.6 4:-0.733333 5:-0.866667 6:-0.0666667 7:-0.0666667 8:-0.333333 9:0.2 10:-0.2 11:-0.2 12:0.2 13:-0.866667 14:0.0666667 15:-0.0666667 16:0.0666667 
1.0 1.0 1.0 1.0 1.0 1.0 1.0 1.0 1.0 1.0 0.0 0.0 0.0 1.0 1.0 1.0 1.0 0.0 1.0 1.0 1.0 0.0 0.0 1.0 1.0 1:-0.2 2:0.466667 3:0.0666667 4:0.2 5:0.0666667 6:0.333333 7:-0.0666667 8:-0.333333 9:-0.466667 10:-0.0666667 11:-0.333333 12:-0.0666667 13:-0.466667 14:0.0666667 15:0.333333 16:-0.333333 
0.0 1.0 0.0 0.0 0.0 0.0 0.0 0.0 0.0 0.0 0.0 0.0 0.0 0.0 0.0 1.0 0.1420106752091768 0.0 0.0 0.0 0.0 0.0 0.0 1.0 0.0 1:-0.466667 2:0.0666667 3:-0.2 4:-0.2 5:-0.2 6:0.0666667 7:0.0666667 8:-0.6 9:-0.0666667 10:-0.0666667 11:-0.0666667 12:-0.0666667 13:-0.866667 14:0.2 15:0.333333 16:0.0666667 
0.0 1.0 0.0 1.0 0.0 0.0 0.0 0.0 0.0 0.0 0.0 0.7848478472877759 0.0 1.0 0.0 0.0 1.0 0.0 0.0 0.0 0.0 1.0 0.3383234338639191 1.0 1.0 1:0.0666667 2:0.0666667 3:-0.2 4:0.466667 5:-0.333333 6:-0.0666667 7:-0.0666667 8:-0.466667 9:-0.6 10:0.466667 11:-0.2 12:0.0666667 13:-0.6 14:0.2 15:0.466667 16:-0.2 
0.0 0.0 0.0 0.0 0.0 0.0 0.0 0.0 0.0 0.0 1.0 1.0 0.0 0.0 1.0 0.0 0.0 0.0 0.0 0.0 0.0 0.0 0.0 0.0 0.0 1:-0.466667 2:0.0666667 3:-0.2 4:-0.2 5:-0.466667 6:0.0666667 7:-0.2 8:-0.733333 9:0.2 10:0.466667 11:-0.466667 12:0.333333 13:-0.733333 14:-0.0666667 15:-0.0666667 16:0.2 
0.0 1.0 1.0 0.0 0.0 1.0 1.0 1.0 0.0 1.0 1.0 1.0 1.0 1.0 1.0 1.0 0.0 1.0 0.0 0.0 0.0 0.0 1.0 1.0 1.0 1:-0.466667 2:-0.333333 3:-0.333333 4:-0.0666667 5:-0.466667 6:0.466667 7:-0.333333 8:-0.466667 9:-0.333333 10:0.333333 11:-0.6 12:0.2 13:-0.733333 14:-0.2 15:-0.2 16:0.333333 
0.0 1.0 1.0 1.0 1.0 1.0 0.0 1.0 1.0 1.0 1.0 1.0 1.0 1.0 1.0 1.0 1.0 1.0 0.0 1.0 1.0 1.0 1.0 1.0 1.0 1:-0.866667 2:-0.6 3:-0.733333 4:-0.733333 5:-0.866667 6:-0.0666667 7:-0.0666667 8:-0.466667 9:-0.0666667 10:-0.2 11:-0.2 12:0.0666667 13:-0.866667 14:0.0666667 15:-0.2 16:0.0666667 
0.0 1.0 0.0 0.0 0.0 0.0 0.0 1.0 0.0 0.0 0.0 0.0 0.0 0.0 0.0 1.0 0.0 0.0 0.0 0.0 0.0 0.0 0.0 1.0 0.0 1:-0.6 2:-0.333333 3:-0.6 4:-0.6 5:-0.733333 6:0.0666667 7:-0.0666667 8:-0.333333 9:0.333333 10:-0.2 11:-0.2 12:-0.0666667 13:-0.733333 14:0.0666667 15:-0.0666667 16:0.0666667 
0.0 1.0 0.0 0.0 0.0 0.0 0.0 0.0 0.0 0.0 0.0 1.0 0.0 0.0 1.0 1.0 0.0 1.0 0.0 0.0 0.0 0.0 0.0 0.0 1.0 1:-0.733333 2:-0.2 3:-0.466667 4:-0.466667 5:-0.733333 6:0.0666667 7:-0.0666667 8:-0.733333 9:0.2 10:0.466667 11:-0.333333 12:0.2 13:-0.866667 14:0.0666667 15:-0.333333 16:0.0666667 
0.0 0.0 0.0 0.0 0.0 1.0 0.0 1.0 0.0 0.0 1.0 1.0 0.0 0.0 1.0 1.0 0.0 0.0 0.0 0.0 0.0 0.0 0.0 0.0 0.0 1:-0.333333 2:0.2 3:-0.0666667 4:-0.0666667 5:-0.333333 6:0.2 7:-0.2 8:-0.733333 9:0.2 10:0.466667 11:-0.466667 12:0.2 13:-0.6 14:-0.0666667 15:-0.0666667 16:0.2 
0.0 1.0 0.0 0.0 0.0 0.0 0.0 0.0 0.0 0.0 0.0 1.0 1.0 1.0 1.0 1.0 0.0 0.0 0.0 0.0 0.0 1.0 1.0 1.0 0.0 1:-0.6 2:-0.333333 3:-0.466667 4:-0.466667 5:-0.6 6:-0.0666667 7:-0.0666667 8:-0.333333 9:0.2 10:-0.2 11:-0.2 12:0.0666667 13:-0.866667 14:0.0666667 15:-0.0666667 16:0.0666667 
0.0 1.0 0.0 0.0 0.0 0.0 0.0 0.0 0.0 0.0 0.0 1.0 0.0 0.0 0.0 1.0 0.0 0.0 0.0 0.0 1.0 0.0 0.0 0.0 0.0 1:-0.333333 2:0.2 3:-0.2 4:-0.0666667 5:-0.333333 6:0.0666667 7:-0.0666667 8:-0.333333 9:0.333333 10:-0.0666667 11:-0.2 12:0.0666667 13:-0.866667 14:0.0666667 15:-0.0666667 16:0.0666667 
0.0 0.0 0.0 0.0 0.0 0.0 0.0 0.0 0.0 0.0 0.0 1.0 0.0 0.0 0.0 1.0 0.0 1.0 0.0 0.0 0.0 0.0 0.0 0.0 1.0 1:-0.733333 2:-0.466667 3:-0.466667 4:-0.6 5:-0.733333 6:0.0666667 7:-0.0666667 8:-0.733333 9:0.2 10:0.466667 11:-0.333333 12:0.2 13:-0.866667 14:0.0666667 15:-0.333333 16:0.0666667 
0.0 1.0 0.0 0.0 0.0 1.0 0.0 0.0 0.0 0.0 0.0 1.0 1.0 1.0 1.0 1.0 0.0 0.0 0.0 0.0 0.0 1.0 1.0 1.0 0.0 1:-0.866667 2:-0.6 3:-0.733333 4:-0.733333 5:-0.866667 6:-0.0666667 7:-0.0666667 8:-0.333333 9:0.0666667 10:-0.2 11:-0.2 12:0.0666667 13:-0.866667 14:0.0666667 15:-0.0666667 16:0.0666667 
0.0 1.0 0.0 1.0 0.0 0.0 0.0 0.0 0.0 0.0 0.0 1.0 0.0 0.0 0.0 0.0 0.0 0.0 0.0 0.0 1.0 1.0 0.0 0.0 0.0 1:-0.333333 2:0.2 3:-0.2 4:-0.0666667 5:-0.466667 6:-0.2 7:0.0666667 8:-0.6 9:0.333333 10:0.6 11:-0.0666667 12:0.0666667 13:-0.866667 14:0.2 15:-0.2 16:-0.0666667 
0.0 1.0 1.0 0.0 0.0 1.0 0.0 1.0 0.0 1.0 0.0 0.0 0.0 1.0 1.0 1.0 0.0 1.0 0.0 0.0 0.0 0.0 0.0 1.0 1.0 1:-0.6 2:-0.2 3:-0.333333 4:0.2 5:-0.466667 6:0.466667 7:-0.6 8:-0.733333 9:-0.2 10:0.0666667 11:-0.733333 12:-0.2 13:-0.866667 14:0.0666667 15:-0.2 16:0.2 
0.0 1.0 0.0 0.0 0.0 0.0 0.0 1.0 0.0 0.0 0.0 0.0 0.0 1.0 0.0 0.0 0.0 0.0 0.0 0.0 0.0 0.0 0.0 1.0 1.0 1:-0.333333 2:0.333333 3:-0.2 4:0.0666667 5:-0.2 6:0.2 7:-0.2 8:-0.333333 9:0.2 10:0.0666667 11:-0.333333 12:-0.0666667 13:-0.866667 14:-0.0666667 15:-0.0666667 16:0.0666667 
0.0 1.0 0.0 1.0 1.0 1.0 0.0 0.0 1.0 0.0 1.0 1.0 1.0 1.0 1.0 1.0 1.0 1.0 0.0 1.0 1.0 1.0 1.0 1.0 0.0 1:-0.6 2:0.333333 3:-0.466667 4:0.0666667 5:-0.333333 6:-0.2 7:0.0666667 8:-0.333333 9:0.2 10:-0.0666667 11:-0.0666667 12:0.2 13:-0.733333 14:0.2 15:-0.0666667 16:0.0666667 
0.0 1.0 0.0 0.0 0.0 0.0 0.0 0.0 0.0 0.0 0.0 1.0 0.0 0.0 0.0 1.0 0.0 0.0 0.0 0.0 0.0 0.0 0.0 0.0 0.0 1:-0.733333 2:-0.733333 3:-0.6 4:-0.466667 5:-0.733333 6:0.0666667 7:-0.0666667 8:-0.333333 9:0.2 10:-0.2 11:-0.2 12:0.0666667 13:-0.866667 14:0.0666667 15:-0.0666667 16:0.0666667 
0.0 1.0 0.0 0.0 0.0 0.0 0.0 0.0 0.0 0.0 0.0 1.0 0.0 1.0 1.0 0.0 0.0 0.0 0.0 0.0 0.0 0.0 0.0 0.0 0.0 1:-0.333333 2:0.333333 3:-0.2 4:0.0666667 5:-0.466667 6:0.2 7:-0.333333 8:-0.6 9:0.333333 10:0.466667 11:-0.6 12:0.333333 13:-0.866667 14:0.0666667 15:-0.2 16:0.333333 
1.0 1.0 1.0 0.0 1.0 1.0 1.0 1.0 0.0 1.0 1.0 0.0 1.0 1.0 1.0 1.0 0.0 1.0 0.0 0.0 0.0 0.0 0.9017883175399969 1.0 1.0 1:-0.733333 2:-0.466667 3:-0.466667 4:-0.2 5:-0.6 6:0.466667 7:-0.333333 8:-0.6 9:-0.466667 10:0.2 11:-0.6 12:-0.0666667 13:-0.733333 14:-0.0666667 15:-0.2 16:0.0666667 
0.0 0.0 0.0 0.0 0.0 0.0 0.0 0.0 0.0 0.0 0.0 0.0 0.0 0.0 0.0 1.0 0.0 0.0 0.0 0.0 0.0 0.0 0.0 0.0 0.0 1:-0.866667 2:-1.0 3:-0.733333 4:-0.866667 5:-1.0 6:-0.0666667 7:-0.0666667 8:-0.733333 9:0.333333 10:0.2 11:-0.2 12:0.0666667 13:-1.0 14:0.0666667 15:-0.2 16:0.0666667 
0.0 1.0 0.0 0.0 0.0 0.0 0.0 0.0 0.0 0.0 0.0 0.0 0.0 1.0 0.0 0.0 0.0 0.0 0.0 0.0 0.0 0.0 0.0 0.3990028240944031 1.0 1:-0.2 2:-0.0666667 3:-0.333333 4:0.466667 5:-0.466667 6:0.2 7:-0.2 8:-0.466667 9:-0.6 10:0.466667 11:-0.2 12:0.0666667 13:-0.6 14:0.2 15:0.466667 16:-0.0666667 
0.0 1.0 0.0 0.0 0.0 0.0 0.0 0.0 0.0 0.0 0.0 0.0 0.0 0.0 0.0 0.0 0.0 0.0 0.0 0.0 0.0 0.0 0.0 1.0 0.0 1:-0.466667 2:0.333333 3:-0.333333 4:0.0666667 5:-0.333333 6:0.0666667 7:-0.0666667 8:-0.2 9:0.333333 10:-0.0666667 11:-0.333333 12:-0.0666667 13:-0.866667 14:-0.0666667 15:0.0666667 16:0.0666667 
1.0 1.0 1.0 1.0 1.0 1.0 0.0 1.0 0.0 1.0 1.0 1.0 1.0 1.0 1.0 1.0 0.0 1.0 0.0 0.0 0.0 0.0 1.0 1.0 1.0 1:-0.333333 2:0.0666667 3:-0.0666667 4:0.333333 5:-0.2 6:0.466667 7:-0.333333 8:-0.6 9:-0.333333 10:0.2 11:-0.733333 12:-0.0666667 13:-0.733333 14:-0.0666667 15:-0.2 16:0.2 
0.0 1.0 0.0 0.0 0.0 0.0 0.0 0.0 0.0 0.0 0.0 0.0 0.0 0.0 0.0 0.0 0.0 0.0 0.0 0.0 0.0 0.0 0.0 0.0 0.0 1:-0.6 2:0.0666667 3:-0.466667 4:-0.2 5:-0.6 6:-0.0666667 7:0.0666667 8:-0.6 9:0.466667 10:0.0666667 11:-0.2 12:0.0666667 13:-1.0 14:0.0666667 15:-0.0666667 16:-0.0666667 
0.0 1.0 0.0 0.0 0.0 0.0 0.0 0.0 0.0 0.0 0.0 0.0 0.0 0.0 1.0 1.0 0.0 0.0 0.0 0.0 0.0 0.0 0.0 0.0 0.0 1:-0.466667 2:-0.0666667 3:-0.333333 4:-0.333333 5:-0.333333 6:-0.0666667 7:-0.2 8:-0.733333 9:-0.0666667 10:-0.0666667 11:-0.2 12:0.2 13:-0.866667 14:-0.0666667 15:0.333333 16:0.0666667 
0.0 1.0 0.0 0.0 0.0 0.0 0.0 0.0 0.0 0.0 0.0 0.0 0.0 0.0 0.0 1.0 0.0 0.0 0.0 0.0 0.0 0.0 0.0 0.0 0.0 1:-0.866667 2:-1.0 3:-0.733333 4:-1.0 5:-1.0 6:-0.0666667 7:-0.0666667 8:-0.6 9:0.333333 10:0.0666667 11:-0.2 12:0.0666667 13:-1.0 14:0.0666667 15:-0.2 16:0.0666667 
0.0 0.0 0.0 0.0 0.0 0.0 0.0 0.0 0.0 0.0 0.0 1.0 0.0 0.0 0.0 0.0 0.0 0.0 0.0 0.0 0.0 0.0 0.0 0.0 0.0 1:-0.6 2:-0.333333 3:-0.2 4:-0.466667 5:-0.6 6:0.0666667 7:-0.0666667 8:-0.733333 9:0.333333 10:0.6 11:-0.2 12:0.2 13:-0.866667 14:0.0666667 15:-0.2 16:0.0666667 
0.0 0.0 0.0 0.0 0.0 0.0 0.0 0.0 0.0 0.0 0.0 1.0 0.0 0.0 0.0 0.0 0.0 0.0 0.0 0.0 0.0 0.0 0.0 0.0 0.0 1:-0.466667 2:-0.0666667 3:-0.2 4:-0.333333 5:-0.6 6:-0.0666667 7:-0.0666667 8:-0.733333 9:0.333333 10:0.6 11:-0.2 12:0.0666667 13:-0.866667 14:0.2 15:-0.2 16:0.0666667 
0.0 1.0 0.0 0.0 0.0 0.0 0.0 0.0 0.0 0.0 1.0 1.0 0.0 1.0 1.0 1.0 0.0 0.0 0.0 0.0 1.0 1.0 1.0 0.0 0.0 1:-0.6 2:-0.2 3:-0.466667 4:-0.466667 5:-0.6 6:-0.2 7:0.0666667 8:-0.333333 9:0.333333 10:-0.0666667 11:-0.0666667 12:0.333333 13:-0.866667 14:0.2 15:-0.0666667 16:0.0666667 
0.0 1.0 0.0 0.0 0.0 0.0 0.0 0.0 0.0 0.0 0.0 0.0 0.0 0.0 0.0 0.0 0.0 0.0 0.0 0.0 0.0 0.0 0.0 1.0 0.0 1:-0.333333 2:0.2 3:-0.2 4:-0.0666667 5:-0.466667 6:0.0666667 7:-0.2 8:-0.2 9:0.466667 10:-0.0666667 11:-0.333333 12:-0.2 13:-0.866667 14:-0.0666667 15:0.0666667 16:0.0666667 
0.0 1.0 0.0 0.0 0.0 0.0 0.0 0.0 0.0 0.0 0.0 0.0 0.0 0.0 0.0 1.0 0.0 0.0 0.0 0.0 0.0 0.0 0.0 0.0 0.0 1:-0.866667 2:-1.0 3:-0.733333 4:-0.866667 5:-1.0 6:-0.0666667 7:-0.0666667 8:-0.733333 9:0.333333 10:0.0666667 11:-0.2 12:0.0666667 13:-1.0 14:0.0666667 15:-0.2 16:0.0666667 
1.0 1.0 1.0 1.0 1.0 1.0 1.0 1.0 0.0 1.0 0.0 0.0 1.0 1.0 1.0 1.0 1.0 1.0 0.0 1.0 0.0 0.0 1.0 1.0 1.0 1:-0.733333 2:-0.333333 3:-0.466667 4:-0.2 5:-0.466667 6:0.2 7:-0.2 8:-0.333333 9:-0.466667 10:-0.0666667 11:-0.6 12:-0.2 13:-0.733333 14:-0.0666667 15:-0.0666667 16:-0.2 
0.0 1.0 1.0 1.0 1.0 1.0 0.0 1.0 0.0 0.0 1.0 1.0 1.0 0.0 0.0 1.0 0.0 0.0 0.0 1.0 1.0 0.0 0.0 0.0 0.0 1:-0.0666667 2:0.2 3:-0.0666667 4:-0.333333 5:-0.466667 6:-0.0666667 7:-0.0666667 8:-0.733333 9:0.2 10:0.6 11:-0.2 12:0.0666667 13:-0.6 14:-0.0666667 15:-0.2 16:-0.2 
0.0 1.0 0.0 0.0 0.0 0.0 0.0 0.0 0.0 0.0 0.0 1.0 0.0 1.0 1.0 0.0 0.0 0.0 0.0 0.0 1.0 1.0 1.0 0.0 0.0 1:-0.466667 2:0.333333 3:-0.333333 4:0.0666667 5:-0.466667 6:-0.2 7:0.0666667 8:-0.2 9:0.333333 10:-0.0666667 11:-0.0666667 12:0.333333 13:-0.866667 14:0.2 15:0.0666667 16:0.0666667 
0.0 1.0 0.0 0.0 0.0 0.0 0.0 0.0 0.0 0.0 0.0 0.0 0.0 0.0 0.0 1.0 0.0 0.0 0.0 0.0 0.0 0.0 0.0 0.0 0.0 1:-0.466667 2:0.2 3:-0.2 4:-0.0666667 5:-0.0666667 6:0.0666667 7:-0.0666667 8:-0.733333 9:0.0666667 10:-0.0666667 11:-0.2 12:0.0666667 13:-1.0 14:0.0666667 15:0.2 16:0.0666667 
0.0 1.0 1.0 1.0 0.0 1.0 0.0 1.0 0.0 1.0 1.0 1.0 1.0 1.0 1.0 1.0 0.0 1.0 0.0 1.0 1.0 1.0 1.0 0.0 1.0 1:-0.0666667 2:0.333333 3:-0.0666667 4:-0.2 5:-0.466667 6:0.0666667 7:-0.2 8:-0.733333 9:0.0666667 10:0.6 11:-0.2 12:0.2 13:-0.6 14:0.0666667 15:-0.2 16:-0.0666667 
1.0 1.0 1.0 1.0 0.0 0.0 0.0 0.0 0.0 0.0 1.0 1.0 0.0 0.0 0.0 1.0 0.0 1.0 0.0 0.0 0.0 0.0 0.0 1.0 1.0 1:-0.733333 2:-0.333333 3:-0.333333 4:-0.6 5:-0.733333 6:-0.0666667 7:0.0666667 8:-0.733333 9:0.2 10:0.6 11:-0.2 12:0.0666667 13:-0.866667 14:0.2 15:-0.333333 16:0.0666667 
1.0 1.0 1.0 1.0 1.0 1.0 0.0 1.0 1.0 1.0 0.0 0.0 1.0 1.0 0.0 1.0 1.0 1.0 0.9480111032502316 1.0 1.0 0.0 0.0 1.0 1.0 1:-0.6 2:-0.0666667 3:-0.466667 4:-0.333333 5:-0.466667 6:0.2 7:0.2 8:-0.333333 9:-0.6 10:-0.0666667 11:-0.333333 12:-0.0666667 13:-0.6 14:0.0666667 15:0.2 16:-0.466667 
0.0 1.0 0.0 0.0 0.0 0.0 0.0 0.0 0.0 0.0 0.0 0.0 0.0 0.0 0.0 0.0 0.0 0.0 0.0 0.0 0.0 0.0 0.0 0.0 0.0 1:-0.733333 2:-0.866667 3:-0.733333 4:-0.866667 5:-0.866667 6:-0.0666667 7:-0.0666667 8:-0.6 9:0.466667 10:0.0666667 11:-0.2 12:0.0666667 13:-1.0 14:0.0666667 15:-0.2 16:0.0666667 
0.0 0.0 0.0 1.0 0.0 0.0 0.0 0.0 0.0 0.0 1.0 1.0 0.0 0.0 1.0 1.0 0.0 1.0 0.0 0.0 0.0 0.0 0.0 0.0 1.0 1:-0.866667 2:-0.6 3:-0.733333 4:-0.733333 5:-0.866667 6:-0.0666667 7:-0.0666667 8:-0.866667 9:0.0666667 10:0.466667 11:-0.2 12:0.2 13:-0.866667 14:0.2 15:-0.333333 16:0.0666667 
0.0 1.0 0.0 0.0 0.0 0.9426252263119015 0.0 0.0 0.0 0.0 0.0 1.0 0.0 1.0 1.0 1.0 1.0 1.0 0.0 0.0 1.0 1.0 1.0 1.0 0.0 1:-0.466667 2:0.2 3:-0.333333 4:-0.0666667 5:-0.333333 6:-0.0666667 7:0.0666667 8:-0.333333 9:0.2 10:-0.0666667 11:-0.0666667 12:0.0666667 13:-0.866667 14:0.0666667 15:-0.0666667 16:0.0666667 
0.0 0.0 0.0 1.0 0.0 0.0 0.0 0.0 0.0 0.0 1.0 1.0 0.0 0.0 0.0 1.0 0.0 0.0 0.0 0.0 1.0 1.0 0.0 0.0 0.0 1:-0.333333 2:0.2 3:-0.0666667 4:-0.0666667 5:-0.466667 6:-0.0666667 7:0.0666667 8:-0.733333 9:0.333333 10:0.6 11:-0.2 12:0.2 13:-0.733333 14:0.333333 15:-0.2 16:0.0666667 
0.0 1.0 0.0 0.0 0.0 0.0 0.0 0.0 0.0 0.0 0.0 1.0 0.0 0.0 1.0 0.0 0.0 0.0 0.0 0.0 0.0 0.0 0.0 0.0 0.0 1:-0.466667 2:0.2 3:-0.2 4:-0.0666667 5:-0.2 6:-0.0666667 7:-0.0666667 8:-0.6 9:-0.0666667 10:-0.0666667 11:-0.2 12:0.2 13:-1.0 14:0.0666667 15:0.2 16:-0.0666667 
0.0 1.0 0.0 0.0 0.0 0.0 0.0 0.0 0.0 0.0 0.0 1.0 0.0 0.0 0.0 1.0 0.0 0.0 0.0 0.0 0.0 0.0 0.0 0.0 0.0 1:-0.866667 2:-1.0 3:-0.866667 4:-1.0 5:-1.0 6:-0.0666667 7:-0.0666667 8:-0.733333 9:0.2 10:0.0666667 11:-0.2 12:0.0666667 13:-1.0 14:0.0666667 15:-0.2 16:0.0666667 
0.0 1.0 0.0 0.0 0.0 1.0 0.0 1.0 0.0 0.0 1.0 1.0 1.0 1.0 1.0 1.0 0.0 0.0 0.0 0.0 0.0 1.0 1.0 1.0 0.0 1:-0.733333 2:-0.333333 3:-0.6 4:-0.466667 5:-0.733333 6:-0.0666667 7:-0.0666667 8:-0.333333 9:0.2 10:-0.2 11:-0.2 12:0.0666667 13:-0.733333 14:0.0666667 15:-0.0666667 16:0.0666667 
1.0 1.0 1.0 1.0 1.0 1.0 1.0 1.0 0.0 1.0 1.0 1.0 1.0 1.0 1.0 1.0 0.0 1.0 1.0 1.0 0.0 1.0 1.0 1.0 1.0 1:-0.466667 2:-0.466667 3:-0.2 4:-0.2 5:-0.6 6:0.6 7:-0.466667 8:-0.466667 9:-0.466667 10:0.466667 11:-0.733333 12:0.2 13:-0.733333 14:-0.0666667 15:-0.466667 16:0.466667 
0.0 1.0 0.0 0.0 0.0 0.0 0.0 0.0 0.0 0.0 0.0 1.0 0.0 0.0 0.0 1.0 0.0 0.0 0.0 0.0 0.0 0.0 1.0 1.0 0.0 1:-0.6 2:-0.733333 3:-0.466667 4:-0.466667 5:-0.6 6:-0.0666667 7:-0.0666667 8:-0.333333 9:0.2 10:-0.2 11:-0.2 12:0.0666667 13:-0.866667 14:0.0666667 15:-0.0666667 16:0.0666667 
0.0 1.0 0.0 0.0 0.0 0.0 0.0 0.0 0.0 0.0 0.0 1.0 0.0 1.0 1.0 1.0 1.0 0.0 0.0 0.0 1.0 1.0 1.0 1.0 0.0 1:-0.466667 2:-0.0666667 3:-0.466667 4:-0.333333 5:-0.466667 6:-0.0666667 7:0.0666667 8:-0.333333 9:0.2 10:-0.0666667 11:-0.0666667 12:0.2 13:-0.866667 14:0.2 15:-0.0666667 16:0.0666667 
0.0 0.0 0.0 0.0 0.0 0.0 0.0 0.0 0.0 0.0 0.0 0.0 0.0 0.0 0.0 1.0 0.0 0.0 0.0 0.0 0.0 0.0 0.0 0.0 0.0 1:-0.866667 2:-1.0 3:-0.866667 4:-0.866667 5:-1.0 6:-0.0666667 7:-0.0666667 8:-0.733333 9:0.333333 10:0.0666667 11:-0.2 12:0.0666667 13:-1.0 14:0.0666667 15:-0.2 16:0.0666667 
0.0 0.0 0.0 0.0 0.0 0.0 0.0 0.0 0.0 0.0 0.0 0.0 0.0 0.0 0.0 1.0 0.0 0.0 0.0 0.0 0.0 0.0 0.0 0.0 0.0 1:-0.866667 2:-1.0 3:-0.866667 4:-0.866667 5:-1.0 6:-0.0666667 7:-0.0666667 8:-0.733333 9:0.333333 10:0.0666667 11:-0.2 12:0.0666667 13:-1.0 14:0.0666667 15:-0.2 16:0.0666667 
0.0 1.0 0.0 0.0 0.0 0.0 0.0 0.0 0.0 0.0 0.09394670686458786 1.0 0.0 0.0 0.0 1.0 0.0 0.0 0.0 0.0 0.0 1.0 1.0 1.0 0.0 1:-0.733333 2:-0.6 3:-0.6 4:-0.733333 5:-0.733333 6:-0.0666667 7:0.0666667 8:-0.333333 9:0.2 10:-0.2 11:-0.2 12:0.2 13:-0.866667 14:0.0666667 15:-0.0666667 16:0.0666667 
1.0 1.0 0.0 1.0 0.0 0.0 0.0 1.0 1.0 0.0 0.0 0.0 0.0 0.0 0.0 0.0 1.0 0.0 0.0 0.0 1.0 0.0 0.0 1.0 0.0 1:-0.333333 2:0.2 3:-0.0666667 4:-0.0666667 5:-0.333333 6:-0.2 7:0.2 8:-0.6 9:0.2 10:0.6 11:0.0666667 12:-0.2 13:-0.6 14:0.333333 15:0.0666667 16:-0.2 
0.0 1.0 0.0 0.0 0.0 0.0 0.0 0.0 0.0 0.0 0.0 1.0 0.0 1.0 1.0 0.0 0.0 0.0 0.0 0.0 0.0 1.0 1.0 1.0 1.0 1:0.0666667 2:0.0666667 3:-0.333333 4:0.6 5:-0.333333 6:0.333333 7:-0.6 8:-0.466667 9:-0.333333 10:0.6 11:-0.333333 12:0.2 13:-0.6 14:0.0666667 15:0.2 16:0.466667 
0.0 1.0 0.0 0.0 0.0 0.0 0.0 0.0 0.0 0.0 0.0 0.0 0.0 0.0 0.0 0.0 1.0 0.0 0.0 0.0 1.0 0.0 0.0 0.0 0.0 1:-0.2 2:0.333333 3:0.0666667 4:0.0666667 5:-0.333333 6:-0.0666667 7:0.0666667 8:-0.6 9:0.333333 10:0.6 11:0.0666667 12:-0.0666667 13:-0.733333 14:0.0666667 15:-0.0666667 16:-0.2 
0.0 1.0 0.0 0.0 0.0 0.0 0.0 0.0 0.0 0.0 0.0 1.0 0.0 0.0 0.0 1.0 0.0 1.0 0.0 0.0 0.0 0.0 0.0 0.0 0.0 1:-0.733333 2:-0.6 3:-0.466667 4:-0.733333 5:-0.866667 6:-0.0666667 7:-0.0666667 8:-0.733333 9:0.2 10:0.466667 11:-0.2 12:0.0666667 13:-0.866667 14:0.0666667 15:-0.333333 16:-0.0666667 
1.0 1.0 0.0 1.0 0.0 0.0 0.0 1.0 0.0 0.0 0.0 1.0 0.9403458678269687 1.0 0.0 0.0 0.0 0.0 0.0 0.0 0.0 0.0 1.0 1.0 1.0 1:-0.2 2:-0.0666667 3:-0.333333 4:0.333333 5:-0.466667 6:0.0666667 7:-0.333333 8:-0.333333 9:-0.333333 10:0.466667 11:-0.2 12:-0.0666667 13:-0.6 14:0.2 15:0.2 16:0.0666667 
1.0 1.0 1.0 1.0 1.0 1.0 0.13891464212869736 1.0 1.0 1.0 1.0 1.0 1.0 1.0 0.02100817453971357 1.0 1.0 0.0 1.0 0.0 1.0 1.0 1.0 1.0 1.0 1:-0.333333 2:0.0666667 3:-0.0666667 4:-0.2 5:-0.333333 6:0.2 7:0.0666667 8:-0.2 9:-0.466667 10:-0.0666667 11:-0.333333 12:0.0666667 13:-0.6 14:0.0666667 15:0.333333 16:-0.0666667 
0.0 1.0 0.0 0.0 0.0 1.0 0.0 1.0 0.0 0.0 0.0 1.0 0.0 1.0 0.0 1.0 0.0 0.0 0.0 0.0 0.0 0.0 1.0 1.0 0.0 1:-0.733333 2:-0.333333 3:-0.6 4:-0.6 5:-0.6 6:0.0666667 7:-0.0666667 8:-0.333333 9:0.2 10:-0.2 11:-0.2 12:-0.0666667 13:-0.733333 14:0.0666667 15:-0.0666667 16:0.0666667 
0.0 0.0 0.0 0.0 0.0 0.0 0.0 0.0 0.0 0.0 0.0 1.0 0.0 0.0 0.0 0.0 0.0 0.0 0.0 0.0 0.0 0.0 0.0 0.0 0.0 1:-0.6 2:-0.333333 3:-0.333333 4:-0.466667 5:-0.733333 6:-0.0666667 7:-0.0666667 8:-0.733333 9:0.333333 10:0.6 11:-0.2 12:0.0666667 13:-0.866667 14:0.0666667 15:-0.2 16:0.0666667 
0.0 1.0 0.0 0.0 0.0 0.0 0.0 0.0 0.0 0.0 0.0 0.0 0.0 0.0 0.0 0.0 0.0 1.0 0.0 0.0 0.0 0.0 0.0 1.0 1.0 1:-0.466667 2:0.0666667 3:-0.2 4:-0.2 5:-0.466667 6:0.0666667 7:-0.0666667 8:-0.733333 9:0.2 10:0.6 11:-0.2 12:-0.0666667 13:-0.866667 14:-0.0666667 15:-0.2 16:0.0666667 
0.0 1.0 0.0 0.0 0.0 1.0 0.0 1.0 0.0 0.0 1.0 1.0 1.0 1.0 1.0 1.0 0.0 1.0 0.0 1.0 1.0 1.0 1.0 1.0 0.0 1:-0.733333 2:-0.333333 3:-0.733333 4:-0.466667 5:-0.733333 6:-0.0666667 7:-0.0666667 8:-0.333333 9:0.0666667 10:-0.2 11:-0.2 12:0.0666667 13:-0.733333 14:0.0666667 15:-0.0666667 16:0.0666667 
0.0 0.0 0.0 0.0 0.0 0.0 0.0 0.0 0.0 0.0 0.0 1.0 0.0 0.0 0.0 0.0 0.0 0.0 0.0 0.0 1.0 0.0 0.0 0.0 0.0 1:-0.333333 2:0.0666667 3:-0.0666667 4:-0.2 5:-0.466667 6:-0.0666667 7:0.0666667 8:-0.733333 9:0.333333 10:0.6 11:-0.0666667 12:0.0666667 13:-0.866667 14:0.2 15:-0.2 16:-0.0666667 
1.0 1.0 0.0 1.0 1.0 0.0 0.0 1.0 0.0 0.0 0.0 0.0 0.0 0.0 0.0 1.0 1.0 0.0 0.0 1.0 1.0 0.0 0.0 0.0 0.0 1:-0.2 2:0.466667 3:0.0666667 4:0.0666667 5:-0.333333 6:-0.2 7:0.2 8:-0.6 9:0.466667 10:0.466667 11:0.2 12:-0.2 13:-0.733333 14:0.0666667 15:-0.2 16:-0.333333 
0.0 1.0 1.0 0.0 0.0 1.0 1.0 1.0 0.0 1.0 1.0 1.0 1.0 1.0 1.0 1.0 0.0 1.0 0.0 1.0 1.0 1.0 0.6011912100552222 1.0 1.0 1:-0.333333 2:0.2 3:-0.333333 4:-0.466667 5:-0.6 6:0.0666667 7:-0.2 8:-0.733333 9:0.0666667 10:0.466667 11:-0.2 12:0.2 13:-0.6 14:-0.0666667 15:-0.2 16:-0.0666667 
1.0 1.0 0.0 1.0 0.0 0.0 0.0 1.0 0.0 0.0 0.0 0.0 0.0 0.0 0.0 0.0 1.0 0.0 0.0 0.0 1.0 0.0 0.0 0.0 0.0 1:-0.333333 2:0.0666667 3:-0.0666667 4:-0.2 5:-0.466667 6:-0.2 7:0.2 8:-0.6 9:0.333333 10:0.466667 11:0.2 12:-0.333333 13:-0.866667 14:0.0666667 15:-0.2 16:-0.333333 
0.0 1.0 0.0 1.0 0.0 0.0 0.0 0.0 0.0 0.0 0.0 0.0 0.0 0.0 0.0 0.0 0.0 0.0 0.0 0.0 0.0 0.0 0.0 0.0 0.0 1:-0.0666667 2:0.333333 3:-0.333333 4:0.866667 5:-0.333333 6:-0.0666667 7:0.333333 8:-0.6 9:-0.6 10:0.466667 11:-0.0666667 12:-0.0666667 13:-0.6 14:0.0666667 15:0.866667 16:-0.0666667 
0.0 1.0 0.0 0.0 0.0 1.0 0.0 1.0 0.0 0.0 0.0 1.0 0.0 1.0 1.0 1.0 0.0 0.0 0.0 0.0 1.0 1.0 1.0 1.0 0.0 1:-0.466667 2:0.2 3:-0.333333 4:-0.2 5:-0.333333 6:-0.0666667 7:-0.0666667 8:-0.333333 9:0.2 10:-0.0666667 11:-0.2 12:0.0666667 13:-0.866667 14:0.0666667 15:-0.0666667 16:0.0666667 
1.0 1.0 1.0 1.0 1.0 0.0 0.0 1.0 1.0 0.0 0.0 1.0 1.0 0.0 0.0 1.0 1.0 1.0 1.0 1.0 1.0 0.0 0.0 1.0 1.0 1:-0.466667 2:-0.2 3:-0.333333 4:-0.466667 5:-0.6 6:-0.2 7:0.2 8:-0.6 9:0.0666667 10:0.466667 11:0.2 12:-0.2 13:-0.733333 14:0.2 15:-0.2 16:-0.333333 
1.0 1.0 1.0 1.0 0.0 0.0 0.0 0.0 0.0 0.0 1.0 1.0 0.0 0.0 0.0 1.0 0.0 1.0 0.0 0.0 0.0 0.0 0.0 1.0 1.0 1:-0.733333 2:-0.333333 3:-0.333333 4:-0.6 5:-0.733333 6:-0.0666667 7:0.0666667 8:-0.733333 9:0.2 10:0.6 11:-0.2 12:0.0666667 13:-0.866667 14:0.2 15:-0.333333 16:0.0666667 
1.0 1.0 1.0 1.0 1.0 1.0 1.0 1.0 0.0 1.0 1.0 1.0 1.0 1.0 1.0 1.0 0.0 1.0 1.0 1.0 0.0 0.0 1.0 1.0 1.0 1:-0.6 2:-0.466667 3:-0.333333 4:-0.2 5:-0.466667 6:0.2 7:-0.0666667 8:-0.333333 9:-0.2 10:0.0666667 11:-0.6 12:-0.0666667 13:-0.6 14:-0.2 15:-0.2 16:0.0666667 
0.0 1.0 0.0 0.0 0.0 0.0 0.0 0.0 0.0 0.0 0.0 1.0 0.0 0.0 0.0 0.0 0.0 0.0 0.0 0.0 0.0 1.0 1.0 0.0 0.0 1:-0.466667 2:0.0666667 3:-0.333333 4:-0.2 5:-0.6 6:-0.2 7:0.0666667 8:-0.2 9:0.466667 10:-0.0666667 11:-0.0666667 12:0.333333 13:-0.866667 14:0.2 15:0.0666667 16:0.0666667 
0.0 0.0 0.0 0.0 0.0 0.0 0.0 0.0 0.0 0.0 0.0 1.0 0.0 0.0 0.0 0.0 0.0 0.0 0.0 0.0 1.0 0.0 0.0 0.0 0.0 1:-0.6 2:-0.333333 3:-0.2 4:-0.466667 5:-0.6 6:-0.0666667 7:0.0666667 8:-0.733333 9:0.333333 10:0.6 11:-0.2 12:0.0666667 13:-0.866667 14:0.2 15:-0.333333 16:-0.0666667 
0.0 1.0 0.0 1.0 0.0 0.0 0.0 0.0 0.0 0.0 0.0 1.0 0.0 0.0 0.0 0.0 1.0 1.0 0.0 0.0 1.0 0.0 0.0 0.0 0.0 1:-0.466667 2:0.0666667 3:-0.333333 4:-0.2 5:-0.466667 6:-0.0666667 7:0.0666667 8:-0.733333 9:0.2 10:0.466667 11:-0.0666667 12:0.0666667 13:-0.866667 14:0.2 15:-0.2 16:-0.0666667 
0.0 0.0 0.0 0.0 0.0 0.0 0.0 0.0 0.0 0.0 0.4839039026317412 1.0 0.0 0.0 1.0 1.0 0.0 0.0 0.0 0.0 0.0 0.0 0.0 0.0 0.0 1:-0.333333 2:0.333333 3:-0.0666667 4:0.0666667 5:-0.333333 6:0.0666667 7:-0.2 8:-0.733333 9:0.2 10:0.466667 11:-0.333333 12:0.333333 13:-0.733333 14:-0.0666667 15:-0.0666667 16:0.0666667 
0.0 1.0 1.0 0.0 0.0 0.0 0.0 0.0 0.0 1.0 1.0 1.0 0.0 0.0 1.0 1.0 0.0 1.0 0.0 0.0 0.0 0.0 0.0 0.0 1.0 1:-0.733333 2:-0.6 3:-0.466667 4:-0.733333 5:-0.866667 6:0.0666667 7:-0.2 8:-0.733333 9:0.0666667 10:0.466667 11:-0.333333 12:0.2 13:-0.866667 14:0.0666667 15:-0.333333 16:0.0666667 
0.0 1.0 0.0 0.0 0.0 0.0 0.0 0.0 0.0 0.0 0.0 1.0 0.0 0.0 0.0 1.0 0.0 0.0 0.0 0.0 0.0 0.0 0.0 0.0 0.0 1:-0.733333 2:-0.733333 3:-0.6 4:-0.466667 5:-0.733333 6:0.0666667 7:-0.0666667 8:-0.333333 9:0.2 10:-0.2 11:-0.2 12:0.0666667 13:-0.866667 14:0.0666667 15:-0.0666667 16:0.0666667 
0.0 1.0 0.0 0.0 0.0 0.0 0.0 0.0 0.0 0.0 0.0 1.0 0.0 0.0 1.0 0.0 0.0 0.0 0.0 0.0 0.0 0.0 0.0 0.0 0.0 1:-0.6 2:0.0666667 3:-0.466667 4:-0.2 5:-0.466667 6:-0.2 7:-0.0666667 8:-0.6 9:-0.0666667 10:0.0666667 11:-0.2 12:0.2 13:-1.0 14:0.2 15:0.2 16:-0.0666667 
0.0 1.0 0.0 0.0 0.0 0.0 0.0 0.0 0.0 0.0 0.0 1.0 0.0 0.0 0.0 1.0 0.0 1.0 0.0 0.0 1.0 1.0 0.0 0.0 0.0 1:-0.466667 2:0.2 3:-0.2 4:-0.2 5:-0.6 6:-0.0666667 7:0.0666667 8:-0.733333 9:0.333333 10:0.466667 11:-0.0666667 12:0.2 13:-0.866667 14:0.2 15:-0.2 16:0.0666667 
0.0 1.0 0.0 0.0 0.0 0.0 0.0 0.0 0.0 0.0 0.0 0.0 0.0 0.0 0.0 0.0 0.0 0.0 0.0 0.0 0.0 0.0 0.0 0.0 0.0 1:-0.466667 2:0.466667 3:-0.2 4:0.0666667 5:-0.0666667 6:0.0666667 7:-0.0666667 8:-0.6 9:0.2 10:-0.0666667 11:-0.2 12:-0.0666667 13:-0.866667 14:-0.0666667 15:0.466667 16:0.2 
1.0 1.0 0.0 1.0 0.0 0.0 0.0 0.0 0.0 0.0 0.0 1.0 0.0 0.0 0.0 0.0 1.0 0.0 0.0 0.0 1.0 1.0 0.0 1.0 1.0 1:-0.333333 2:-0.2 3:-0.466667 4:0.2 5:-0.6 6:-0.2 7:0.2 8:-0.333333 9:-0.6 10:0.6 11:-0.0666667 12:-0.0666667 13:-0.733333 14:0.2 15:0.333333 16:-0.2 
0.0 1.0 0.0 1.0 0.0 0.0 0.0 0.0 0.0 0.0 0.0 0.0 0.0 0.0 0.0 0.0 1.0 1.0 0.0 0.0 1.0 0.0 0.0 0.0 1.0 1:-0.6 2:0.0666667 3:-0.333333 4:-0.2 5:-0.6 6:-0.0666667 7:0.2 8:-0.733333 9:0.2 10:0.466667 11:-0.0666667 12:-0.0666667 13:-0.866667 14:0.2 15:-0.2 16:-0.2 
1.0 1.0 1.0 1.0 1.0 1.0 1.0 1.0 1.0 1.0 1.0 0.0 1.0 1.0 1.0 1.0 1.0 1.0 1.0 1.0 1.0 0.0 1.0 1.0 1.0 1:-0.466667 2:-0.333333 3:-0.2 4:-0.0666667 5:-0.333333 6:0.333333 7:-0.333333 8:-0.6 9:-0.333333 10:-0.0666667 11:-0.6 12:-0.2 13:-0.6 14:-0.0666667 15:-0.2 16:-0.0666667 
0.0 1.0 0.0 0.0 0.0 0.0 0.0 0.0 0.0 0.0 0.0 1.0 0.0 0.0 0.0 1.0 0.0 0.0 0.0 0.0 0.0 1.0 1.0 1.0 0.0 1:-0.866667 2:-0.866667 3:-0.733333 4:-0.6 5:-0.866667 6:-0.0666667 7:0.0666667 8:-0.333333 9:0.0666667 10:-0.2 11:-0.2 12:0.2 13:-0.866667 14:0.2 15:-0.0666667 16:0.0666667 
0.0 1.0 0.0 0.0 0.0 0.0 0.0 0.0 0.0 0.0 1.0 1.0 1.0 1.0 1.0 1.0 0.0 0.0 0.0 1.0 1.0 1.0 1.0 0.0 0.0 1:-0.6 2:-0.0666667 3:-0.466667 4:-0.333333 5:-0.6 6:-0.2 7:0.0666667 8:-0.333333 9:0.2 10:-0.0666667 11:-0.0666667 12:0.333333 13:-0.866667 14:0.2 15:-0.0666667 16:0.0666667 
0.0 1.0 0.0 0.0 0.0 0.0 0.0 0.0 0.5374660255482079 0.0 0.0 1.0 0.0 1.0 1.0 1.0 1.0 1.0 0.0 1.0 1.0 1.0 1.0 0.0 0.0 1:-0.333333 2:0.466667 3:-0.2 4:0.0666667 5:-0.2 6:-0.0666667 7:0.0666667 8:-0.333333 9:0.2 10:-0.0666667 11:-0.0666667 12:0.2 13:-0.866667 14:0.2 15:-0.0666667 16:-0.0666667 
0.0 1.0 0.0 0.0 0.0 0.0 0.0 1.0 0.0 0.0 1.0 1.0 0.0 1.0 0.8350470941145429 1.0 0.0 0.0 0.0 0.0 1.0 0.0 0.0 0.0 0.0 1:0.2 2:0.733333 3:0.2 4:-0.0666667 5:-0.2 6:-0.0666667 7:-0.2 8:-0.733333 9:0.2 10:0.6 11:-0.0666667 12:0.2 13:-0.466667 14:-0.2 15:0.0666667 16:-0.2 
0.0 1.0 0.0 0.0 0.0 1.0 0.0 1.0 0.0 0.0 1.0 1.0 0.0 0.0 1.0 1.0 0.0 0.0 0.0 0.0 1.0 0.0 0.0 0.0 0.0 1:-0.0666667 2:0.733333 3:-0.0666667 4:-0.0666667 5:-0.333333 6:-0.2 7:-0.0666667 8:-0.733333 9:0.2 10:0.466667 11:-0.2 12:0.0666667 13:-0.466667 14:-0.333333 15:0.0666667 16:-0.2 
0.0 1.0 0.0 0.0 0.0 0.0 0.0 0.0 0.0 0.0 0.0 0.0 0.0 0.0 0.0 0.0 0.0 0.0 0.0 0.0 0.0 0.0 0.0 0.0 0.0 1:-0.466667 2:0.2 3:-0.2 4:-0.0666667 5:-0.2 6:-0.0666667 7:0.2 8:-0.6 9:0.0666667 10:-0.0666667 11:-0.2 12:0.0666667 13:-0.733333 14:0.333333 15:0.733333 16:-0.2 
1.0 1.0 1.0 1.0 0.0 1.0 0.0 1.0 1.0 1.0 0.0 1.0 1.0 1.0 0.0 0.31429067309363773 1.0 0.0 0.0 0.0 1.0 1.0 1.0 1.0 1.0 1:-0.466667 2:-0.0666667 3:-0.333333 4:-0.333333 5:-0.466667 6:0.2 7:0.2 8:-0.2 9:-0.466667 10:-0.0666667 11:-0.333333 12:0.0666667 13:-0.6 14:0.2 15:0.333333 16:-0.0666667 
0.0 1.0 0.0 0.0 0.0 0.0 0.0 0.0 0.0 0.0 1.0 1.0 0.0 0.0 1.0 1.0 0.0 0.0 0.0 0.0 0.0 1.0 0.0 0.0 0.0 1:-0.6 2:-0.2 3:-0.333333 4:-0.466667 5:-0.466667 6:-0.2 7:-0.0666667 8:-0.6 9:-0.0666667 10:-0.0666667 11:-0.2 12:0.2 13:-1.0 14:0.0666667 15:0.0666667 16:-0.0666667 
0.0 1.0 0.0 0.0 0.0 0.0 0.0 0.0 0.0 0.0 0.0 1.0 0.0 0.0 0.0 1.0 0.0 0.0 0.0 0.0 0.0 0.0 1.0 1.0 0.0 1:-0.733333 2:-0.733333 3:-0.6 4:-0.6 5:-0.733333 6:-0.0666667 7:-0.0666667 8:-0.333333 9:0.2 10:-0.2 11:-0.2 12:0.0666667 13:-0.866667 14:0.0666667 15:-0.0666667 16:0.0666667 
0.0 1.0 0.0 0.0 0.0 0.7003930753695069 0.0 0.0 0.0 0.0 1.0 1.0 1.0 0.0 0.0 1.0 0.0 0.0 0.0 0.0 0.0 0.0 1.0 1.0 0.0 1:-0.733333 2:-0.733333 3:-0.6 4:-0.466667 5:-0.733333 6:-0.0666667 7:-0.0666667 8:-0.333333 9:0.2 10:-0.2 11:-0.2 12:0.0666667 13:-0.733333 14:0.0666667 15:-0.0666667 16:0.0666667 
0.0 1.0 0.0 0.0 0.0 1.0 0.0 1.0 0.0 0.0 0.0 1.0 1.0 1.0 0.0 1.0 0.0 0.0 0.0 0.6112709438534002 0.0 0.0 1.0 1.0 0.0 1:-0.733333 2:-0.866667 3:-0.733333 4:-0.866667 5:-0.866667 6:0.0666667 7:-0.0666667 8:-0.333333 9:0.2 10:-0.2 11:-0.2 12:0.0666667 13:-0.866667 14:0.0666667 15:-0.2 16:0.0666667 
0.0 1.0 0.0 0.0 0.0 0.0 0.0 0.0 0.0 0.0 0.0 1.0 0.0 0.0 0.0 0.0 0.0 1.0 0.0 0.0 0.0 0.0 0.0 0.0 1.0 1:-0.6 2:0.0666667 3:-0.333333 4:-0.2 5:-0.6 6:0.0666667 7:-0.0666667 8:-0.733333 9:0.2 10:0.466667 11:-0.333333 12:0.2 13:-0.866667 14:0.0666667 15:-0.2 16:0.0666667 
0.0 1.0 1.0 0.0 0.0 1.0 0.0 1.0 0.0 0.0 1.0 1.0 0.0 1.0 1.0 1.0 0.0 1.0 0.0 0.0 0.0 0.0 1.0 1.0 1.0 1:-0.466667 2:-0.2 3:-0.333333 4:-0.466667 5:-0.6 6:0.2 7:-0.333333 8:-0.6 9:0.0666667 10:0.466667 11:-0.466667 12:0.2 13:-0.733333 14:-0.0666667 15:-0.2 16:0.333333 
1.0 1.0 1.0 1.0 0.0 0.0 0.0 1.0 1.0 0.0 0.0 1.0 1.0 1.0 0.0 0.0 1.0 0.0 0.0 1.0 1.0 1.0 1.0 1.0 1.0 1:-0.0666667 2:0.0666667 3:-0.333333 4:0.466667 5:-0.466667 6:-0.0666667 7:-0.2 8:-0.2 9:-0.333333 10:0.333333 11:-0.0666667 12:-0.0666667 13:-0.6 14:0.2 15:0.2 16:-0.0666667 
1.0 1.0 0.0 1.0 0.0 0.0 0.0 1.0 0.0 0.0 0.0 0.0 0.0 0.0 0.0 0.0 0.0 0.0 0.0 0.0 1.0 0.0 0.0 1.0 0.0 1:-0.2 2:0.333333 3:0.2 4:-0.0666667 5:-0.333333 6:-0.0666667 7:0.0666667 8:-0.6 9:0.333333 10:0.6 11:-0.0666667 12:-0.2 13:-0.866667 14:0.0666667 15:-0.2 16:-0.0666667 
0.0 0.0 0.0 0.0 0.0 0.0 0.0 0.0 0.0 0.0 0.0 1.0 0.0 0.0 0.0 0.0 0.0 1.0 0.0 0.0 0.0 0.0 0.0 0.0 0.0 1:-0.866667 2:-0.6 3:-0.6 4:-0.733333 5:-0.866667 6:0.0666667 7:-0.0666667 8:-0.733333 9:0.2 10:0.466667 11:-0.2 12:0.2 13:-0.866667 14:0.0666667 15:-0.333333 16:-0.0666667 
0.0 1.0 1.0 0.0 0.0 1.0 0.0 1.0 0.0 0.0 1.0 1.0 1.0 0.0 0.0 1.0 0.0 0.0 0.3326903025572388 1.0 0.0 0.0 1.0 1.0 0.0 1:-0.733333 2:-0.866667 3:-0.6 4:-0.733333 5:-0.733333 6:-0.0666667 7:-0.0666667 8:-0.333333 9:0.2 10:-0.2 11:-0.2 12:0.0666667 13:-0.733333 14:0.0666667 15:-0.0666667 16:0.0666667 
1.0 1.0 1.0 0.0 0.0 1.0 0.0 1.0 0.0 1.0 1.0 0.0 0.0 1.0 1.0 1.0 0.0 1.0 0.0 0.0 0.0 0.0 0.0 1.0 1.0 1:-0.466667 2:-0.333333 3:-0.2 4:0.0666667 5:-0.333333 6:0.466667 7:-0.466667 8:-0.733333 9:-0.333333 10:0.0666667 11:-0.6 12:-0.2 13:-0.866667 14:0.0666667 15:-0.2 16:0.2 
1.0 1.0 1.0 1.0 0.0 1.0 0.0 0.0 0.0 0.0 1.0 1.0 0.0 0.0 0.0 1.0 0.0 1.0 0.0 0.0 1.0 0.0 0.0 1.0 0.0 1:-0.6 2:-0.466667 3:-0.333333 4:-0.6 5:-0.733333 6:-0.0666667 7:0.0666667 8:-0.733333 9:0.2 10:0.466667 11:-0.2 12:0.0666667 13:-0.866667 14:0.2 15:-0.333333 16:0.0666667 
0.0 1.0 0.0 0.0 0.0 0.0 0.0 0.0 0.0 0.0 0.0 0.0 0.0 0.0 0.0 0.0 0.0 0.0 0.0 0.0 0.0 0.0 0.0 0.0 0.0 1:-0.466667 2:0.2 3:-0.2 4:-0.2 5:-0.2 6:-0.0666667 7:-0.0666667 8:-0.6 9:0.0666667 10:0.0666667 11:-0.2 12:0.2 13:-0.866667 14:0.0666667 15:0.466667 16:-0.0666667 
1.0 1.0 1.0 1.0 0.0 0.0 0.0 1.0 0.0 0.0 0.0 0.0 0.0 0.0 0.0 1.0 1.0 1.0 0.0 0.0 1.0 0.0 0.0 0.0 0.0 1:-0.466667 2:-0.0666667 3:-0.2 4:-0.333333 5:-0.466667 6:-0.2 7:0.2 8:-0.733333 9:0.2 10:0.466667 11:0.0666667 12:-0.2 13:-0.866667 14:0.0666667 15:-0.2 16:-0.2 
0.0 1.0 1.0 0.0 1.0 1.0 1.0 1.0 0.0 1.0 0.0 0.0 0.0 1.0 1.0 1.0 1.0 0.0 1.0 0.0 0.0 0.0 1.0 1.0 0.0 1:-0.333333 2:-0.0666667 3:-0.0666667 4:-0.333333 5:-0.2 6:0.2 7:-0.333333 8:-0.333333 9:-0.466667 10:-0.0666667 11:-0.333333 12:-0.0666667 13:-0.6 14:-0.0666667 15:0.333333 16:-0.333333 
1.0 1.0 1.0 0.03010794132608086 0.0 1.0 0.0 1.0 0.0 1.0 1.0 -0.0 0.0 1.0 1.0 1.0 0.0 1.0 0.0 0.0 0.0 0.0 1.0 1.0 1.0 1:-0.6 2:-0.333333 3:-0.333333 4:0.0666667 5:-0.466667 6:0.6 7:-0.466667 8:-0.733333 9:-0.333333 10:0.2 11:-0.6 12:-0.0666667 13:-0.866667 14:0.0666667 15:-0.333333 16:0.333333 
1.0 1.0 0.0 1.0 0.0 0.0 0.0 1.0 0.0 0.0 0.0 1.0 0.0 0.0 0.0 1.0 0.0 0.0 0.0 0.0 1.0 0.0 0.0 1.0 0.0 1:-0.333333 2:0.0666667 3:-0.0666667 4:-0.2 5:-0.466667 6:-0.0666667 7:0.0666667 8:-0.733333 9:0.333333 10:0.6 11:-0.2 12:-0.0666667 13:-0.733333 14:0.0666667 15:-0.2 16:0.0666667 
1.0 1.0 1.0 1.0 0.0689222993765001 1.0 0.0 0.0 1.0 0.0 1.0 1.0 1.0 1.0 1.0 1.0 1.0 1.0 0.7209470645944815 1.0 1.0 1.0 1.0 1.0 1.0 1:-0.466667 2:0.466667 3:-0.333333 4:0.0666667 5:-0.2 6:-0.2 7:0.0666667 8:-0.333333 9:0.0666667 10:0.0666667 11:0.0666667 12:0.2 13:-0.866667 14:0.333333 15:-0.0666667 16:0.0666667 
0.0 1.0 1.0 1.0 0.0 0.0 0.0 0.0 0.0 0.0 1.0 1.0 0.0 0.0 1.0 1.0 0.0 0.0 0.0 0.0 1.0 1.0 0.0 0.0 0.0 1:-0.2 2:0.333333 3:0.0666667 4:-0.0666667 5:-0.2 6:-0.0666667 7:-0.0666667 8:-0.733333 9:0.2 10:0.6 11:-0.2 12:0.2 13:-0.866667 14:0.2 15:-0.2 16:0.0666667 
0.0 1.0 0.0 0.0 0.0 1.0 0.0 1.0 0.0 0.0 1.0 1.0 1.0 1.0 1.0 1.0 0.0 0.0 0.0 0.0 0.0 1.0 1.0 1.0 0.0 1:-0.733333 2:-0.333333 3:-0.6 4:-0.6 5:-0.733333 6:-0.0666667 7:-0.0666667 8:-0.333333 9:0.2 10:-0.2 11:-0.2 12:0.0666667 13:-0.733333 14:0.0666667 15:-0.0666667 16:0.0666667 
0.0 0.0 0.0 1.0 0.0 0.0 0.0 0.0 0.0 0.0 1.0 1.0 0.0 0.0 0.0 1.0 0.0 0.0 0.0 0.0 0.0 1.0 0.0 0.0 0.0 1:-0.466667 2:0.0666667 3:-0.2 4:-0.2 5:-0.6 6:-0.0666667 7:-0.0666667 8:-0.733333 9:0.333333 10:0.6 11:-0.333333 12:0.2 13:-0.733333 14:0.333333 15:-0.2 16:0.2 
0.0 1.0 0.0 0.0 0.0 0.0 0.0 0.0 0.0 0.0 0.0 1.0 0.0 0.0 0.0 1.0 0.0 1.0 0.0 0.0 0.0 0.0 0.0 0.0 1.0 1:-0.6 2:0.0666667 3:-0.333333 4:-0.2 5:-0.6 6:0.0666667 7:-0.0666667 8:-0.733333 9:0.2 10:0.466667 11:-0.2 12:0.0666667 13:-0.733333 14:0.0666667 15:-0.2 16:0.0666667 
0.0 1.0 1.0 1.0 0.0 0.0 0.0 1.0 0.0 0.0 1.0 1.0 0.0 0.0 0.0 1.0 0.0 1.0 0.0 0.0 0.0 0.0 0.0 1.0 1.0 1:-0.466667 2:-0.2 3:-0.2 4:-0.466667 5:-0.466667 6:0.0666667 7:-0.0666667 8:-0.733333 9:0.2 10:0.6 11:-0.2 12:0.0666667 13:-0.866667 14:0.0666667 15:-0.333333 16:0.0666667 
1.0 1.0 1.0 1.0 1.0 1.0 1.0 1.0 1.0 1.0 1.0 1.0 1.0 1.0 1.0 1.0 1.0 1.0 1.0 1.0 1.0 1.0 1.0 1.0 1.0 1:-0.466667 2:-0.2 3:-0.2 4:-0.466667 5:-0.466667 6:0.2 7:0.333333 8:-0.333333 9:-0.333333 10:-0.2 11:-0.333333 12:-0.0666667 13:-0.6 14:0.0666667 15:-0.2 16:-0.333333 
0.0 1.0 0.0 0.0 0.0 0.0 0.0 0.0 0.0 0.0 0.0 0.0 0.0 0.0 0.0 1.0 0.0 0.0 0.0 0.0 0.0 0.0 0.0 0.0 0.0 1:-0.866667 2:-1.0 3:-0.733333 4:-0.866667 5:-1.0 6:-0.0666667 7:-0.0666667 8:-0.733333 9:0.333333 10:0.0666667 11:-0.2 12:0.0666667 13:-1.0 14:0.0666667 15:-0.2 16:0.0666667 
0.0 0.0 0.0 0.0 0.0 0.0 0.0 0.0 0.0 0.0 0.0 0.0 0.0 0.0 0.0 1.0 0.0 0.0 0.0 0.0 0.0 0.0 0.0 0.0 0.0 1:-0.866667 2:-1.0 3:-0.866667 4:-0.866667 5:-1.0 6:-0.0666667 7:-0.0666667 8:-0.733333 9:0.333333 10:0.0666667 11:-0.2 12:0.0666667 13:-1.0 14:0.0666667 15:-0.2 16:0.0666667 
0.0 1.0 0.0 0.0 0.0 0.0 0.0 1.0 0.0 0.0 0.0 0.0 0.0 0.0 0.0 0.0 0.0 0.0 0.0 0.0 1.0 0.0 0.0 0.0 1.0 1:-0.733333 2:-0.466667 3:-0.333333 4:-0.6 5:-0.733333 6:-0.0666667 7:0.0666667 8:-0.733333 9:0.2 10:0.6 11:-0.0666667 12:-0.0666667 13:-0.866667 14:0.0666667 15:-0.333333 16:-0.2 
0.0 0.0 0.0 0.0 0.0 0.0 0.0 0.0 0.0 0.0 0.0 0.0 0.0 0.0 0.0 1.0 0.0 0.0 0.0 0.0 0.0 0.0 0.0 0.0 0.0 1:-0.866667 2:-1.0 3:-0.733333 4:-0.866667 5:-1.0 6:-0.0666667 7:-0.0666667 8:-0.733333 9:0.466667 10:0.0666667 11:-0.2 12:0.0666667 13:-1.0 14:0.0666667 15:-0.2 16:0.0666667 
0.0 0.0 0.0 1.0 0.0 0.0 0.0 0.0 0.0 0.0 0.0 1.0 0.0 0.0 0.0 0.0 0.0 0.0 0.0 0.0 1.0 0.0 0.0 0.0 0.0 1:-0.466667 2:0.2 3:-0.2 4:-0.2 5:-0.466667 6:-0.0666667 7:0.0666667 8:-0.733333 9:0.333333 10:0.6 11:-0.0666667 12:0.0666667 13:-0.866667 14:0.2 15:-0.2 16:0.0666667 
0.0 1.0 1.0 0.0 0.735270566875283 1.0 0.0 1.0 0.0 1.0 1.0 1.0 1.0 1.0 1.0 1.0 0.0 1.0 0.0 1.0 1.0 1.0 1.0 1.0 0.0 1:-0.733333 2:-0.6 3:-0.733333 4:-0.866667 5:-0.866667 6:-0.0666667 7:-0.0666667 8:-0.333333 9:0.0666667 10:-0.2 11:-0.2 12:0.0666667 13:-0.866667 14:0.0666667 15:-0.2 16:0.0666667 
1.0 1.0 1.0 1.0 0.0 0.0 0.0 0.0 0.0 0.0 1.0 1.0 0.0 0.0 0.0 1.0 0.0 1.0 0.0 0.0 1.0 0.0 0.0 1.0 0.0 1:-0.2 2:0.333333 3:0.0666667 4:-0.0666667 5:-0.2 6:-0.0666667 7:-0.0666667 8:-0.733333 9:0.2 10:0.6 11:-0.2 12:0.0666667 13:-0.866667 14:0.0666667 15:-0.2 16:0.0666667 
0.0 1.0 0.0 0.0 0.0 0.0 0.0 1.0 0.0 1.0 1.0 1.0 1.0 1.0 1.0 1.0 0.0 1.0 0.0 0.7832104879814414 1.0 1.0 0.0 0.0 1.0 1:0.0666667 2:0.866667 3:0.0666667 4:0.0666667 5:-0.333333 6:0.0666667 7:-0.333333 8:-0.733333 9:0.2 10:0.6 11:-0.2 12:0.2 13:-0.6 14:-0.0666667 15:-0.2 16:-0.0666667 
0.0 1.0 1.0 0.0 0.0 0.0 0.0 1.0 0.0 0.0 1.0 1.0 0.0 0.0 0.0 1.0 0.0 0.0 0.0 0.0 1.0 0.0 0.0 1.0 0.0 1:-0.0666667 2:0.466667 3:0.2 4:0.0666667 5:-0.2 6:0.0666667 7:-0.0666667 8:-0.6 9:0.333333 10:0.6 11:-0.2 12:0.0666667 13:-0.733333 14:-0.0666667 15:-0.2 16:0.0666667 
0.0 1.0 0.0 0.0 0.0 0.8129061233373034 0.0 0.0 0.0 0.0 1.0 1.0 0.0 1.0 1.0 1.0 0.0 1.0 0.0 0.0 0.0 1.0 0.0 0.0 1.0 1:-0.466667 2:0.0666667 3:-0.333333 4:-0.2 5:-0.466667 6:0.0666667 7:-0.2 8:-0.733333 9:0.2 10:0.466667 11:-0.333333 12:0.2 13:-0.866667 14:0.0666667 15:-0.333333 16:0.2 
0.0 1.0 0.0 0.0 0.0 0.0 0.0 0.0 0.0 0.0 0.0 1.0 0.0 0.0 0.0 0.8411853680914078 0.0 0.0 0.0 0.0 1.0 0.0 0.0 0.0 0.0 1:-0.2 2:0.2 3:0.0666667 4:-0.0666667 5:-0.333333 6:-0.0666667 7:-0.0666667 8:-0.733333 9:0.2 10:0.6 11:-0.2 12:0.0666667 13:-0.866667 14:0.0666667 15:-0.2 16:-0.0666667 
0.0 1.0 0.0 0.2344349973720825 0.0 1.0 0.0 0.0 0.0 0.0 1.0 1.0 0.0 0.0 0.0 1.0 0.0 1.0 0.0 0.0 0.0 0.0 0.0 1.0 1.0 1:-0.733333 2:-0.333333 3:-0.466667 4:-0.6 5:-0.733333 6:-0.0666667 7:-0.0666667 8:-0.733333 9:0.2 10:0.466667 11:-0.2 12:0.0666667 13:-0.866667 14:0.0666667 15:-0.333333 16:0.0666667 
0.0 0.0 0.0 0.0 0.0 0.0 0.0 0.0 0.0 0.0 0.0 0.0 0.0 0.0 0.0 0.0 0.0 1.0 0.0 0.0 1.0 0.0 0.0 0.0 0.1995293467442959 1:-0.733333 2:-0.333333 3:-0.466667 4:-0.466667 5:-0.733333 6:-0.0666667 7:0.0666667 8:-0.733333 9:0.333333 10:0.6 11:-0.0666667 12:-0.0666667 13:-0.866667 14:0.0666667 15:-0.333333 16:-0.2 
0.0 1.0 0.0 1.0 0.0 0.0 0.0 0.0 0.0 0.0 0.0 1.0 0.0 0.0 0.0 1.0 0.0 1.0 0.0 0.0 0.7462044581535512 0.0 0.0 0.0 1.0 1:-0.466667 2:0.0666667 3:-0.2 4:-0.2 5:-0.466667 6:-0.0666667 7:0.0666667 8:-0.733333 9:0.2 10:0.466667 11:-0.2 12:0.0666667 13:-0.866667 14:0.0666667 15:-0.2 16:0.0666667 
0.0 1.0 0.0 0.0 0.0 0.0 0.0 0.0 0.0 0.0 0.0 0.0 0.0 0.0 0.0 1.0 1.0 1.0 0.0 0.0 1.0 0.0 0.0 0.0 1.0 1:-0.733333 2:-0.466667 3:-0.466667 4:-0.6 5:-0.866667 6:-0.0666667 7:0.0666667 8:-0.733333 9:0.2 10:0.466667 11:-0.0666667 12:-0.0666667 13:-0.866667 14:0.0666667 15:-0.333333 16:-0.2 
0.0 1.0 0.0 0.0 0.0 0.0 0.0 0.0 0.0 0.0 0.0 0.0 0.0 0.0 0.0 1.0 0.0 0.0 0.0 0.0 0.0 0.0 0.0 0.0 0.0 1:-0.866667 2:-1.0 3:-0.733333 4:-0.866667 5:-1.0 6:-0.0666667 7:-0.0666667 8:-0.733333 9:0.333333 10:0.0666667 11:-0.2 12:0.0666667 13:-1.0 14:0.0666667 15:-0.2 16:0.0666667 
1.0 1.0 1.0 1.0 0.0 0.0 0.0 0.0 0.0 0.0 1.0 1.0 0.0 0.0 0.0 1.0 0.0 1.0 0.0 0.0 1.0 0.0 0.0 1.0 1.0 1:-0.0666667 2:0.333333 3:0.2 4:0.0666667 5:-0.2 6:-0.0666667 7:0.0666667 8:-0.733333 9:0.2 10:0.6 11:-0.0666667 12:-0.0666667 13:-0.866667 14:0.0666667 15:-0.2 16:0.0666667 
0.0 1.0 0.0 1.0 0.0 0.0 0.0 0.0 0.0 0.0 0.0 0.0 0.0 0.0 0.0 0.0 0.6135131481772552 0.0 0.0 0.0 0.0 0.0 0.0 1.0 0.0 1:0.2 2:0.333333 3:-0.2 4:0.866667 5:-0.2 6:-0.2 7:0.333333 8:-0.466667 9:-0.733333 10:0.6 11:-0.0666667 12:-0.2 13:-0.6 14:0.2 15:0.866667 16:-0.2 
0.0 0.0 0.0 0.0 0.0 0.0 0.0 0.0 0.0 0.0 0.0 1.0 0.0 0.0 0.0 0.0 0.0 1.0 0.0 0.0 0.0 0.0 0.0 0.0 0.0 1:-0.6 2:-0.0666667 3:-0.466667 4:-0.333333 5:-0.733333 6:-0.0666667 7:0.0666667 8:-0.733333 9:0.333333 10:0.466667 11:-0.0666667 12:0.0666667 13:-0.866667 14:0.2 15:-0.2 16:-0.0666667 
0.0 1.0 0.0 0.0 0.0 0.0 0.0 1.0 0.0 0.0 0.0 0.0 0.0 0.0 0.0 1.0 0.0 0.0 0.0 0.0 1.0 0.0 0.0 1.0 0.0 1:-0.333333 2:0.333333 3:-0.2 4:0.0666667 5:-0.2 6:0.0666667 7:-0.0666667 8:-0.333333 9:0.333333 10:-0.0666667 11:-0.2 12:-0.0666667 13:-0.866667 14:0.0666667 15:-0.0666667 16:0.0666667 
0.0 1.0 0.0 0.0 0.0 0.0 0.0 0.0 0.0 0.0 0.0 1.0 0.0 1.0 1.0 1.0 0.7024397183941252 1.0 0.0 0.0 1.0 1.0 1.0 0.0 0.0 1:-0.466667 2:0.333333 3:-0.333333 4:-0.0666667 5:-0.333333 6:-0.0666667 7:0.0666667 8:-0.333333 9:0.2 10:-0.0666667 11:-0.2 12:0.2 13:-0.866667 14:0.2 15:-0.0666667 16:-0.0666667 
0.0 1.0 0.0 0.0 0.0 1.0 0.0 1.0 0.0 0.0 0.0 0.0 0.0 0.0 0.0 1.0 0.0 1.0 0.0 0.0 0.0 0.0 1.0 1.0 0.0 1:-0.866667 2:-0.6 3:-0.733333 4:-0.733333 5:-0.866667 6:0.0666667 7:-0.0666667 8:-0.333333 9:0.0666667 10:-0.2 11:-0.2 12:-0.0666667 13:-0.866667 14:0.0666667 15:-0.0666667 16:0.0666667 
0.0 0.0 0.0 0.0 0.0 0.0 0.0 0.0 0.0 0.0 0.0 1.0 0.0 0.0 1.0 1.0 0.0 0.0 0.0 0.0 0.0 0.0 0.0 0.0 0.0 1:-0.466667 2:0.0666667 3:-0.333333 4:-0.2 5:-0.6 6:0.0666667 7:-0.2 8:-0.733333 9:0.333333 10:0.466667 11:-0.466667 12:0.2 13:-0.733333 14:0.0666667 15:-0.2 16:0.2 
0.0 1.0 1.0 0.0 0.0 1.0 0.0 0.6337434504316244 0.0 0.0 1.0 1.0 1.0 1.0 0.0 1.0 0.0 0.0 0.0 0.0 0.0 0.0 1.0 1.0 0.0 1:-0.733333 2:-0.733333 3:-0.6 4:-0.6 5:-0.733333 6:-0.0666667 7:-0.0666667 8:-0.333333 9:0.2 10:-0.2 11:-0.2 12:0.0666667 13:-0.733333 14:0.0666667 15:-0.0666667 16:0.0666667 
0.0 1.0 0.0 0.0 0.0 1.0 0.0 1.0 0.0 0.0 1.0 1.0 1.0 1.0 1.0 1.0 0.0 0.0 0.0 0.0 0.0 1.0 1.0 1.0 0.0 1:-0.733333 2:-0.466667 3:-0.6 4:-0.6 5:-0.733333 6:-0.0666667 7:-0.0666667 8:-0.333333 9:0.2 10:-0.2 11:-0.2 12:0.0666667 13:-0.733333 14:0.0666667 15:-0.0666667 16:0.0666667 
0.0 1.0 0.0 0.0 0.0 1.0 0.0 1.0 0.0 1.0 0.0 0.0 0.0 1.0 0.0 0.0 0.0 0.0 0.0 0.0 0.0 0.0 1.0 1.0 0.0 1:-0.2 2:0.333333 3:0.0666667 4:-0.0666667 5:-0.2 6:0.333333 7:-0.2 8:-0.333333 9:-0.466667 10:0.0666667 11:-0.333333 12:-0.0666667 13:-0.6 14:-0.0666667 15:0.466667 16:-0.0666667 
0.0 1.0 0.0 0.0 0.0 0.0 0.0 0.0 0.0 0.0 0.0 1.0 1.0 0.0 0.0 1.0 0.0 0.0 0.0 0.0 0.0 1.0 1.0 0.0 0.0 1:-0.866667 2:-0.866667 3:-0.733333 4:-0.733333 5:-0.866667 6:-0.0666667 7:0.0666667 8:-0.333333 9:0.0666667 10:-0.2 11:-0.2 12:0.2 13:-0.866667 14:0.0666667 15:-0.0666667 16:-0.0666667 
0.0 1.0 0.0 0.0 0.0 0.0 0.0 0.0 0.0 0.34163728210562144 0.0 1.0 0.0 1.0 1.0 0.0 0.0 0.0 0.0 0.0 0.0 0.0 1.0 1.0 1.0 1:-0.0666667 2:-0.0666667 3:-0.333333 4:0.333333 5:-0.333333 6:0.2 7:-0.466667 8:-0.466667 9:-0.6 10:0.466667 11:-0.2 12:0.2 13:-0.6 14:0.2 15:0.466667 16:0.0666667 
1.0 1.0 1.0 1.0 1.0 1.0 1.0 1.0 1.0 1.0 1.0 1.0 1.0 1.0 1.0 1.0 0.0 1.0 0.19146955629532353 1.0 1.0 1.0 1.0 1.0 1.0 1:-0.0666667 2:0.733333 3:-0.0666667 4:-0.0666667 5:-0.466667 6:0.0666667 7:-0.333333 8:-0.733333 9:0.0666667 10:0.466667 11:-0.333333 12:0.2 13:-0.6 14:0.2 15:-0.333333 16:0.2 
0.0 1.0 1.0 0.0 0.0 1.0 0.0 1.0 0.0 0.0 1.0 1.0 1.0 1.0 1.0 1.0 1.0 0.0 0.0 1.0 0.0 1.0 1.0 1.0 0.0 1:-0.733333 2:-0.866667 3:-0.733333 4:-0.866667 5:-0.866667 6:-0.0666667 7:-0.0666667 8:-0.333333 9:0.0666667 10:-0.2 11:-0.2 12:0.0666667 13:-0.866667 14:0.0666667 15:-0.2 16:0.0666667 
1.0 1.0 1.0 1.0 1.0 1.0 1.0 1.0 1.0 1.0 1.0 0.0 0.0 1.0 1.0 1.0 1.0 0.0 1.0 1.0 1.0 0.0 1.0 1.0 1.0 1:-0.333333 2:0.0666667 3:-0.0666667 4:-0.2 5:-0.2 6:0.2 7:-0.0666667 8:-0.333333 9:-0.466667 10:-0.0666667 11:-0.333333 12:-0.0666667 13:-0.466667 14:0.0666667 15:0.333333 16:-0.333333 
0.0 1.0 0.0 0.0 0.0 0.0 0.0 0.0 0.0 0.0 0.0 1.0 0.0 0.0 0.0 0.0 0.0 1.0 0.0 0.0 0.0 0.0 0.0 0.0 1.0 1:-0.2 2:0.333333 3:0.0666667 4:0.0666667 5:-0.2 6:0.0666667 7:-0.0666667 8:-0.733333 9:0.2 10:0.6 11:-0.333333 12:0.0666667 13:-0.866667 14:0.0666667 15:-0.2 16:0.0666667 
0.0 1.0 0.0 0.0 0.0 1.0 1.0 1.0 0.0 0.0 1.0 1.0 1.0 1.0 1.0 0.0 0.0 0.0 0.0 0.0 0.0 1.0 1.0 1.0 1.0 1:0.0666667 2:0.866667 3:0.0666667 4:0.0666667 5:-0.333333 6:0.466667 7:-0.466667 8:-0.333333 9:0.0666667 10:0.6 11:-0.6 12:0.333333 13:-0.466667 14:-0.466667 15:0.0666667 16:0.6 
0.0 0.0 0.0 0.0 0.0 0.0 0.0 0.0 0.0 0.0 1.0 1.0 0.0 1.0 1.0 1.0 0.0 1.0 0.0 0.0 0.0 0.0 0.0 0.0 1.0 1:-0.466667 2:0.0666667 3:-0.333333 4:-0.2 5:-0.466667 6:0.0666667 7:-0.2 8:-0.733333 9:0.2 10:0.466667 11:-0.333333 12:0.2 13:-0.733333 14:0.0666667 15:-0.2 16:0.2 
0.0 1.0 0.0 1.0 0.0 0.0 0.0 1.0 0.0 0.0 0.0 1.0 0.0 0.0 0.0 1.0 0.0 1.0 0.0 0.0 1.0 0.0 0.0 0.0 1.0 1:-0.733333 2:-0.333333 3:-0.466667 4:-0.466667 5:-0.733333 6:-0.0666667 7:0.0666667 8:-0.733333 9:0.2 10:0.466667 11:-0.0666667 12:-0.0666667 13:-0.866667 14:0.0666667 15:-0.333333 16:-0.0666667 
0.0 1.0 0.0 0.0 0.0 0.0 0.0 0.0 0.0 0.0 0.0 1.0 0.0 0.0 0.0 1.0 0.0 0.0 0.0 0.0 0.0 0.0 1.0 1.0 0.0 1:-0.733333 2:-0.866667 3:-0.6 4:-0.733333 5:-0.733333 6:-0.0666667 7:-0.0666667 8:-0.333333 9:0.2 10:-0.2 11:-0.2 12:0.0666667 13:-0.866667 14:0.0666667 15:-0.0666667 16:0.0666667 
0.0 1.0 0.0 0.0 0.0 1.0 0.0 1.0 0.0 0.0 0.0 1.0 0.0 0.0 0.0 1.0 0.0 0.0 0.0 0.0 0.0 0.0 1.0 1.0 0.0 1:-0.733333 2:-0.466667 3:-0.6 4:-0.6 5:-0.733333 6:0.0666667 7:-0.0666667 8:-0.333333 9:0.2 10:-0.2 11:-0.2 12:-0.0666667 13:-0.733333 14:0.0666667 15:-0.0666667 16:0.0666667 
0.0 0.0 0.0 0.0 0.0 0.0 0.0 0.0 0.0 0.0 0.0 1.0 0.0 0.0 0.0 0.0 0.0 0.0 0.0 0.0 0.0 0.0 0.0 0.0 0.0 1:-0.733333 2:-0.466667 3:-0.466667 4:-0.6 5:-0.733333 6:0.0666667 7:-0.2 8:-0.733333 9:0.2 10:0.466667 11:-0.333333 12:0.2 13:-0.866667 14:0.0666667 15:-0.2 16:0.2 
1.0 1.0 1.0 0.0 1.0 1.0 1.0 1.0 0.0 1.0 1.0 0.0 1.0 1.0 1.0 1.0 0.0 1.0 0.0 0.0 0.0 0.0 1.0 1.0 1.0 1:-0.333333 2:0.0666667 3:-0.0666667 4:0.333333 5:-0.2 6:0.466667 7:-0.466667 8:-0.6 9:-0.333333 10:0.2 11:-0.733333 12:-0.0666667 13:-0.733333 14:-0.0666667 15:-0.2 16:0.2 
1.0 1.0 1.0 1.0 1.0 1.0 1.0 1.0 1.0 1.0 1.0 0.0 1.0 1.0 0.0 1.0 1.0 0.0 1.0 1.0 1.0 0.0 1.0 1.0 1.0 1:-0.466667 2:-0.2 3:-0.2 4:-0.466667 5:-0.466667 6:0.2 7:0.2 8:-0.333333 9:-0.466667 10:-0.0666667 11:-0.333333 12:-0.0666667 13:-0.6 14:0.0666667 15:0.2 16:-0.333333 
0.0 0.0 0.0 0.0 0.0 0.0 0.0 0.0 0.0 0.0 0.0 1.0 0.0 0.0 0.0 1.0 0.0 0.0 0.0 0.0 0.0 0.0 0.0 0.0 1.0 1:-0.733333 2:-0.466667 3:-0.333333 4:-0.6 5:-0.733333 6:0.0666667 7:-0.0666667 8:-0.733333 9:0.2 10:0.6 11:-0.2 12:0.0666667 13:-0.866667 14:0.0666667 15:-0.333333 16:0.0666667 
0.0 1.0 0.0 0.0 0.0 0.0 0.0 0.0 0.0 0.0 0.0 1.0 0.0 0.0 1.0 0.0 0.0 0.0 0.0 0.0 0.0 0.0 0.0 0.0 0.0 1:-0.466667 2:0.333333 3:-0.2 4:-0.0666667 5:-0.466667 6:0.2 7:-0.333333 8:-0.6 9:0.333333 10:0.466667 11:-0.466667 12:0.2 13:-0.866667 14:-0.0666667 15:-0.2 16:0.2 
0.0 1.0 0.0 0.0 0.0 0.0 0.0 0.0 0.0 0.0 0.0 1.0 0.0 0.0 0.0 0.0 0.0 1.0 0.0 0.0 0.0 0.0 0.0 0.0 1.0 1:-0.2 2:0.333333 3:0.0666667 4:0.0666667 5:-0.2 6:0.0666667 7:-0.0666667 8:-0.733333 9:0.2 10:0.6 11:-0.333333 12:0.0666667 13:-0.866667 14:-0.0666667 15:-0.2 16:0.0666667 
1.0 1.0 1.0 1.0 1.0 1.0 1.0 1.0 1.0 1.0 0.8411895220621589 0.0 1.0 1.0 1.0 1.0 1.0 1.0 1.0 1.0 1.0 0.0 1.0 1.0 1.0 1:-0.466667 2:-0.0666667 3:-0.333333 4:-0.333333 5:-0.466667 6:0.2 7:-0.0666667 8:-0.333333 9:-0.6 10:-0.0666667 11:-0.333333 12:-0.0666667 13:-0.6 14:0.0666667 15:0.2 16:-0.333333 
0.0 1.0 0.0 0.0 0.0 0.0 0.0 0.0 0.0 0.0 0.0 1.0 1.0 0.0 1.0 1.0 1.0 0.0 0.0 1.0 1.0 1.0 1.0 0.0 0.0 1:-0.6 2:-0.0666667 3:-0.466667 4:-0.333333 5:-0.6 6:-0.2 7:0.0666667 8:-0.333333 9:0.2 10:-0.0666667 11:-0.0666667 12:0.2 13:-0.866667 14:0.2 15:-0.0666667 16:-0.0666667 
0.0 0.0 0.0 0.0 0.0 0.0 0.0 0.0 0.0 0.0 0.0 1.0 0.0 0.0 0.0 0.0 0.0 1.0 0.0 0.0 0.0 0.0 0.0 0.0 0.0 1:-0.733333 2:-0.466667 3:-0.466667 4:-0.6 5:-0.733333 6:0.0666667 7:-0.2 8:-0.733333 9:0.2 10:0.6 11:-0.333333 12:0.2 13:-0.866667 14:0.0666667 15:-0.333333 16:0.2 
1.0 1.0 1.0 1.0 1.0 1.0 1.0 1.0 1.0 1.0 1.0 1.0 1.0 1.0 1.0 1.0 1.0 1.0 1.0 1.0 1.0 1.0 1.0 1.0 1.0 1:-0.466667 2:0.0666667 3:-0.333333 4:-0.2 5:-0.333333 6:0.0666667 7:0.466667 8:-0.2 9:-0.333333 10:-0.2 11:-0.333333 12:-0.0666667 13:-0.6 14:0.2 15:-0.2 16:-0.466667 
1.0 1.0 1.0 1.0 1.0 1.0 1.0 1.0 1.0 1.0 1.0 1.0 1.0 1.0 1.0 1.0 0.0 1.0 0.0 0.0 0.0 1.0 1.0 1.0 1.0 1:-0.333333 2:0.6 3:-0.2 4:-0.2 5:-0.466667 6:0.2 7:-0.333333 8:-0.6 9:0.0666667 10:0.6 11:-0.466667 12:0.2 13:-0.6 14:0.2 15:-0.333333 16:0.466667 
0.0 1.0 0.0 0.0 0.0 0.0 0.0 0.0 0.0 0.0 0.0 1.0 0.0 0.0 0.0 1.0 0.0 0.0 0.0 0.0 0.0 1.0 1.0 0.0 0.0 1:-0.733333 2:-0.733333 3:-0.6 4:-0.6 5:-0.733333 6:-0.0666667 7:0.0666667 8:-0.333333 9:0.2 10:-0.2 11:-0.2 12:0.2 13:-0.866667 14:0.2 15:-0.0666667 16:0.0666667 
0.0 1.0 0.0 0.0 0.0 0.0 0.0 0.0 0.0 0.0 0.0 1.0 0.0 0.0 0.0 1.0 0.0 1.0 0.0 0.0 0.0 0.0 0.0 0.0 1.0 1:-0.866667 2:-0.6 3:-0.6 4:-0.733333 5:-0.866667 6:-0.0666667 7:0.0666667 8:-0.733333 9:0.2 10:0.466667 11:-0.2 12:0.0666667 13:-0.866667 14:0.0666667 15:-0.333333 16:-0.0666667 
1.0 1.0 1.0 1.0 1.0 1.0 1.0 1.0 1.0 1.0 1.0 1.0 1.0 1.0 1.0 1.0 0.0 1.0 0.0 0.0 0.0 1.0 1.0 1.0 1.0 1:-0.333333 2:0.333333 3:-0.333333 4:-0.333333 5:-0.6 6:0.466667 7:-0.466667 8:-0.6 9:-0.0666667 10:0.466667 11:-0.466667 12:0.2 13:-0.733333 14:0.2 15:-0.466667 16:0.466667 
1.0 1.0 0.0 1.0 0.0 0.0 0.0 0.0 0.0 0.0 0.0 1.0 0.0 0.0 0.0 0.0 1.0 0.0 0.0 1.0 1.0 0.0 0.0 0.0 0.0 1:-0.466667 2:-0.0666667 3:-0.2 4:-0.333333 5:-0.6 6:-0.2 7:0.2 8:-0.6 9:0.2 10:0.6 11:0.2 12:-0.0666667 13:-0.866667 14:0.2 15:-0.2 16:-0.333333 
0.0 1.0 1.0 0.0 0.0 1.0 0.0 0.0 0.0 0.0 1.0 1.0 0.0 1.0 1.0 1.0 0.0 1.0 0.0 0.0 0.0 1.0 1.0 1.0 1.0 1:-0.466667 2:-0.0666667 3:-0.2 4:-0.333333 5:-0.466667 6:0.2 7:-0.2 8:-0.733333 9:0.0666667 10:0.466667 11:-0.466667 12:0.333333 13:-0.733333 14:-0.0666667 15:-0.2 16:0.333333 
0.0 1.0 0.0 1.0 0.18336713826981152 1.0 0.0 1.0 0.0 1.0 1.0 1.0 0.0 1.0 1.0 1.0 0.0 1.0 0.0 1.0 1.0 1.0 0.0 0.0 1.0 1:-0.0666667 2:0.866667 3:-0.0666667 4:0.0666667 5:-0.333333 6:-0.2 7:-0.0666667 8:-0.733333 9:0.2 10:0.6 11:-0.0666667 12:0.0666667 13:-0.466667 14:-0.2 15:-0.0666667 16:-0.2 
0.0 1.0 0.0 0.0 0.0 0.0 0.5911444472358843 1.0 0.0 1.0 1.0 1.0 0.0 1.0 1.0 1.0 0.0 0.0 0.0 0.0 1.0 1.0 1.0 1.0 0.0 1:0.0666667 2:0.6 3:0.0666667 4:-0.2 5:-0.333333 6:0.0666667 7:-0.333333 8:-0.733333 9:0.0666667 10:0.6 11:-0.2 12:0.333333 13:-0.6 14:-0.0666667 15:-0.0666667 16:0.0666667 
0.0 1.0 0.0 0.0 0.0 0.0 0.0 1.0 0.0 0.0 1.0 1.0 1.0 0.040908952770108 0.0 1.0 0.0 0.0 0.0 0.0 1.0 1.0 1.0 1.0 0.0 1:-0.6 2:-0.333333 3:-0.466667 4:-0.466667 5:-0.6 6:-0.0666667 7:-0.0666667 8:-0.333333 9:0.333333 10:-0.2 11:-0.2 12:0.0666667 13:-0.733333 14:0.0666667 15:-0.0666667 16:0.0666667 
0.0 1.0 0.0 0.0 0.0 0.0 0.0 0.0 0.0 0.0 0.0 0.0 0.0 0.0 0.0 0.0 0.0 0.0 0.0 0.0 0.0 0.0 0.0 0.0 0.0 1:-0.466667 2:0.2 3:-0.466667 4:-0.2 5:-0.6 6:-0.0666667 7:0.333333 8:-0.6 9:0.466667 10:0.0666667 11:-0.2 12:-0.0666667 13:-1.0 14:0.0666667 15:-0.0666667 16:-0.0666667 
0.0 1.0 0.0 0.0 0.0 0.0 0.0 0.0 0.0 0.0 0.0 0.0 0.0 0.0 0.0 0.0 0.0 0.06665787934532104 0.0 0.0 0.0 0.0 0.0 0.0 1.0 1:-0.333333 2:0.466667 3:-0.0666667 4:0.0666667 5:-0.466667 6:0.2 7:-0.2 8:-0.6 9:0.333333 10:0.6 11:-0.466667 12:0.0666667 13:-0.866667 14:-0.0666667 15:-0.2 16:0.2 
0.0 0.0 0.0 0.0 0.0 0.0 0.0 0.0 0.0 0.0 0.0 1.0 0.0 0.0 0.0 0.0 0.0 0.0 0.0 0.0 0.0 0.0 0.0 1.0 0.0 1:-0.733333 2:-0.6 3:-0.466667 4:-0.733333 5:-0.733333 6:0.0666667 7:-0.0666667 8:-0.733333 9:0.2 10:0.6 11:-0.2 12:0.0666667 13:-0.866667 14:0.0666667 15:-0.333333 16:0.0666667 
1.0 1.0 1.0 1.0 1.0 1.0 0.801866394364969 1.0 1.0 1.0 0.0 0.0 1.0 0.5200871661534379 0.0 1.0 1.0 1.0 1.0 1.0 1.0 0.0 0.0 1.0 1.0 1:-0.466667 2:-0.0666667 3:-0.2 4:-0.333333 5:-0.333333 6:0.2 7:0.2 8:-0.333333 9:-0.466667 10:-0.2 11:-0.333333 12:-0.0666667 13:-0.6 14:0.2 15:0.2 16:-0.466667 
0.0 1.0 1.0 0.0 0.0 1.0 0.0 1.0 0.0 0.595007889611615 0.0 1.0 1.0 1.0 1.0 1.0 0.0 1.0 0.0 0.0 0.0 0.0 1.0 1.0 0.0 1:-0.866667 2:-0.466667 3:-0.733333 4:-0.6 5:-0.733333 6:0.0666667 7:-0.0666667 8:-0.333333 9:0.0666667 10:-0.2 11:-0.2 12:-0.0666667 13:-0.733333 14:0.0666667 15:-0.0666667 16:0.0666667 
0.0 0.5489925280698227 1.0 1.0 1.0 1.0 1.0 1.0 0.0 1.0 1.0 1.0 0.0 1.0 0.0 1.0 0.0 0.0 0.0 1.0 1.0 0.0 0.0 0.0 0.04753797650528858 1:0.0666667 2:1.0 3:0.0666667 4:0.0666667 5:-0.2 6:-0.0666667 7:-0.0666667 8:-0.733333 9:0.2 10:0.6 11:-0.0666667 12:0.0666667 13:-0.2 14:-0.333333 15:0.0666667 16:-0.333333 
0.0 1.0 1.0 0.0 0.0 1.0 0.0 0.0 0.0 0.0 1.0 1.0 1.0 1.0 0.0 1.0 0.0 0.0 0.0 1.0 0.0 1.0 1.0 1.0 0.0 1:-0.733333 2:-0.866667 3:-0.733333 4:-0.733333 5:-0.866667 6:-0.0666667 7:-0.0666667 8:-0.333333 9:0.2 10:-0.2 11:-0.2 12:0.0666667 13:-0.866667 14:0.0666667 15:-0.2 16:0.0666667 
0.0 1.0 0.0 0.0 0.0 0.0 0.0 0.0 0.0 0.0 0.0 0.0 0.0 0.0 0.0 0.0 0.0 0.0 0.0 0.0 0.0 0.0 0.0 1.0 0.0 1:-0.466667 2:0.0666667 3:-0.333333 4:-0.2 5:-0.333333 6:0.0666667 7:0.0666667 8:-0.6 9:-0.0666667 10:-0.0666667 11:-0.2 12:-0.0666667 13:-0.866667 14:0.2 15:0.333333 16:0.0666667 
1.0 1.0 1.0 1.0 1.0 1.0 1.0 1.0 1.0 1.0 1.0 0.0 1.0 1.0 1.0 1.0 1.0 1.0 1.0 1.0 1.0 0.0 1.0 1.0 1.0 1:-0.466667 2:-0.2 3:-0.333333 4:-0.466667 5:-0.466667 6:0.2 7:0.2 8:-0.333333 9:-0.466667 10:-0.2 11:-0.333333 12:-0.0666667 13:-0.6 14:0.0666667 15:0.0666667 16:-0.466667 
0.0 1.0 0.0 0.0 0.0 0.0 0.0 0.0 0.0 0.0 0.0 1.0 0.0 0.0 0.0 1.0 0.0 1.0 0.0 0.0 0.0 0.0 0.0 -0.0 0.0 1:-0.866667 2:-1.0 3:-0.866667 4:-1.0 5:-1.0 6:-0.0666667 7:-0.0666667 8:-0.733333 9:0.2 10:0.0666667 11:-0.2 12:0.0666667 13:-1.0 14:0.0666667 15:-0.333333 16:0.0666667 
0.0 1.0 0.0 0.0 0.0 0.0 0.0 0.0 0.0 0.0 0.0 1.0 0.0 0.0 0.0 1.0 0.0 1.0 0.0 0.0 0.0 0.0 0.0 0.0 0.0 1:-0.866667 2:-1.0 3:-0.866667 4:-1.0 5:-1.0 6:0.0666667 7:-0.0666667 8:-0.733333 9:0.2 10:0.0666667 11:-0.2 12:0.0666667 13:-1.0 14:0.0666667 15:-0.333333 16:0.0666667 
0.0 1.0 0.0 0.0 0.0 1.0 0.0 1.0 0.0 0.0 1.0 1.0 0.0 1.0 0.0 1.0 0.0 0.0 0.0 0.0 1.0 0.0 -0.0 0.4030507146626697 0.0 1:0.333333 2:1.0 3:0.333333 4:0.2 5:-0.0666667 6:0.0666667 7:-0.2 8:-0.6 9:0.2 10:0.6 11:-0.2 12:0.2 13:-0.466667 14:-0.333333 15:0.0666667 16:-0.0666667 
0.0 1.0 0.0 0.0 0.0 0.0 0.0 0.0 0.0 0.0 0.0 0.0 0.0 0.0 0.0 0.0 0.0 0.0 0.0 0.0 0.0 0.0 0.0 0.0 0.0 1:-0.333333 2:0.466667 3:-0.0666667 4:0.0666667 5:0.0666667 6:-0.2 7:-0.0666667 8:-0.6 9:0.2 10:-0.0666667 11:-0.2 12:0.333333 13:-0.866667 14:0.0666667 15:0.466667 16:-0.333333 
0.0 0.0 0.0 0.0 0.0 0.0 0.0 0.0 0.0 0.0 1.0 1.0 0.0 0.0 0.0 1.0 0.0 0.0 0.0 0.0 0.0 0.0 0.0 0.8372809636881744 0.0 1:-0.6 2:-0.466667 3:-0.333333 4:-0.6 5:-0.733333 6:0.0666667 7:-0.2 8:-0.733333 9:0.2 10:0.6 11:-0.333333 12:0.2 13:-0.866667 14:0.0666667 15:-0.333333 16:0.2 
1.0 1.0 1.0 1.0 0.0 1.0 0.0 1.0 0.0 1.0 1.0 1.0 1.0 1.0 1.0 1.0 0.0 1.0 0.0 0.0 1.0 1.0 1.0 1.0 1.0 1:-0.2 2:0.333333 3:-0.2 4:-0.333333 5:-0.6 6:0.2 7:-0.333333 8:-0.733333 9:0.0666667 10:0.466667 11:-0.333333 12:0.2 13:-0.733333 14:0.2 15:-0.333333 16:0.2 
1.0 1.0 0.0 1.0 0.0 0.0 0.0 0.0 0.0 0.0 0.0 0.0 0.0 1.0 0.0 0.0 1.0 1.0 0.0 0.0 1.0 1.0 1.0 1.0 1.0 1:-0.0666667 2:-0.0666667 3:-0.333333 4:0.466667 5:-0.466667 6:-0.0666667 7:0.0666667 8:-0.333333 9:-0.6 10:0.466667 11:-0.0666667 12:-0.0666667 13:-0.733333 14:0.2 15:0.333333 16:-0.2 
0.11422058499471147 1.0 0.0 1.0 0.0 0.0 0.0 0.0 0.0 1.0 0.0 0.0 0.0 0.0 0.0 0.0 1.0 0.0 0.0 0.0 0.0 0.0 0.0 1.0 1.0 1:-0.333333 2:-0.0666667 3:-0.466667 4:0.466667 5:-0.466667 6:-0.0666667 7:0.0666667 8:-0.466667 9:-0.733333 10:0.6 11:-0.0666667 12:-0.0666667 13:-0.6 14:0.2 15:0.466667 16:-0.333333 
1.0 1.0 0.0 1.0 0.0 0.0 0.0 0.0 0.0 0.0 0.0 1.0 0.0 1.0 0.0 0.0 1.0 1.0 0.0 0.0 0.0 0.0 1.0 1.0 1.0 1:-0.2 2:-0.0666667 3:-0.466667 4:0.333333 5:-0.466667 6:0.0666667 7:-0.2 8:-0.466667 9:-0.466667 10:0.466667 11:-0.2 12:-0.0666667 13:-0.733333 14:0.333333 15:0.2 16:0.0666667 
0.0 0.0 0.0 0.0 0.0 0.0 0.0 0.0 0.0 0.0 0.0 1.0 0.0 0.0 0.0 0.0 0.0 0.0 0.0 0.0 0.0 0.0 0.0 0.0 0.0 1:-0.333333 2:0.466667 3:-0.0666667 4:0.0666667 5:-0.466667 6:-0.0666667 7:-0.0666667 8:-0.733333 9:0.333333 10:0.6 11:-0.333333 12:0.2 13:-0.866667 14:0.2 15:-0.0666667 16:0.0666667 
0.0 1.0 1.0 0.0 1.0 1.0 0.0 1.0 0.19070490523303452 0.0 0.0 1.0 1.0 1.0 0.0 1.0 1.0 1.0 0.0 1.0 0.0 0.0 1.0 1.0 0.0 1:-0.733333 2:-0.866667 3:-0.733333 4:-0.733333 5:-0.733333 6:0.0666667 7:-0.0666667 8:-0.333333 9:0.0666667 10:-0.2 11:-0.2 12:-0.0666667 13:-0.866667 14:0.0666667 15:-0.2 16:0.0666667 
0.0 1.0 1.0 0.0 0.0 1.0 1.0 0.0 1.0 0.0 1.0 1.0 1.0 1.0 1.0 1.0 0.0 0.0 1.0 1.0 0.0 1.0 1.0 1.0 0.0 1:-0.733333 2:-0.866667 3:-0.6 4:-0.733333 5:-0.733333 6:-0.0666667 7:-0.0666667 8:-0.333333 9:0.0666667 10:-0.2 11:-0.2 12:0.2 13:-0.733333 14:0.0666667 15:-0.0666667 16:0.0666667 
0.0 0.0 0.0 0.0 0.0 0.0 0.0 0.0 0.0 0.0 0.0 1.0 0.0 0.0 0.0 0.0 0.0 0.0 0.0 0.0 0.0 0.0 0.0 0.0 1.0 1:-0.6 2:-0.333333 3:-0.333333 4:-0.466667 5:-0.6 6:0.0666667 7:-0.0666667 8:-0.733333 9:0.2 10:0.6 11:-0.2 12:0.2 13:-0.866667 14:0.0666667 15:-0.333333 16:-0.0666667 
0.0 1.0 0.0 1.0 0.0 1.0 0.0 0.0 0.0 0.0 1.0 0.0 0.0 0.0 0.3006044428608661 1.0 1.0 0.31332459529305534 0.0 0.0 1.0 0.0 0.0 1.0 0.0 1:-0.466667 2:0.0666667 3:-0.2 4:-0.2 5:-0.2 6:-0.0666667 7:0.0666667 8:-0.733333 9:-0.0666667 10:-0.0666667 11:-0.2 12:-0.0666667 13:-0.866667 14:0.2 15:0.2 16:0.0666667 
0.0 0.7958940495213584 0.0 0.0 0.0 0.0 0.0 0.0 0.0 0.0 0.0 0.0 0.0 0.0 0.0 0.0 0.0 0.0 0.0 0.0 0.0 0.0 0.0 0.0 0.0 1:-0.733333 2:-0.466667 3:-0.466667 4:-0.6 5:-0.733333 6:-0.0666667 7:0.0666667 8:-0.733333 9:0.2 10:0.466667 11:-0.0666667 12:-0.0666667 13:-0.866667 14:0.0666667 15:-0.2 16:-0.2 
0.8523462328499977 0.0 1.0 1.0 0.0 0.0 0.0 0.0 0.0 0.0 0.0 1.0 0.0 0.0 0.0 0.0 0.0 1.0 0.0 0.0 1.0 0.0 0.0 0.0 1.0 1:-0.6 2:-0.333333 3:-0.333333 4:-0.466667 5:-0.6 6:-0.0666667 7:0.0666667 8:-0.733333 9:0.2 10:0.6 11:-0.2 12:0.0666667 13:-0.866667 14:0.2 15:-0.333333 16:-0.0666667 
0.0 1.0 0.0 0.0 0.0 0.0 0.0 0.0 0.0 0.0 0.0 1.0 0.0 0.0 0.0 0.0 0.0 0.0 0.0 0.0 0.0 1.0 0.0 0.0 0.0 1:-0.466667 2:0.333333 3:-0.333333 4:-0.0666667 5:-0.466667 6:-0.0666667 7:0.0666667 8:-0.2 9:0.466667 10:-0.0666667 11:-0.2 12:0.2 13:-0.866667 14:0.2 15:0.0666667 16:-0.0666667 
0.0 1.0 0.0 0.0 0.0 0.0 0.0 0.0 0.0 0.0 1.0 1.0 0.0 0.0 0.0 1.0 0.0 0.0 0.0 0.0 0.0 0.0 1.0 1.0 0.0 1:-0.6 2:-0.6 3:-0.466667 4:-0.466667 5:-0.6 6:-0.0666667 7:-0.0666667 8:-0.333333 9:0.333333 10:-0.2 11:-0.2 12:0.0666667 13:-0.733333 14:0.0666667 15:-0.0666667 16:0.0666667 
0.0 0.0 0.0 0.0 0.0 0.0 0.0 0.0 0.0 0.0 0.0 1.0 0.0 0.0 0.0 0.0 0.0 0.0 0.0 0.0 0.0 0.0 0.0 0.0 0.0 1:-0.2 2:0.2 3:0.0666667 4:-0.0666667 5:-0.466667 6:0.0666667 7:-0.2 8:-0.6 9:0.466667 10:0.6 11:-0.333333 12:0.333333 13:-0.866667 14:0.0666667 15:-0.2 16:0.0666667 
0.0 1.0 0.0 0.0 0.0 0.0 0.0 0.0 0.0 0.0 0.0 1.0 0.0 0.0 0.0 1.0 0.0 0.0 0.0 0.0 0.0 0.0 1.0 1.0 0.0 1:-0.733333 2:-0.6 3:-0.6 4:-0.733333 5:-0.733333 6:-0.0666667 7:-0.0666667 8:-0.333333 9:0.2 10:-0.2 11:-0.2 12:0.0666667 13:-0.866667 14:0.0666667 15:-0.0666667 16:0.0666667 
0.09291899008378081 1.0 0.0 1.0 0.0 0.0 0.0 0.0 0.0 0.0 0.0 0.0 0.0 0.0 0.0 1.0 1.0 1.0 0.0 0.0 1.0 0.0 0.0 0.0 0.0 1:-0.466667 2:-0.2 3:-0.333333 4:-0.466667 5:-0.6 6:-0.0666667 7:0.0666667 8:-0.733333 9:0.2 10:0.466667 11:0.0666667 12:-0.2 13:-0.866667 14:0.0666667 15:-0.2 16:-0.2 
0.0 1.0 0.0 0.0 0.0 0.0 0.0 0.0 0.0 0.0 0.0 0.0 0.0 1.0 0.0 0.0 0.0 0.0 0.0 0.0 0.0 0.0 1.0 1.0 0.0 1:0.0666667 2:0.0666667 3:-0.2 4:0.6 5:-0.333333 6:0.0666667 7:-0.333333 8:-0.333333 9:-0.466667 10:0.466667 11:-0.2 12:0.0666667 13:-0.6 14:0.2 15:0.466667 16:-0.0666667 
0.0 1.0 0.0 0.0 0.0 0.0 0.0 0.0 0.0 0.0 1.0 1.0 1.0 1.0 1.0 1.0 1.0 0.0 0.0 1.0 1.0 1.0 1.0 1.0 0.0 1:-0.6 2:-0.0666667 3:-0.466667 4:-0.333333 5:-0.6 6:-0.2 7:-0.0666667 8:-0.333333 9:0.2 10:-0.0666667 11:-0.0666667 12:0.2 13:-0.866667 14:0.2 15:-0.0666667 16:0.0666667 
1.0 1.0 1.0 1.0 1.0 1.0 1.0 1.0 1.0 1.0 1.0 1.0 1.0 1.0 0.0 1.0 1.0 1.0 1.0 1.0 1.0 0.9192373879284372 1.0 1.0 1.0 1:-0.333333 2:-0.0666667 3:-0.2 4:-0.333333 5:-0.333333 6:0.2 7:0.466667 8:-0.333333 9:-0.466667 10:-0.2 11:-0.333333 12:-0.0666667 13:-0.6 14:0.0666667 15:0.0666667 16:-0.333333 
0.0 1.0 0.0 0.0 0.0 0.0 0.0 0.0 0.0 0.0 1.0 1.0 0.0 1.0 1.0 1.0 0.0 0.0 0.0 0.0 0.0 1.0 0.0 0.0 0.0 1:-0.0666667 2:0.466667 3:0.2 4:0.0666667 5:-0.2 6:0.0666667 7:-0.2 8:-0.733333 9:0.2 10:0.6 11:-0.333333 12:0.333333 13:-0.733333 14:0.0666667 15:-0.0666667 16:0.2 
0.0 1.0 1.0 1.0 1.0 1.0 1.0 1.0 1.0 1.0 1.0 1.0 1.0 1.0 0.0 1.0 1.0 0.0 1.0 1.0 1.0 1.0 1.0 1.0 1.0 1:-0.333333 2:0.0666667 3:-0.2 4:-0.2 5:-0.333333 6:0.2 7:0.466667 8:-0.2 9:-0.2 10:-0.2 11:-0.333333 12:0.2 13:-0.6 14:0.0666667 15:0.0666667 16:-0.333333 
1.0 1.0 0.0 1.0 0.0 0.0 0.0 1.0 0.0 0.0 0.0 0.0 0.0 0.0 0.0 1.0 1.0 0.0 0.0 0.0 1.0 0.0 0.0 0.0 0.0 1:-0.2 2:0.333333 3:0.0666667 4:0.0666667 5:-0.466667 6:-0.2 7:0.2 8:-0.6 9:0.333333 10:0.466667 11:0.2 12:-0.333333 13:-0.733333 14:0.0666667 15:-0.0666667 16:-0.333333 
0.0 1.0 0.0 0.0 0.0 0.0 0.0 0.0 0.0 0.0 0.0 0.0 0.0 0.0 0.0 1.0 0.0 0.0 0.0 0.0 0.0 0.0 0.0 0.0 0.0 1:-0.466667 2:0.333333 3:-0.2 4:-0.0666667 5:-0.2 6:0.0666667 7:0.0666667 8:-0.733333 9:0.0666667 10:-0.0666667 11:-0.0666667 12:-0.0666667 13:-0.866667 14:0.0666667 15:0.333333 16:0.0666667 
0.0 1.0 1.0 0.0 0.0 1.0 1.0 1.0 0.0 1.0 1.0 1.0 1.0 1.0 1.0 1.0 0.0 1.0 0.0 0.0 0.0 0.0 1.0 1.0 1.0 1:-0.466667 2:-0.333333 3:-0.2 4:-0.0666667 5:-0.466667 6:0.466667 7:-0.466667 8:-0.466667 9:-0.333333 10:0.333333 11:-0.6 12:0.2 13:-0.733333 14:-0.0666667 15:-0.2 16:0.333333 
1.0 1.0 0.0 1.0 0.0 0.0 0.0 0.0 0.0 0.0 1.0 1.0 0.0 0.0 0.0 1.0 0.0 0.0 0.0 0.0 1.0 0.0 0.0 0.0 0.0 1:-0.2 2:0.2 3:0.0666667 4:-0.0666667 5:-0.333333 6:-0.0666667 7:-0.0666667 8:-0.733333 9:0.2 10:0.6 11:-0.2 12:0.0666667 13:-0.866667 14:0.2 15:-0.2 16:0.0666667 
1.0 1.0 1.0 1.0 0.0 1.0 0.0 1.0 1.0 1.0 0.0 1.0 0.0 1.0 0.0 0.0 0.0 0.0 0.0 0.0 1.0 1.0 1.0 1.0 0.0 1:-0.466667 2:0.0666667 3:-0.2 4:-0.2 5:-0.333333 6:0.2 7:0.333333 8:-0.2 9:-0.333333 10:-0.0666667 11:-0.333333 12:0.0666667 13:-0.6 14:0.2 15:0.333333 16:-0.0666667 
0.0 1.0 0.0 0.0 0.0 1.0 0.0 1.0 0.0 0.0 1.0 1.0 1.0 1.0 1.0 1.0 0.0 0.0 0.0 1.0 0.0 1.0 1.0 1.0 0.0 1:-0.733333 2:-0.466667 3:-0.6 4:-0.733333 5:-0.733333 6:-0.0666667 7:-0.0666667 8:-0.333333 9:0.2 10:-0.2 11:-0.2 12:0.0666667 13:-0.733333 14:0.0666667 15:-0.0666667 16:0.0666667 
1.0 1.0 0.0 1.0 0.0 0.0 0.0 1.0 0.0 0.0 0.0 0.0 0.0 0.0 0.0 1.0 1.0 1.0 0.0 0.0 1.0 0.0 0.0 0.0 1.0 1:-0.466667 2:-0.0666667 3:-0.2 4:-0.333333 5:-0.466667 6:-0.0666667 7:0.2 8:-0.733333 9:0.2 10:0.466667 11:0.0666667 12:-0.333333 13:-0.866667 14:0.0666667 15:-0.2 16:-0.333333 
1.0 1.0 1.0 1.0 0.0 1.0 0.0 1.0 0.0 1.0 1.0 0.0 1.0 1.0 1.0 1.0 0.0 1.0 0.0 0.0 0.0 0.0 1.0 1.0 1.0 1:-0.6 2:-0.466667 3:-0.466667 4:-0.2 5:-0.6 6:0.466667 7:-0.333333 8:-0.6 9:-0.466667 10:0.2 11:-0.6 12:-0.0666667 13:-0.866667 14:-0.0666667 15:-0.2 16:0.2 
1.0 1.0 1.0 1.0 0.0 0.0 0.0 0.0 0.0 0.0 0.0 1.0 0.0 0.0 0.0 0.0 1.0 0.0 0.0 0.0 1.0 0.0 0.0 1.0 0.0 1:-0.466667 2:-0.2 3:-0.2 4:-0.466667 5:-0.466667 6:-0.0666667 7:0.0666667 8:-0.733333 9:0.0666667 10:0.6 11:-0.0666667 12:0.0666667 13:-0.866667 14:0.2 15:-0.2 16:-0.0666667 
0.0 1.0 1.0 0.0 0.0 1.0 0.0 0.0 0.0 0.0 1.0 1.0 0.0 1.0 1.0 1.0 0.0 1.0 0.0 0.0 0.0 1.0 0.0 1.0 1.0 1:-0.466667 2:-0.2 3:-0.2 4:-0.466667 5:-0.6 6:0.0666667 7:-0.2 8:-0.733333 9:0.2 10:0.466667 11:-0.333333 12:0.2 13:-0.866667 14:0.0666667 15:-0.333333 16:0.2 
1.0 1.0 1.0 1.0 1.0 1.0 0.0 1.0 0.0 1.0 1.0 0.0 1.0 1.0 1.0 1.0 1.0 1.0 0.0 0.0 0.0 0.0 1.0 1.0 1.0 1:-0.6 2:-0.333333 3:-0.333333 4:-0.0666667 5:-0.466667 6:0.2 7:-0.333333 8:-0.466667 9:-0.466667 10:-0.0666667 11:-0.6 12:-0.2 13:-0.733333 14:0.0666667 15:-0.0666667 16:-0.2 
0.0 1.0 0.0 1.0 0.0 0.0 0.0 0.0 0.0 0.0 0.0 1.0 0.0 0.0 0.0 1.0 0.0 1.0 0.0 0.0 0.0 0.0 0.0 0.0 0.0 1:-0.466667 2:-0.2 3:-0.333333 4:-0.466667 5:-0.6 6:-0.0666667 7:-0.0666667 8:-0.733333 9:0.2 10:0.466667 11:-0.2 12:0.0666667 13:-0.866667 14:0.2 15:-0.2 16:0.0666667 
0.6054469992971914 1.0 1.0 1.0 1.0 1.0 0.0 1.0 0.0 1.0 1.0 1.0 1.0 0.33714319631267226 1.0 1.0 1.0 1.0 0.0 1.0 1.0 1.0 0.0 0.0 1.0 1:-0.2 2:0.6 3:-0.2 4:-0.2 5:-0.466667 6:-0.2 7:-0.0666667 8:-0.733333 9:0.2 10:0.466667 11:-0.0666667 12:0.0666667 13:-0.6 14:-0.0666667 15:-0.2 16:-0.2 
0.0 1.0 0.0 1.0 0.0 0.0 0.0 0.0 0.0 0.0 0.0 0.0 0.0 0.0 0.0 0.0 1.0 0.0 0.0 0.0 1.0 0.0 0.0 0.0 1.0 1:0.333333 2:0.333333 3:-0.0666667 4:0.866667 5:-0.2 6:-0.0666667 7:0.0666667 8:-0.466667 9:-0.733333 10:0.466667 11:-0.0666667 12:-0.0666667 13:-0.6 14:0.0666667 15:0.733333 16:-0.333333 
1.0 1.0 1.0 1.0 0.0 1.0 1.0 1.0 0.0 1.0 1.0 1.0 1.0 1.0 1.0 1.0 0.0 1.0 0.0 0.0 0.0 1.0 1.0 1.0 1.0 1:-0.0666667 2:0.6 3:-0.0666667 4:-0.2 5:-0.466667 6:0.333333 7:-0.6 8:-0.466667 9:-0.0666667 10:0.6 11:-0.466667 12:0.333333 13:-0.6 14:0.0666667 15:-0.2 16:0.333333 
